// Auto-generated MLP weights + pointers for C inference

#pragma once

#define ALIGN16 __attribute__((aligned(16)))

#define NUM_LAYERS 5

static const int LAYER_SIZES[NUM_LAYERS+1] = { 8, 256, 128, 64, 32, 1 };

// Shape: (8, 256)
static const float W0[2048] ALIGN16 = {
    0.012227, 0.006522, 0.462395, 0.451712, 0.000000, 0.000000, -0.000000, 0.968057, -1.102464, 0.000000, 0.101120, 0.545167, 0.000000, -5.133381, -4.737585, -2.649439, 0.000000, -0.318396, 0.000000, 0.000000, 0.178616, 0.839425, 0.432995, -0.000000, 0.005327, -0.000000, -0.000000, 0.000000, 0.000000, 0.003121, 0.000000, -4.788466, -3.371649, -0.000000, 0.007504, 0.009137, 0.000000, 0.000000, 2.062225, 0.000000, 0.000000, 0.502051, -4.594836, 0.000000, -2.835569, 0.000000, 0.000000, -0.000000, 0.748520, -0.000000, 0.471073, 0.000000, 0.637580, 0.510628, 0.000000, 0.000000, 0.264272, 0.000000, 0.156888, 0.000000, 0.598635, -4.657035, 0.003497, -0.000000, 0.005283, -0.000000, -3.236540, 0.019159, -0.000000, 0.060646, 1.322901, 0.000000, -0.204591, 0.000000, 0.526181, -0.000000, -2.620810, 0.000000, 1.036815, -0.000000, -0.000000, 0.000000, -0.000000, -0.000000, 0.000000, -0.000000, 0.000000, -0.000000, 0.007670, -1.338559, 0.026007, 0.000000, 0.000000, 0.000000, 0.000000, 0.070419, 0.004557, 0.000000, 0.509359, -0.784556, -3.789743, 0.000000, 0.025595, 0.010707, 0.000000, 0.000000, 0.034239, 0.000000, 0.746805, 0.000000, 0.000000, 0.000000, 0.217239, 0.199573, 0.018072, 0.321141, -0.000000, -0.000000, 0.780136, 0.004111, 0.000000, 0.004834, -0.243928, 0.000000, 0.000000, 0.471036, 0.011823, -0.000000, 0.000000, 0.000000, -0.000000, -0.085749, 0.040293, 0.209323, 0.018575, -0.000000, 0.178816, 0.325313, 0.000000, 0.000000, -0.000000, -0.000000, 0.715215, -0.070063, -0.000000, -0.000000, -0.047879, -0.340667, -0.105847, 0.000000, -0.000000, -0.000000, 0.000000, 2.686228, 0.000000, 0.000000, -0.626884, -0.381084, 0.239172, -0.000000, 0.000000, 0.000000, 0.000000, -0.000000, -0.000000, 0.000000, -0.000000, 0.086661, 0.000000, 0.034711, 0.228142, 0.029225, -0.000000, 0.000000, 0.088278, 1.417658, -0.000000, 0.000000, 0.057722, -3.186851, 0.027292, 0.000000, 0.279415, 0.000000, -0.856734, 0.000000, 0.000000, -0.885836, -0.000000, 0.000000, 0.000000, 0.000000, -1.722919, 0.000000, -0.000000, 0.127943, 0.000000, -0.002198, 0.000000, 0.000000, 0.000000, 2.761908, 0.000000, 0.000000, -0.000000, -0.004229, -0.373530, 0.006408, 0.000000, -1.500137, 0.000000, 0.052842, 0.245797, 0.000000, 0.000000, 0.000000, 0.000000, 0.318450, 0.000000, 0.000000, -0.000000, -0.000000, 0.000000, 0.738666, 0.000000, -0.000000, 0.000000, -3.117870, 0.000000, -0.000000, -0.000000, -0.000000, 0.539679, 0.000000, 0.000000, 0.850666, 0.005170, -0.000000, 0.000000, 0.000000, -0.219389, 0.011066, 0.000000, 0.000000, 0.005554, 0.050995, 0.005786, 1.348067, -0.000000, 1.110024, -0.007408, 0.000000, 0.015146, 0.000000, 0.000000, 0.634909, -0.000000, -0.000000, 0.000000, -0.000000, -0.000000, -0.000000, -0.000000, -0.000000, -0.000000, 0.000000, -0.000000, 0.000000, 0.000000, -0.000000, 0.000000, 0.000000, 0.000000, 0.000000, -0.000000, -0.000000, -0.000000, 0.000000, 0.000000, -0.000000, -0.000000, 0.000000, -0.000000, -0.000000, 0.000000, -0.000000, 0.000000, -0.000000, -0.000000, -0.000000, -0.000000, -0.000000, 0.000000, 0.000000, 0.000000, 0.000000, 0.000000, 0.000000, 0.000000, -0.000000, 0.000000, -0.000000, -0.000000, -0.000000, -0.000000, 0.000000, -0.000000, -0.000000, -0.000000, 0.000000, 0.000000, -0.000000, -0.000000, 0.000000, -0.000000, -0.000000, -0.000000, 0.000000, 0.000000, 0.000000, 0.000000, 0.000000, -0.000000, 0.000000, 0.000000, 0.000000, 0.000000, -0.000000, 0.000000, 0.000000, -0.000000, -0.000000, 0.000000, 0.000000, -0.000000, -0.000000, 0.000000, 0.000000, -0.000000, -0.000000, 0.000000, -0.000000, 0.000000, 0.000000, -0.000000, -0.000000, -0.000000, -0.000000, -0.000000, 0.000000, -0.000000, 0.000000, -0.000000, 0.000000, 0.000000, 0.000000, -0.000000, -0.000000, -0.000000, 0.000000, 0.000000, 0.000000, 0.000000, 0.000000, -0.000000, 0.000000, 0.000000, 0.000000, -0.000000, 0.000000, -0.000000, -0.000000, -0.000000, 0.000000, 0.000000, -0.000000, 0.000000, -0.000000, 0.000000, 0.000000, 0.000000, -0.000000, 0.000000, -0.000000, 0.000000, 0.000000, 0.000000, -0.000000, -0.000000, 0.000000, -0.000000, 0.000000, -0.000000, 0.000000, 0.000000, -0.000000, 0.000000, -0.000000, -0.000000, -0.000000, -0.000000, 0.000000, -0.000000, -0.000000, -0.000000, 0.000000, 0.000000, 0.000000, 0.000000, -0.000000, -0.000000, -0.000000, 0.000000, 0.000000, -0.000000, -0.000000, -0.000000, -0.000000, 0.000000, -0.000000, -0.000000, -0.000000, -0.000000, 0.000000, 0.000000, 0.000000, 0.000000, -0.000000, -0.000000, 0.000000, -0.000000, -0.000000, 0.000000, -0.000000, -0.000000, 0.000000, 0.000000, 0.000000, 0.000000, -0.000000, -0.000000, -0.000000, -0.000000, 0.000000, 0.000000, -0.000000, -0.000000, -0.000000, -0.000000, -0.000000, 0.000000, -0.000000, -0.000000, 0.000000, 0.000000, 0.000000, 0.000000, -0.000000, 0.000000, 0.000000, 0.000000, 0.000000, 0.000000, -0.000000, 0.000000, -0.000000, 0.000000, 0.000000, -0.000000, 0.000000, 0.000000, 0.000000, -0.000000, -0.000000, 0.000000, -0.000000, 0.000000, 0.000000, 0.000000, 0.000000, -0.000000, -0.000000, -0.000000, 0.000000, -0.000000, 0.000000, -0.000000, 0.000000, -0.000000, -0.000000, -0.000000, 0.000000, 0.000000, -0.000000, 0.000000, -0.000000, -0.000000, -0.000000, 0.000000, -0.000000, -0.000000, -0.000000, 0.000000, 0.000000, -0.000000, 0.000000, 0.000000, 0.000000, -0.000000, -0.000000, -0.000000, 0.000000, 0.011693, 0.006382, -0.095662, -0.057707, -0.000000, 0.000000, 0.000000, -0.752043, 1.440930, -0.000000, 0.241964, 0.225456, 0.000000, -3.825831, -3.666731, 3.027996, 0.000000, 0.039808, 0.000000, 0.000000, 0.320630, 1.752526, 0.269402, 0.000000, 0.004916, -0.000000, 0.000000, 0.000000, -0.000000, 0.003364, 0.000000, -3.568485, -2.452894, 0.000000, 0.005295, 0.005911, 0.000000, 0.000000, 0.918466, -0.000000, 0.000000, 0.102189, -3.137131, -0.000000, -0.674264, -0.000000, 0.000000, -0.000000, 0.794293, 0.000000, -1.119197, 0.000000, 0.439473, 0.162747, -0.000000, -0.000000, 0.215851, 0.000000, -0.047783, 0.000000, 0.053911, -3.313418, 0.002674, -0.000000, 0.005339, 0.000000, -4.832661, 0.019167, 0.000000, 0.213597, 0.852880, 0.000000, 0.512880, -0.000000, -0.283382, -0.000000, -1.991157, 0.000000, -0.193377, -0.000000, 0.000000, -0.000000, -0.000000, 0.000000, -0.000000, -0.000000, -0.000000, 0.000000, 0.003550, -0.622033, 0.026493, 0.000000, -0.000000, 0.000000, -0.000000, 0.154873, 0.004012, 0.000000, 0.158256, 1.826459, -0.400942, 0.000000, 0.024956, 0.008981, 0.000000, 0.000000, 0.035420, 0.000000, 0.582907, -0.000000, 0.000000, 0.000000, 0.001137, -0.181032, 0.018110, 0.469158, -0.000000, -0.000000, 0.559824, 0.004026, -0.000000, 0.004925, 0.094108, 0.000000, 0.000000, 0.418899, 0.011953, -0.000000, -0.000000, -0.000000, 0.000000, 0.182534, 0.460811, 1.012489, 0.017657, -0.000000, 0.142353, 0.040810, 0.000000, -0.000000, -0.000000, -0.000000, -0.433050, -0.453063, -0.000000, -0.000000, 0.649657, -0.151039, 1.320794, 0.000000, -0.000000, -0.000000, 0.000000, 1.619298, -0.000000, 0.000000, 0.359015, -0.156837, 0.239810, 0.000000, 0.000000, 0.000000, -0.000000, 0.000000, -0.000000, -0.000000, 0.000000, 0.090052, -0.000000, 0.032222, 0.127916, 0.025896, -0.000000, -0.000000, 0.095665, 0.533724, -0.000000, 0.000000, 0.408853, -1.998315, 0.015702, 0.000000, -0.023356, 0.000000, -0.904938, -0.000000, -0.000000, 0.192638, -0.000000, 0.000000, -0.000000, -0.000000, -2.044111, 0.000000, 0.000000, 0.094543, -0.000000, 0.003970, -0.000000, 0.000000, -0.000000, 1.931694, -0.000000, -0.000000, 0.000000, -0.010414, -0.573915, 0.006424, -0.000000, 0.597776, 0.000000, 0.034513, -0.123027, 0.000000, 0.000000, -0.000000, -0.000000, -1.600211, 0.000000, -0.000000, -0.000000, -0.000000, 0.000000, 0.911236, 0.000000, 0.000000, -0.000000, 0.181350, -0.000000, -0.000000, -0.000000, 0.000000, 0.291440, 0.000000, 0.000000, 1.074630, 0.005555, 0.000000, 0.000000, -0.000000, 0.440989, 0.010416, -0.000000, 0.000000, 0.005635, 1.112766, 0.005868, 0.858763, -0.000000, 0.495260, -0.016633, 0.000000, 0.011754, 0.000000, 0.000000, 0.937663, 0.007512, -0.000000, -1.540074, 0.091781, 0.000000, -0.000000, -0.000000, -1.440998, -0.043155, -0.000000, -0.060031, -0.142635, 0.000000, -0.057468, -0.155418, 0.308709, -0.000000, 0.084915, 0.000000, -0.000000, -0.376868, 0.013174, -2.381892, -0.000000, 0.000445, -0.000000, -0.000000, -0.000000, -0.000000, 0.011154, -0.000000, -0.005551, -0.029418, -0.000000, -0.004724, -0.023646, -0.000000, -0.000000, 0.522214, -0.000000, -0.000000, -0.125019, 0.029890, -0.000000, -0.500459, 0.000000, -0.000000, -0.000000, 0.069434, 0.000000, -1.390148, -0.000000, 0.576483, -0.879208, -0.000000, -0.000000, 0.358948, 0.000000, -1.359677, -0.000000, -0.041140, -0.052087, -0.002317, -0.000000, -0.000000, -0.000000, 0.300447, -0.000000, -0.000000, 0.050570, 0.012637, -0.000000, -0.075416, -0.000000, -0.860620, -0.000000, -0.669544, -0.000000, -0.145124, -0.000000, -0.000000, -0.000000, -0.000000, -0.000000, -0.000000, -0.000000, -0.000000, 0.000000, -0.007807, 0.378923, -0.000000, -0.000000, 0.000000, -0.000000, -0.000000, -1.035173, -0.000000, 0.000000, -0.065399, -1.023785, 0.285207, 0.000000, -0.000000, -0.010168, -0.000000, 0.000000, -0.000001, 0.000000, 0.102855, 0.000000, -0.000000, -0.000000, -0.073733, -1.880036, -0.000000, -0.932624, -0.000000, -0.000000, 0.150273, -0.000000, -0.000000, -0.000000, -0.020743, -0.000000, -0.000000, -1.941790, -0.000000, 0.000000, -0.000000, -0.000000, -0.000000, -0.661539, -0.778408, -0.901883, -0.000000, -0.000000, -0.031703, 0.138055, -0.000000, -0.000000, -0.000000, -0.000000, -0.952182, 0.165140, -0.000000, -0.000000, -0.107342, -0.475655, -0.772714, 0.000000, 0.000000, -0.000000, 0.000000, 0.036706, -0.000000, -0.000000, -0.797647, -1.895938, -0.758672, -0.000000, -0.000000, -0.000000, -0.000000, -0.000000, 0.000000, -0.000000, -0.000000, 0.018376, 0.000000, -0.003187, 0.010513, 0.001273, -0.000000, -0.000000, 0.013554, 0.077543, -0.000000, -0.000000, -0.613135, -0.083537, -0.040636, -0.000000, 0.107285, -0.000000, -1.196752, -0.000000, -0.000000, 0.464392, 0.000000, -0.000000, -0.000000, -0.000000, -0.729700, 0.000000, -0.000000, -0.074738, -0.000000, 0.016033, -0.000000, -0.000000, -0.000000, 0.056926, -0.000000, 0.000000, -0.000000, -2.197864, -0.636522, 0.010975, -0.000000, -0.489099, -0.000000, 0.078797, -1.714620, -0.000000, -0.000000, -0.000000, -0.000000, -2.080648, 0.000000, 0.000000, -0.000000, -0.000000, 0.000000, 0.202605, 0.000000, -0.000000, -0.000000, -0.615503, -0.000000, -0.000000, 0.000000, -0.000000, -0.032734, 0.000000, 0.000000, 0.454241, -0.010069, -0.000000, -0.000000, -0.000000, -0.108839, -0.000000, -0.000000, -0.000000, -0.000000, -0.937975, -0.000000, 0.057752, -0.000000, 0.235299, -0.012683, -0.000027, 0.014866, 0.000000, 0.000000, 0.532031, 0.009805, 0.000007, 0.676777, -0.066301, -0.000000, -0.000000, -0.000000, 0.394123, -0.028073, 0.000000, 0.043512, 0.341661, -0.000000, 0.022155, -0.191254, 0.017165, -0.000000, -0.035104, -0.000000, -0.000000, -0.316918, -0.258288, 0.505361, -0.000000, 0.014594, -0.000000, -0.000000, -0.000000, -0.000000, 0.040957, -0.000000, -0.255460, -0.180707, -0.000000, 0.039507, -0.016037, 0.000000, -0.000000, 0.144623, -0.000000, -0.000000, 0.554924, -0.183253, -0.000000, -0.268984, 0.000000, -0.000000, -0.000000, -1.630308, -0.000000, 0.130867, -0.000000, -0.397403, 0.158169, -0.000000, -0.000000, -0.007857, -0.000000, 0.233333, -0.000000, -0.034968, -0.064438, 0.014043, -0.000000, 0.003835, -0.000000, 0.174048, 0.000288, -0.000000, -0.030897, -1.299380, -0.000000, -0.112789, -0.000000, -0.007067, -0.000000, -0.599450, -0.000000, 0.422712, -0.000000, -0.000000, -0.000000, -0.000000, 0.000000, -0.000000, -0.000000, 0.000000, -0.000000, 0.015955, -0.164549, 0.000145, -0.000000, -0.000000, 0.000000, -0.000000, 0.262641, 0.000205, -0.000000, -0.003571, 0.153851, -0.102806, -0.000000, 0.000027, 0.004181, -0.000000, -0.000000, 0.000386, -0.000000, -1.925482, -0.000000, 0.000000, -0.000000, -0.068281, 0.352882, 0.000380, 0.010728, -0.000000, -0.000000, -0.671573, 0.000409, -0.000000, 0.000118, -0.372184, -0.000000, -0.000000, 0.201822, 0.000536, 0.000000, -0.000000, 0.000000, -0.000000, 0.556349, -0.603990, -0.341068, 0.002091, -0.000000, -0.065800, -0.544294, 0.000000, -0.000000, -0.000000, -0.000000, -0.136555, -0.491339, -0.000000, -0.000000, 0.312179, 0.516519, 0.073333, -0.000000, -0.000000, 0.000000, -0.000000, -1.497056, -0.000000, -0.000000, 0.019394, 0.198467, -0.209925, -0.000000, -0.000000, -0.000000, -0.000000, -0.000000, 0.000000, -0.000000, -0.000000, 0.054549, 0.000000, 0.047837, -0.051458, 0.063040, -0.000000, -0.000000, 0.065393, -2.057207, -0.000000, -0.000000, -0.468563, 0.053120, 0.049641, 0.000000, 0.091975, -0.000000, 0.285094, -0.000000, -0.000000, -0.487961, 0.000000, 0.000000, -0.000000, -0.000000, -0.199373, -0.000000, -0.000000, -0.020581, -0.000000, 0.037331, -0.000000, 0.000000, -0.000000, -0.102381, -0.000000, 0.000000, -0.000000, 0.461193, -0.016310, 0.000090, -0.000000, 0.261882, 0.000000, 0.017017, 0.282514, -0.000000, -0.000000, 0.000000, -0.000000, 0.360835, 0.000000, -0.000000, -0.000000, -0.000000, 0.000000, -2.097104, -0.000000, 0.000000, 0.000000, 0.302840, -0.000000, 0.000000, -0.000000, -0.000000, -0.377546, -0.000000, -0.000000, 0.224826, 0.032333, 0.000000, -0.000000, -0.000000, -0.468498, 0.000021, -0.000000, -0.000000, 0.000175, 0.032734, 0.000601, 0.589941, 0.000000, -2.049793, 0.063869, -0.000906, -0.067451, -0.000000, -0.000000, 0.212054, -0.004360, -0.000000, -0.621875, -2.521062, -0.000000, 0.000000, 0.000000, -1.458517, -1.899326, -0.000000, -0.048316, -1.051647, -0.000000, 0.010870, 0.123558, -1.811263, 0.000000, -2.545374, -0.000000, -0.000000, -1.042631, 0.890736, -1.266639, -0.000000, -0.006011, 0.000000, 0.000000, 0.000000, 0.000000, 0.003030, 0.000000, 0.052238, 0.194504, 0.000000, -0.017100, 0.100530, 0.000000, 0.000000, -0.346964, -0.000000, 0.000000, -1.559405, 0.001721, -0.000000, 0.447143, -0.000000, 0.000000, 0.000000, 0.028973, -0.000000, 1.174783, 0.000000, -1.121976, 0.966886, 0.000000, 0.000000, -1.032249, -0.000000, -0.625765, 0.000000, -0.031007, -0.000179, -0.003271, 0.000000, -0.000000, 0.000000, -0.627423, -0.000000, -0.000000, -2.177938, 0.474373, 0.000000, 0.050173, -0.000000, -0.609128, 0.000000, 0.801010, -0.000000, -1.193432, -0.000000, -0.000000, -0.000000, 0.000000, -0.000000, 0.000000, -0.000000, 0.000000, 0.000000, 0.002026, -1.736446, -0.000000, -0.000000, -0.000000, -0.000000, 0.000000, -1.303521, -0.000000, -0.000000, -0.159792, -2.389967, -1.403005, -0.000000, -0.000000, -0.008056, -0.000000, 0.000000, -0.000000, 0.000000, 0.512405, -0.000000, -0.000000, 0.000000, -2.236566, 0.693350, -0.000000, 0.499498, -0.000000, -0.000000, -0.339004, -0.000000, -0.000000, -0.000000, -2.289915, -0.000000, -0.000000, 0.746870, -0.000000, 0.000000, 0.000000, -0.000000, 0.000000, -2.610907, -2.312408, -2.231302, -0.000000, -0.000000, -2.326827, -1.062683, -0.000000, 0.000000, -0.000000, 0.000000, -1.303126, -1.366265, 0.000000, -0.000000, -2.774452, 0.462361, -2.538808, -0.000000, 0.000000, -0.000000, -0.000000, 0.742222, 0.000000, -0.000000, -2.198314, 1.106461, -1.734769, 0.000000, -0.000000, -0.000000, -0.000000, -0.000000, 0.000000, 0.000000, 0.000000, 0.010402, -0.000000, -0.025029, -0.039693, 0.001556, -0.000000, -0.000000, 0.006467, 0.672038, 0.000000, -0.000000, -1.701501, -0.196635, 0.002750, 0.000000, -2.534727, -0.000000, 0.371185, -0.000000, -0.000000, -0.421868, -0.000000, -0.000000, -0.000000, 0.000000, 0.925474, 0.000000, -0.000000, -0.027017, -0.000000, 0.013633, 0.000000, -0.000000, 0.000000, -0.097667, -0.000000, 0.000000, 0.000000, 0.330518, -0.677674, 0.001617, 0.000000, -1.285895, 0.000000, 0.180077, -0.909628, -0.000000, 0.000000, -0.000000, 0.000000, -3.874609, 0.000000, 0.000000, -0.000000, 0.000000, 0.000000, -0.158801, 0.000000, -0.000000, 0.000000, -0.825625, -0.000000, 0.000000, -0.000000, -0.000000, 0.051692, -0.000000, -0.000000, -1.056755, 0.004088, 0.000000, -0.000000, 0.000000, -1.948260, -0.000000, -0.000000, -0.000000, -0.000000, -2.044340, -0.000000, -1.693903, -0.000000, 0.399865, -0.016985, -0.000000, -0.029795, -0.000000, -0.000000, -1.291433, 0.000062, -0.000025, 0.205233, 0.343803, 0.000000, 0.000000, 0.000000, 0.043809, 0.147277, 0.000000, -0.061818, 0.846511, 0.000000, -0.033950, -0.045136, 0.151955, 0.000000, 0.365819, -0.000000, 0.000000, 0.131814, -0.123546, 0.250642, 0.000000, 0.001899, 0.000000, 0.000000, -0.000000, 0.000000, 0.055094, 0.000000, -0.003925, -0.077406, 0.000000, 0.071810, -0.026450, 0.000000, 0.000000, -0.371040, 0.000000, 0.000000, 0.546159, -0.009870, 0.000000, -0.025924, 0.000000, 0.000000, 0.000000, 0.653295, 0.000000, 0.159530, 0.000000, 0.386149, 0.287216, 0.000000, 0.000000, 0.267277, -0.000000, 0.351818, 0.000000, 0.093489, -0.028275, 0.000057, 0.000000, -0.000028, 0.000000, 0.190945, -0.000186, 0.000000, 0.207786, -0.418779, 0.000000, 0.081992, 0.000000, 0.569547, -0.000000, 0.189107, 0.000000, 0.402437, 0.000000, 0.000000, 0.000000, 0.000000, 0.000000, 0.000000, 0.000000, 0.000000, 0.000000, 0.034761, 0.093528, -0.000178, -0.000000, 0.000000, 0.000000, 0.000000, 0.068020, 0.000003, 0.000000, 0.154558, 0.125976, -0.001006, -0.000000, 0.000089, 0.002238, 0.000000, 0.000000, 0.004076, 0.000000, -0.175980, 0.000000, -0.000000, 0.000000, 0.354314, 0.292448, -0.000089, 0.511378, 0.000000, 0.000000, -0.390567, -0.000017, 0.000000, -0.000025, 0.199509, 0.000000, -0.000000, 0.127597, -0.000182, 0.000000, -0.000000, -0.000000, 0.000000, 0.956519, 0.328895, 0.128911, 0.000165, 0.000000, 0.386967, 0.624333, 0.000000, 0.000000, 0.000000, 0.000000, 0.208985, 0.189808, 0.000000, 0.000000, 0.573591, 0.494434, 0.157803, 0.000000, 0.000000, 0.000000, -0.000000, -0.249235, -0.000000, -0.000000, 0.215326, 0.121975, 0.141412, 0.000000, 0.000000, 0.000000, -0.000000, 0.000000, 0.000000, 0.000000, 0.000000, 0.022277, 0.000000, 0.055414, 0.044296, -0.004452, 0.000000, 0.000000, -0.032407, -0.051369, 0.000000, 0.000000, 0.305991, 0.171272, 0.076390, -0.000000, 0.534910, 0.000000, 0.387236, 0.000000, 0.000000, 0.376833, -0.000000, 0.000000, 0.000000, 0.000000, 0.163874, 0.000000, -0.000000, 0.021486, 0.000000, 0.078233, 0.000000, 0.000000, 0.000000, 0.027767, 0.000000, 0.000000, 0.000000, 0.403501, 0.348194, -0.000029, 0.000000, 0.239424, 0.000000, -0.033632, 0.511624, 0.000000, 0.000000, 0.000000, 0.000000, 0.159061, -0.000000, 0.000000, -0.000000, 0.000000, -0.000000, 0.130324, 0.000000, 0.000000, 0.000000, 0.298417, 0.000000, 0.000000, 0.000000, -0.000000, 0.105763, -0.000000, 0.000000, 0.684997, 0.084433, 0.000000, -0.000000, 0.000000, 0.203719, 0.000009, 0.000000, 0.000000, -0.000040, 0.119676, -0.000039, 1.134140, 0.000000, -0.372691, 0.051549, 0.000990, 0.010337, 0.000000, 0.000000, 0.822386, 0.007512, -0.000000, -1.559033, -0.105927, -0.000000, -0.000000, -0.000000, -1.453925, 0.074977, -0.000000, -0.060032, -0.234054, 0.000000, 0.012257, -0.032430, 0.273317, 0.000000, -0.115492, 0.000000, -0.000000, -0.392923, -0.262744, -2.396511, -0.000000, 0.000445, -0.000000, -0.000000, -0.000000, -0.000000, 0.011154, -0.000000, -0.049956, -0.048314, -0.000000, -0.004724, -0.023646, -0.000000, -0.000000, 0.535786, -0.000000, -0.000000, 0.058399, -0.021964, -0.000000, -0.499689, 0.000000, -0.000000, -0.000000, 0.005278, 0.000000, -1.286866, -0.000000, 0.618393, -0.808559, -0.000000, -0.000000, 0.454160, -0.000000, -1.367148, -0.000000, -0.034816, 0.066189, -0.002317, -0.000000, -0.000000, -0.000000, 0.403308, -0.000000, -0.000000, 0.120727, -0.106870, -0.000000, -0.038434, -0.000000, -0.897975, -0.000000, -0.674619, -0.000000, 0.060523, -0.000000, -0.000000, -0.000000, -0.000000, -0.000000, -0.000000, -0.000000, -0.000000, 0.000000, -0.007807, 0.497251, -0.000000, -0.000000, 0.000000, -0.000000, -0.000000, -1.056435, -0.000000, 0.000000, -0.068480, -0.979519, 0.268835, -0.000000, -0.000000, -0.010168, -0.000000, 0.000000, -0.000001, 0.000000, 0.054974, 0.000000, -0.000000, -0.000000, 0.052751, -1.994133, -0.000000, -0.854969, -0.000000, -0.000000, 0.056722, -0.000000, -0.000000, -0.000000, -0.075168, -0.000000, -0.000000, -1.899619, -0.000000, -0.000000, 0.000000, -0.000000, 0.000000, -0.590713, -0.663403, -0.889383, -0.000000, -0.000000, 0.025947, -0.102886, -0.000000, -0.000000, -0.000000, -0.000000, -0.942589, 0.309762, -0.000000, -0.000000, -0.115967, -0.574896, -0.818017, -0.000000, 0.000000, -0.000000, 0.000000, 0.045661, -0.000000, -0.000000, -0.810938, -1.791504, -0.783328, -0.000000, -0.000000, -0.000000, 0.000000, -0.000000, -0.000000, -0.000000, -0.000000, 0.018376, 0.000000, -0.003187, 0.010514, 0.001273, -0.000000, -0.000000, 0.013554, -0.062438, -0.000000, -0.000000, -0.630244, -0.103029, -0.040636, -0.000000, 0.026104, -0.000000, -1.171825, -0.000000, -0.000000, 0.600976, 0.000000, -0.000000, -0.000000, -0.000000, -0.714522, 0.000000, -0.000000, -0.074738, -0.000000, 0.016033, -0.000000, -0.000000, -0.000000, -0.039426, 0.000000, -0.000000, -0.000000, -2.232538, -0.629466, 0.010975, -0.000000, -0.457745, -0.000000, 0.078797, -1.723253, -0.000000, -0.000000, -0.000000, -0.000000, -2.082236, -0.000000, -0.000000, 0.000000, -0.000000, 0.000000, 0.122214, 0.000000, 0.000000, -0.000000, -0.503651, -0.000000, 0.000000, 0.000000, 0.000000, -0.012292, 0.000000, 0.000000, 0.528677, -0.010069, -0.000000, -0.000000, -0.000000, -0.076269, -0.000000, -0.000000, -0.000000, -0.000000, -0.920457, -0.000000, -0.135917, -0.000000, 0.233293, -0.012683, -0.000027, 0.014866, 0.000000, 0.000000, 0.453701
};

// Shape: (256,)
static const float B0[256] ALIGN16 = {
    -2.017326, -2.248448, 0.416961, 0.305167, -0.100773, -0.829666, -0.156312, -0.846519, -0.195065, -0.300455, -0.580725, 0.141623, -1.617226, -0.311714, -0.201327, -0.247382, -0.135090, 0.264052, -1.202563, -0.822731, -0.371207, -0.268054, 0.373268, -0.120978, -1.960232, -0.216475, -0.165722, -0.196694, -0.331971, -1.864931, -0.126661, -0.215421, -0.468747, -0.588828, -1.725936, -1.799340, -0.142300, -0.312490, -0.432638, -0.596018, -0.474345, 0.192777, -0.241383, -0.272559, -0.319404, -0.403979, -0.499299, -0.054873, 0.300765, -0.310316, 0.012784, -0.243531, 0.081451, -0.007043, -0.290591, -0.240985, -1.647945, -0.285693, 0.168962, -0.784139, -0.027073, -0.323924, -1.776029, -0.212016, -1.681590, -0.195861, -0.191477, -2.293820, -0.275812, 0.223868, -1.210569, -0.313102, -0.128588, -0.237428, 0.594617, -0.260656, 0.097375, -0.368795, 0.184249, -0.409689, -0.561316, -0.157567, -0.564004, -0.371438, -0.441108, -0.140489, -0.201175, -0.214353, -2.064590, 0.450091, -2.788537, -0.119025, -0.102640, -1.084590, -0.371617, -0.647167, -1.601606, -0.857719, -0.073778, -0.448886, -0.181368, -0.109321, -2.445461, -2.037669, -0.137441, -0.412247, -1.721950, -0.531739, -2.502853, -0.214037, -1.596314, -0.173185, 0.248872, 0.070611, -2.426346, 0.431389, -0.337492, -0.086679, -0.816610, -2.185622, -0.242121, -2.032408, 0.217997, -0.890665, -0.896387, 0.189010, -2.389970, -0.077041, -0.097151, -0.183018, -0.147901, 0.241483, -0.393136, -0.427413, -1.948317, -0.234560, 0.260155, 0.434346, -0.252672, -0.200072, -0.515203, -0.204088, -0.365409, 0.296529, -0.077059, -0.265159, -0.196597, -0.386393, -0.275007, -0.079259, -0.566177, -0.125379, -0.174151, -1.149092, -0.327395, -0.138085, 0.053100, 0.056448, -0.377767, -0.298251, -0.797497, -0.717629, -0.035955, -0.396015, -0.222757, -0.272587, -0.211125, -1.825782, -0.162081, -2.480856, -0.114487, -1.868191, -0.131214, -0.051340, -2.382741, -0.649121, -0.556610, -0.760501, -0.317832, -0.154863, -1.833262, -0.270436, 0.286715, -0.676359, 0.480336, -0.181166, -0.251965, -0.377245, -0.119483, -1.128416, -0.105174, -0.258685, 0.117312, -0.686002, -0.099219, -0.058019, -0.238506, -1.725778, -0.357897, -0.877378, -0.129682, 0.070102, -0.342744, -0.131326, -0.213917, 0.201976, 0.408396, -2.180264, -0.213496, -0.330843, -0.908988, -2.285447, 0.259898, -0.120774, -0.224008, -0.078243, -0.236533, 0.138736, -0.155827, -0.310834, -0.102202, -0.257693, -1.691228, -0.415803, -0.285956, -0.048272, -0.168555, -0.430445, -0.237282, -0.226611, -1.654914, -0.129369, -0.147012, -0.955263, -0.572717, 0.124106, -1.922375, -0.185519, -0.243336, -0.115750, -0.227182, -2.038435, -0.489886, -1.034667, -2.016842, -0.396063, -1.805216, 0.205673, -1.349562, -2.271856, -1.856371, -0.692107, -0.445485, -1.208898, -0.279612, 0.155741
};

// Shape: (256, 128)
static const float W1[32768] ALIGN16 = {
    0.000000, -0.000000, -0.000000, 0.000000, -0.000001, -0.000000, 0.000000, -0.000000, 0.000000, 0.000000, -0.000040, -0.000014, -0.000000, -0.000000, -0.000000, 0.000000, 0.000000, 0.000000, 0.000000, -0.000000, 0.000000, 0.000000, -0.000000, -0.032095, -0.000000, 0.000000, 0.000000, 0.000000, 0.000000, 0.000000, -0.000000, -0.000000, -0.000000, -0.000000, 0.000616, -0.000000, 0.000000, -0.007870, -0.000000, -0.000000, 0.000000, -0.000000, -0.000000, 0.000000, 0.000000, -0.000000, -0.000000, 0.000000, -0.000000, -0.003159, 0.000385, -0.019967, 0.000000, -0.000000, 0.000000, -0.000000, -0.000000, -0.000000, 0.000000, -0.000000, 0.000000, -0.000000, 0.000000, -0.000000, -0.000000, 0.000000, 0.000000, -0.000000, -0.000000, -0.000000, -0.000000, 0.015025, -0.000000, 0.006599, -0.000000, 0.000000, 0.000000, 0.000143, 0.000000, -0.000000, -0.000000, 0.000000, -0.000000, -0.000000, -0.000000, -0.000000, -0.000000, -0.000000, 0.000000, -0.000000, 0.000000, 0.000000, -0.000000, -0.000000, -0.000003, -0.000000, -0.001379, -0.000000, 0.000000, 0.000012, 0.000000, -0.000000, 0.000000, -0.000000, 0.000000, -0.000000, -0.000001, -0.000000, -0.000000, 0.004027, -0.000000, -0.000000, 0.000000, -0.000000, 0.000000, 0.000044, -0.000000, -0.049010, -0.000000, -0.000000, -0.000000, -0.000000, 0.000355, -0.000000, -0.000000, -0.000000, -0.000000, -0.000963, -0.000000, -0.000000, 0.000000, -0.000000, -0.000000, -0.000000, -0.000000, -0.000000, 0.000000, 0.000000, -0.000023, -0.000001, -0.000000, -0.000000, -0.000000, 0.000000, -0.000000, 0.000000, 0.000000, 0.000000, -0.000000, 0.000000, -0.000000, 0.000000, -0.000000, -0.000000, -0.000000, 0.000000, -0.000000, 0.000000, 0.000000, -0.000000, -0.000000, -0.000000, 0.000162, -0.000000, -0.000000, -0.000000, -0.000000, 0.000000, -0.000000, -0.000000, 0.000000, -0.000000, -0.000000, 0.000000, -0.000000, -0.000000, -0.000000, -0.000008, 0.000000, -0.000005, -0.000000, 0.000000, -0.000000, -0.000000, -0.000000, -0.000000, 0.000000, -0.000000, -0.000000, -0.000000, 0.000000, -0.000000, -0.000000, 0.000000, -0.000000, -0.000000, -0.000000, 0.000000, 0.000000, 0.000000, 0.000000, 0.000000, 0.000000, -0.000000, 0.000000, -0.000000, -0.000000, -0.000000, 0.000000, 0.000000, 0.000000, 0.000000, -0.000000, -0.000000, 0.000000, -0.000000, 0.000000, -0.000000, -0.000000, 0.000000, -0.000000, -0.000000, -0.000000, -0.000000, -0.000000, -0.000000, -0.000000, -0.000000, -0.000000, -0.000000, -0.000000, 0.000000, 0.000000, 0.000000, 0.000000, 0.000000, 0.000000, 0.000000, -0.000000, 0.000000, 0.000000, -0.000000, -0.000000, 0.000006, 0.000000, -0.000169, -0.000000, -0.000000, 0.000000, 0.000000, -0.000000, 0.000000, 0.000000, -0.000000, -0.000000, -0.000000, 0.000000, 0.000000, 0.000000, -0.000000, 0.191208, -0.000000, -0.000000, 0.000000, 0.000000, 0.000000, -1.696865, -0.285389, -1.281863, -0.869739, -0.000000, 0.420535, -1.037550, 0.013092, -1.460084, 0.000000, -0.379337, 0.000000, -1.568010, -0.240884, -0.000000, 0.000000, -0.000000, -0.000000, 0.000000, -0.652777, -0.000000, -0.000000, -0.000000, 0.000000, -0.461957, -0.011710, -0.827044, 0.199825, -0.000000, 0.603869, -0.000000, 0.068204, 0.000000, -0.000000, 0.000000, -0.000000, 0.000000, -0.000000, 0.000000, 0.165390, 0.282283, -0.335274, -0.000000, -0.000000, -0.000000, -0.000000, -0.000000, -0.000000, -0.062255, 0.000000, 0.064205, -1.092907, -2.048098, -0.029848, -0.000000, 0.000000, 0.000000, 0.000000, 0.093450, -0.000000, -0.000000, 0.122909, -0.000000, 0.122709, -0.903065, -0.000000, -0.000000, -0.543605, -0.000000, -0.000000, -0.000000, 0.189348, -0.000000, -0.000000, 0.077106, -0.000000, -0.000000, -0.000000, 0.491140, -0.000000, 0.000000, -0.000000, -0.188660, -0.995696, -1.282391, 0.000000, -0.023672, 0.000000, 0.159365, -1.623453, -0.000000, -0.000000, -0.000000, -0.693204, -1.155991, -0.830743, 0.552202, -0.000000, 0.000000, -0.260688, -0.157487, -0.000000, -1.152177, -0.172911, 0.000000, -0.409449, -0.646987, 0.578359, 0.000000, -0.000000, -0.000000, -0.127476, -0.630232, -0.127063, 0.000000, -0.845499, 0.328142, 0.018330, -0.000000, -0.000000, 0.000000, 0.000000, -0.076898, -0.000000, -0.000000, -0.000000, 0.000000, 0.000000, -0.440697, 0.132740, 0.021212, -0.647336, -0.000000, -0.001024, -0.000000, -1.050313, 0.038625, 0.000000, -0.000000, -0.000000, -0.000000, -0.717147, -0.000000, 0.000000, -0.237448, 0.000000, 0.000000, 0.000000, 0.000000, 0.000000, -0.000000, 0.000000, 0.096102, -0.008307, 0.338815, 0.267495, -0.000000, -0.947623, -0.000000, -0.227670, 0.000000, -0.000000, -0.000000, -0.000000, 0.000000, 0.000000, -0.000000, -0.063075, -0.027830, 0.038768, 0.000000, -0.000000, -0.000000, -0.000000, 0.000000, 0.000000, -1.624650, -0.000000, 0.819582, -0.066463, 0.083092, -0.000000, -0.000000, -0.000000, 0.000000, -0.000000, 0.004144, 0.000000, -0.000000, 0.293347, 0.000000, 0.498267, -0.772551, -0.000000, -0.000000, 0.640576, -0.000000, -0.000000, 0.000000, -0.137452, -0.000000, 0.000000, -0.011251, -0.000000, 0.000000, -0.000000, -0.225522, 0.000000, -0.000000, -0.000000, -0.038891, -0.601022, 0.303582, -0.000000, 0.488166, -0.000000, 0.909671, 0.000000, 0.000000, 0.000000, 0.000000, 0.023851, 0.000000, 0.211677, -0.181650, 0.000000, -0.000000, 0.383041, 0.018298, -0.000000, -0.015824, -0.022913, 0.000000, -0.108094, 0.000000, -0.186283, 0.000000, 0.000000, -0.000000, 0.079927, -0.525359, 0.081789, -0.000000, -0.984017, 0.008796, -0.155220, 0.000000, -0.000000, -0.000000, -0.000000, 0.000000, 0.000000, -0.000000, -0.000000, -0.000000, -0.000000, -0.000000, 0.000000, 0.000000, 0.000000, 0.000000, -0.000000, -0.000000, -0.000000, 0.000000, 0.000000, 0.000000, 0.000000, -0.000000, 0.000000, 0.000000, 0.000000, 0.000000, -0.000000, -0.000000, -0.000000, 0.000000, -0.000000, 0.000000, -0.000000, -0.000000, 0.000000, 0.000000, 0.000000, 0.000000, -0.000000, -0.000000, 0.000000, 0.000000, -0.000000, 0.000000, -0.000000, -0.000000, 0.000000, -0.000000, -0.000000, -0.000000, -0.000000, -0.000000, -0.000000, -0.000000, -0.000000, -0.000000, 0.000000, 0.000000, -0.000000, 0.000000, -0.000000, 0.000000, 0.000000, 0.000000, -0.000000, -0.000000, -0.000000, -0.000000, 0.000000, -0.000000, -0.000000, -0.000000, 0.000000, 0.000000, -0.000000, -0.000000, 0.000000, 0.000000, 0.000000, -0.000000, -0.000000, 0.000000, 0.000000, -0.000000, -0.000000, -0.000000, -0.000000, -0.000000, -0.000000, -0.000000, 0.000000, 0.000000, 0.000000, 0.000000, -0.000000, -0.000000, -0.000000, 0.000000, -0.000000, 0.000000, -0.000000, 0.000000, 0.000000, -0.000000, 0.000000, -0.000000, 0.000000, 0.000000, -0.000000, -0.000000, 0.000000, 0.000000, 0.000000, 0.000000, -0.000000, -0.000000, -0.000000, 0.000000, -0.000000, 0.000000, 0.000000, -0.000000, 0.000000, 0.000000, -0.000000, 0.000000, 0.000000, 0.000000, -0.000000, 0.000000, -0.000000, 0.000000, 0.000000, 0.000000, -0.000000, -0.000000, 0.000000, 0.000000, -0.000000, -0.000000, -0.000000, -0.000000, -0.000000, 0.000000, 0.000000, 0.000000, 0.000000, 0.000000, 0.000000, 0.000000, -0.000000, -0.000000, 0.000000, 0.000000, -0.000000, -0.000000, 0.000000, -0.000000, 0.000000, 0.000000, -0.000000, 0.000000, -0.000000, -0.000000, 0.000000, -0.000000, 0.000000, -0.000000, -0.000000, 0.000000, -0.000000, -0.000000, -0.000000, -0.000000, 0.000000, -0.000000, -0.000000, -0.000000, 0.000000, -0.000000, -0.000000, -0.000000, -0.000000, -0.000000, -0.000000, -0.000000, 0.000000, -0.000000, -0.000000, 0.000000, -0.000000, -0.000000, -0.000000, -0.000000, -0.000000, 0.000000, -0.000000, -0.000000, 0.000000, -0.000000, -0.000000, -0.000000, -0.000000, -0.000000, 0.000000, 0.000000, -0.000000, 0.000000, 0.000000, 0.000000, 0.000000, 0.000000, 0.000000, -0.000000, -0.000000, 0.000000, -0.000000, -0.000000, -0.000000, 0.000000, 0.000000, -0.000000, -0.000000, -0.000000, -0.000000, 0.000000, 0.000000, 0.000000, -0.000000, 0.000000, -0.000000, -0.000000, 0.000000, -0.000000, -0.000000, -0.000000, 0.000000, -0.000000, 0.000000, -0.000000, -0.000000, -0.000000, -0.000000, -0.000000, -0.000000, 0.000000, 0.000000, -0.000000, -0.000000, -0.000000, -0.000000, -0.000000, 0.000000, -0.000000, 0.000000, 0.000000, -0.000000, -0.000000, 0.000000, -0.000000, -0.000000, -0.000000, -0.000000, -0.000000, 0.000000, 0.000000, -0.000000, -0.000000, 0.000000, -0.000000, -0.000000, -0.000000, 0.000000, -0.000000, 0.000000, 0.000000, 0.000000, -0.000000, -0.000000, -0.000000, -0.000000, -0.000000, -0.000000, -0.000000, -0.000000, 0.000000, 0.000000, 0.000000, -0.000000, 0.000000, -0.000000, 0.000000, -0.000000, -0.000000, 0.000000, 0.000000, -0.000000, -0.000000, -0.000000, 0.000000, -0.000000, -0.000000, 0.000000, -0.000000, -0.000000, -0.000000, -0.000000, -0.000000, -0.000000, -0.000000, -0.000000, 0.000000, -0.000000, 0.000000, -0.000000, -0.000000, -0.000000, 0.000000, -0.000000, 0.000000, 0.000000, 0.000000, 0.000000, -0.000000, 0.000000, -0.000000, 0.000000, -0.000000, -0.000000, 0.000000, -0.000000, 0.000000, -0.000000, -0.000000, -0.000000, -0.000000, 0.000000, -0.000000, -0.000000, -0.000000, 0.000000, 0.000000, -0.000000, -0.000000, -0.000000, 0.000000, -0.000000, 0.000000, 0.000000, -0.000000, -0.000000, -0.000000, -0.000000, -0.000000, -0.000000, -0.000000, -0.000000, -0.000000, 0.000000, 0.000000, -0.000000, -0.000000, -0.000000, -0.000000, 0.000000, -0.000000, -0.000000, -0.000000, 0.000000, -0.000000, -0.000000, 0.000000, 0.000000, 0.000000, 0.000000, 0.000000, -0.000000, 0.000000, 0.000000, -0.000000, -0.000000, 0.000000, 0.000000, 0.000000, -0.000000, 0.000000, -0.000000, -0.098338, 0.000000, -0.000000, -0.000000, -0.000000, 0.000000, 0.231133, 0.109406, -0.119270, 0.012031, -0.000000, -0.042506, -0.046015, 0.018804, 0.010120, 0.000000, -0.000000, -0.000000, 0.014247, -0.000000, -0.000000, -0.000000, 0.000000, -0.000000, -0.000000, 0.022571, -0.000000, -0.000000, 0.000000, 0.000000, 0.592457, -0.003238, 0.000000, 0.061240, 0.000000, -0.000000, -0.000000, 0.033632, -0.000000, -0.000000, 0.000000, -0.000000, -0.000000, 0.000000, -0.000000, -0.276364, -0.086276, 0.144206, 0.000000, -0.000000, 0.000000, 0.000000, -0.000000, 0.000000, 0.033820, -0.000000, -0.322272, 0.000000, -0.000000, 0.003140, -0.000000, -0.000000, -0.000000, 0.000000, -0.039460, -0.000000, 0.000000, 0.209903, 0.000000, 0.636105, 0.005729, 0.000000, 0.000000, -0.175699, -0.000000, -0.000000, -0.000000, 0.024248, 0.000000, 0.000000, 0.288658, 0.000000, -0.000000, 0.000000, 0.004235, -0.000000, -0.000000, -0.000000, -0.000105, -0.001699, 0.307848, -0.000000, 0.100781, 0.000000, -0.005164, -0.000000, -0.000000, 0.000000, 0.000000, -0.292583, 0.265050, 0.627311, -0.040624, -0.000000, -0.000000, -0.208738, 0.032347, 0.000000, -0.166240, -0.084627, -0.000000, 1.819435, -0.000000, 0.665075, -0.000000, 0.000000, -0.000000, -0.000000, -0.016009, 2.697563, -0.000000, 0.067338, -0.005518, 0.081224, -0.000000, -0.000000, -0.000000, 0.000000, 0.181443, -0.000000, -0.000000, -0.000000, -0.000000, 0.000000, 0.005211, 0.010468, 0.012237, 0.008169, -0.000000, -0.002696, 0.000000, -0.000000, 0.000617, -0.000000, -0.000000, -0.000000, 0.001038, 0.000000, 0.000000, -0.000000, 0.000000, -0.000000, 0.000000, 0.000000, 0.000000, -0.000000, 0.000000, 0.000000, 0.156239, -0.001245, 0.253774, -0.011233, -0.000000, -0.801802, 0.000000, 0.171031, -0.000000, -0.000000, -0.000000, -0.000000, 0.000000, -0.000000, 0.000000, -0.194340, -0.018656, 0.657265, 0.000000, -0.000000, 0.000000, 0.000000, -0.000000, -0.000000, 0.040641, -0.000000, -0.252244, 0.000000, -0.000000, 0.000000, -0.000000, -0.000000, -0.000000, 0.000000, -0.001187, 0.000000, 0.000000, 0.749697, 0.000000, -1.382640, 0.000000, 0.000000, 0.000000, -0.100630, -0.000000, -0.000000, 0.000000, -0.144126, -0.000000, 0.000000, 0.008129, -0.000000, -0.000000, -0.000000, 0.026784, -0.000000, 0.000000, -0.000000, 0.051510, 0.000000, -0.078922, -0.000000, 1.011539, 0.000000, -0.434966, 0.000000, 0.000000, -0.000000, 0.000000, -0.035066, -0.000000, 0.467557, -0.337192, 0.000000, -0.000000, 0.233298, 0.030680, 0.000000, -0.006967, -0.052183, -0.000000, 0.285364, 0.000000, -0.147826, 0.000000, 0.000000, 0.000000, -0.000000, 0.000000, 0.099063, -0.000000, -0.000000, -0.397795, -0.000480, -0.000000, 0.000000, -0.000000, 0.000000, -0.000000, -0.000000, -0.000000, -0.000000, 0.000000, -0.000000, -0.000000, -0.000000, -0.000000, -0.000000, -0.000000, -0.000000, 0.000000, 0.000000, -0.000000, -0.000000, 0.000000, -0.000000, 0.000000, 0.000000, -0.000000, 0.000000, -0.000000, 0.000000, -0.000000, -0.000000, -0.000000, -0.000000, 0.000000, -0.000000, 0.000000, 0.000000, 0.000000, -0.000000, -0.000000, 0.000000, -0.000000, -0.000000, -0.000000, -0.000000, -0.000000, -0.000000, -0.000000, -0.000000, -0.000000, -0.000000, 0.000000, -0.000000, -0.000000, -0.000000, -0.000000, -0.000000, 0.000000, -0.000000, -0.000000, -0.000000, -0.000000, -0.000000, 0.000000, -0.000000, 0.000000, -0.000000, 0.000000, 0.000000, -0.000000, 0.000000, 0.000000, -0.000000, -0.000000, 0.000000, -0.000000, -0.000000, -0.000000, -0.000000, -0.000000, -0.000000, -0.000000, -0.000000, -0.000000, -0.000000, 0.000000, -0.000000, -0.000000, 0.000000, -0.000000, -0.000000, 0.000000, -0.000000, 0.000000, -0.000000, -0.000000, -0.000000, 0.000000, -0.000000, -0.000000, -0.000000, -0.000000, -0.000000, 0.000000, -0.000000, 0.000000, -0.000000, 0.000000, -0.000000, -0.000000, 0.000000, -0.000000, -0.000000, 0.000000, -0.000000, -0.000000, 0.000000, 0.000000, -0.000000, -0.000000, 0.000000, -0.000000, -0.000000, -0.000000, 0.000000, -0.000000, -0.000000, -0.000000, 0.000000, -0.000000, -0.000000, 0.000000, -0.000000, -0.053425, -0.000000, 0.000000, -0.000000, 0.000000, 0.000000, 0.010134, -0.021670, -0.032610, -0.000247, -0.000000, 0.182594, -0.098764, 0.046194, 0.089352, 0.000000, 0.020877, -0.000000, 0.068361, 0.000000, 0.000000, 0.000000, -0.000000, 0.000000, 0.000000, 0.030383, -0.000000, -0.000000, 0.000000, -0.000000, 0.092001, 0.056367, 0.000000, 0.025375, 0.000000, -0.000000, -0.000000, -0.150545, 0.000000, -0.000000, -0.000000, -0.000000, -0.000000, 0.000000, -0.000000, -0.026341, -0.002825, 0.006955, -0.000000, 0.000000, -0.000000, 0.000000, 0.000000, 0.000000, -0.093614, -0.000000, 0.049557, 0.000000, -0.000049, -0.015600, 0.000000, 0.000000, -0.000000, 0.000000, -0.028027, 0.000000, -0.000000, 0.005203, -0.000000, -0.052254, 0.039970, -0.000000, -0.000000, 0.033664, 0.000000, -0.000000, 0.000000, 0.004312, 0.000000, -0.000000, 0.012110, 0.000000, -0.000000, -0.000000, -0.001159, -0.000000, 0.000000, -0.000000, -0.015247, 0.000762, 0.007126, -0.000000, -0.085537, 0.000000, -0.000000, 0.001341, 0.000000, -0.000000, 0.000000, 0.081094, -0.051808, -0.009098, -0.142939, -0.000000, 0.000000, 0.036701, -0.006940, -0.000000, -0.107295, -0.000000, 0.000000, 0.055985, -0.011480, -0.045544, -0.000000, -0.000000, -0.000000, 0.000000, -0.019129, -0.000000, 0.000000, -0.007884, -0.033807, 0.014068, 0.000000, -0.000000, 0.000000, 0.000000, 0.142594, -0.000000, 0.000000, -0.000000, -0.000000, 0.000000, -0.908154, -0.037573, -0.404095, -0.366094, -0.000000, -0.000010, -0.150023, -0.063683, -0.605735, 0.000000, 0.035501, -0.000000, -0.455379, -0.110774, 0.000000, 0.000000, -0.324769, -0.000000, -0.000000, -0.045566, 0.000000, 0.000000, -0.000000, -0.000000, 0.017866, -0.004627, -0.047158, 0.158682, -0.000000, -0.224487, -0.000000, -0.025643, -0.000000, -0.000000, -0.000000, 0.000000, 0.000000, 0.000000, -0.000000, 0.035923, -0.177758, -0.067051, 0.000000, -0.000000, 0.000000, 0.000000, -0.000000, 0.000000, 0.190905, 0.000000, 0.096674, 0.188961, -0.462125, -0.000000, -0.000000, 0.000000, -0.000000, -0.000000, -0.000000, 0.000000, -0.000000, 0.530485, -0.000000, 0.268432, 0.022898, -0.000000, -0.000000, 0.177262, -0.000000, -0.000000, -0.000000, 0.161486, -0.000000, -0.000000, 0.000000, -0.000000, -0.000000, -0.000000, -0.093822, -0.000000, -0.000000, -0.000000, 0.209569, -0.379910, 0.342705, -0.000000, 0.310513, -0.000000, 0.223219, -0.082679, -0.000000, 0.000000, -0.000000, -0.076492, 0.014084, -0.409287, 0.003048, -0.000000, -0.000000, 0.154498, 0.057879, -0.000000, -0.098812, -0.141524, -0.000000, -0.327984, 0.260479, 0.226342, -0.000000, 0.000000, 0.000000, -0.100063, -0.553596, -0.167992, 0.000000, 0.143744, 0.216785, -0.526363, -0.000000, 0.000000, 0.000000, -0.000000, -0.000000, 0.000000, -0.000000, 0.000000, 0.000000, -0.000000, 0.000000, -0.000000, -0.000000, -0.000000, -0.000000, 0.000000, 0.000000, -0.000000, -0.000000, 0.000000, -0.000000, 0.000000, 0.000000, 0.000000, -0.000000, 0.000000, -0.000000, 0.000000, -0.000000, -0.000000, 0.000000, -0.000000, -0.000000, -0.000000, 0.000000, -0.000000, 0.000000, 0.000000, 0.000000, -0.000000, -0.000000, -0.000000, -0.000000, -0.000000, 0.000000, 0.000000, -0.000000, -0.000000, 0.000000, -0.000000, -0.000000, -0.000000, 0.000000, -0.000000, -0.000000, 0.000000, -0.000000, 0.000000, 0.000000, -0.000000, -0.000000, -0.000000, -0.000000, 0.000000, -0.000000, 0.000000, -0.000000, -0.000000, 0.000000, -0.000000, -0.000000, 0.000000, -0.000000, -0.000000, -0.000000, -0.000000, -0.000000, -0.000000, 0.000000, -0.000000, 0.000000, 0.000000, 0.000000, -0.000000, -0.000000, -0.000000, 0.000000, -0.000000, -0.000000, -0.000000, -0.000000, -0.000000, 0.000000, -0.000000, -0.000000, -0.000000, 0.000000, -0.000000, 0.000000, 0.000000, 0.000000, -0.000000, 0.000000, -0.000000, 0.000000, 0.000000, 0.000000, -0.000000, -0.000000, 0.000000, -0.000000, -0.000000, 0.000000, -0.000000, 0.000000, 0.000000, -0.000000, -0.000000, -0.000000, -0.000000, 0.000000, -0.000000, -0.000000, -0.000000, -0.000000, -0.000000, -0.000000, 0.000000, -0.000000, 0.000000, -0.000000, -0.000000, -1.126886, 0.000000, -0.000000, -0.000000, -0.000000, -0.000000, 0.294276, -0.189015, -0.297861, -1.089325, -0.000000, -0.230125, 1.009179, -2.031097, -0.591674, -0.000000, 0.372290, -0.000000, -1.281530, -1.479465, 0.000000, 0.000000, -0.109541, 0.000000, 0.000000, 0.709404, -0.000000, -0.000000, -0.000000, -0.000000, -1.114574, 1.112004, -2.443288, -0.718948, -0.000000, -0.213515, 0.000000, -2.412372, -0.000000, 0.000000, -0.000000, 0.000000, -0.000000, -0.000000, -0.000000, -0.932059, -1.131507, 0.660218, -0.000000, -0.000000, -0.000000, -0.000000, -0.000000, 0.000000, 1.861231, 0.000000, -1.656251, 0.379230, 2.518696, -0.049525, -0.000000, -0.000000, 0.000000, -0.000000, -0.486207, -0.000000, -0.000000, -0.125200, -0.000000, -3.335637, 1.524289, 0.000000, -0.000000, -0.555243, -0.000000, -0.000000, -0.000000, -0.491766, 0.000000, -0.000000, 0.842881, 0.000000, 0.000000, -0.000000, -0.207431, 0.000000, -1.055189, -0.000000, -0.469671, 2.060052, 0.489615, -0.000000, 0.356133, -0.000000, -0.151673, -0.444474, 0.000000, -0.000000, -0.000000, -0.866187, -0.560294, -1.649090, -2.645192, -0.000000, -0.000000, 1.379335, -0.063142, -0.000000, 1.418221, -0.721828, -0.000000, -1.313257, 1.206237, -1.828954, 0.000000, 0.000000, 0.000000, -1.183591, 2.688624, 0.901562, -0.000000, 1.133061, 1.943524, 2.044467, -0.000000, 0.000000, -0.000000, 0.000000, -1.421369, -0.000000, -0.000000, 0.000000, -0.000000, 0.000000, 0.702832, -0.132702, -0.415998, -0.341053, -0.000000, -0.692040, 0.350500, -1.276688, -0.351600, -0.000000, -0.013579, -0.000000, -0.944753, -0.135116, -0.000000, 0.000000, 0.316164, -0.000000, -0.000000, 0.077320, -0.000000, -0.000000, 0.000000, 0.000000, -1.259615, 0.784957, -0.786605, 0.134183, 0.000000, -0.235466, -0.000000, -1.404723, -0.000000, -0.000000, -0.000000, -0.000000, -0.000000, -0.000000, -0.000000, -0.600632, -0.456963, 0.255756, -0.000000, -0.000000, -0.000000, -0.000000, -0.000000, 0.000000, 0.723320, 0.000000, -0.984915, 0.520560, 1.486508, 0.038654, 0.000000, 0.000000, -0.000000, -0.000000, -0.519228, -0.000000, -0.000000, -0.363367, 0.000000, -2.026050, 0.817785, -0.000000, -0.000000, -0.293204, -0.000000, 0.000000, -0.000000, -1.125747, -0.000000, -0.000000, 0.039934, -0.000000, 0.000000, -0.000000, -0.543795, -0.000000, -0.777711, -0.000000, -0.741737, 1.201537, 0.443185, -0.000000, -0.785067, 0.000000, 0.009592, -0.216415, -0.000000, -0.000000, -0.000000, -0.678616, -0.284476, -0.737053, -1.246560, 0.000000, -0.000000, 0.642500, -0.017960, -0.000000, 0.938785, -0.472117, 0.000000, -1.014783, 0.590342, -1.062033, 0.000000, 0.000000, 0.000000, -0.449520, 1.300476, 0.348393, -0.000000, 0.835060, 1.319592, 0.829333, 0.000000, -0.000000, -0.000000, 0.000000, 0.203245, -0.000000, 0.000000, 0.000000, -0.000000, -0.000000, -0.005240, -0.036990, 0.054025, 0.013414, 0.000000, -0.001116, 0.000000, 0.006168, 0.014070, 0.000000, -0.018063, 0.000000, 0.000303, 0.096676, -0.000000, -0.000000, 0.075568, -0.000000, -0.000000, 0.000004, -0.000000, -0.000000, 0.000000, 0.000000, -0.124852, -0.000108, 0.092757, -0.041289, 0.000000, 0.002285, -0.000000, 0.175620, 0.000000, -0.000000, -0.000000, 0.000000, -0.000000, -0.000000, -0.000000, -0.100628, -0.026973, 1.643326, -0.000000, -0.000000, 0.000000, -0.000000, -0.000000, 0.000000, 0.000000, 0.000000, -0.475805, -0.000000, -0.000000, 0.000000, -0.000000, 0.000000, -0.000000, 0.000000, -0.003417, 0.000000, -0.000000, 0.357839, -0.000000, -2.423130, -0.069847, -0.000000, 0.000000, 0.149881, 0.000000, -0.000000, 0.000000, -0.237028, -0.000000, 0.000000, 0.008674, -0.000000, -0.000000, 0.000000, -0.033970, 0.000000, 0.000000, 0.000000, 0.101651, 0.000320, 0.191879, 0.000000, 1.066245, 0.000000, -0.653186, -0.000000, 0.000000, 0.000000, -0.000000, 0.013830, 0.025601, 0.564583, -0.464935, -0.000000, -0.000000, 0.404984, -0.036297, -0.000000, -0.030041, -0.182520, -0.000000, 0.169669, -0.000000, -0.836320, 0.000000, 0.000000, 0.000000, 0.000000, 0.014397, -0.446311, -0.000000, 0.012190, -0.089877, 0.014197, -0.000000, -0.000000, -0.000000, -0.000000, -0.000000, -0.000000, -0.000000, 0.000000, -0.000000, -0.000000, -0.000000, -0.000000, 0.000000, -0.000000, -0.000000, -0.000000, -0.000000, 0.000000, -0.000000, -0.000000, 0.000000, 0.000000, -0.000000, 0.000000, -0.000000, 0.000000, 0.000000, -0.000000, -0.000000, -0.000000, -0.000000, 0.000000, 0.000000, 0.000000, -0.000000, 0.000000, 0.000000, 0.000000, 0.000000, -0.000000, 0.000000, 0.000000, 0.000000, -0.000000, 0.000000, -0.000000, -0.000000, -0.000000, -0.000000, -0.000000, -0.000000, -0.000000, 0.000000, 0.000000, -0.000000, 0.000000, -0.000000, 0.000000, -0.000000, -0.000000, -0.000000, 0.000000, -0.000000, 0.000000, -0.000000, 0.000000, 0.000000, -0.000000, 0.000000, -0.000000, -0.000000, -0.000000, -0.000000, 0.000000, 0.000000, 0.000000, -0.000000, -0.000000, 0.000000, -0.000000, -0.000000, 0.000000, -0.000000, -0.000000, -0.000000, 0.000000, 0.000000, 0.000000, 0.000000, 0.000000, 0.000000, 0.000000, -0.000000, 0.000000, 0.000000, -0.000000, 0.000000, -0.000000, 0.000000, -0.000000, 0.000000, -0.000000, 0.000000, -0.000000, -0.000000, 0.000000, -0.000000, -0.000000, 0.000000, -0.000000, 0.000000, 0.000000, 0.000000, 0.000000, -0.000000, -0.000000, -0.000000, 0.000000, -0.000000, 0.000000, -0.000000, -0.000000, -0.000000, 0.000000, -0.000000, -0.000000, 0.000000, -0.000000, -0.000000, -0.000000, -0.000000, -0.000000, -0.409466, 0.000000, 0.000000, -0.000000, -0.000000, -0.000000, -0.871251, -0.218064, 0.146231, -0.870470, -0.000000, 0.000000, 0.000000, -0.993589, -0.000000, -0.000000, -0.000000, 0.000000, 0.000000, -0.882000, -0.000000, -0.000000, -0.062767, -0.000000, 0.000000, -0.000000, -0.000000, 0.000000, -0.000000, 0.000000, 0.086435, -0.008087, 0.060455, 0.346783, -0.000000, -0.602641, -0.000000, -0.116715, -0.000000, -0.000000, 0.000000, 0.000000, -0.000000, 0.000000, -0.000000, -0.266633, -0.001378, 0.403752, -0.000000, -0.000000, -0.000000, -0.000000, -0.000000, 0.000000, -1.400496, 0.000000, 0.766130, -0.068689, 0.229660, -0.000000, -0.000000, 0.000000, -0.000000, -0.000000, -0.000000, 0.000000, -0.000000, 0.427267, 0.000000, 0.215186, -0.750997, -0.000000, -0.000000, 0.565136, 0.000000, -0.000000, 0.000000, -0.153421, 0.000000, -0.000000, -0.000000, 0.000000, -0.000000, -0.000000, -0.150594, -0.000000, 0.000000, -0.000000, 0.019302, -0.424176, 0.195155, -0.000000, 0.502306, -0.000000, 0.893901, 0.000000, 0.000000, 0.000000, 0.000000, 0.029413, 0.000000, 0.331851, -0.147573, -0.000000, 0.000000, 0.193814, -0.053090, -0.000000, 0.000000, -0.030805, 0.000000, -0.199017, 0.000000, -0.772303, 0.000000, 0.000000, -0.000000, 0.052533, -0.149217, -0.003564, 0.000000, -0.862506, 0.207973, -0.124114, 0.000000, 0.000000, 0.000000, -0.000000, 0.000000, -0.000000, -0.000000, -0.000000, 0.000000, -0.000000, 0.000000, -0.000000, 0.000000, -0.000000, 0.000000, 0.000000, 0.000000, 0.000000, 0.000000, -0.000000, -0.000000, 0.000000, -0.000000, -0.000000, -0.000000, 0.000000, -0.000000, -0.000000, -0.000000, -0.000000, 0.000000, -0.000000, -0.000000, -0.000000, -0.000000, 0.000000, 0.000000, 0.000000, 0.000000, 0.000000, 0.000000, -0.000000, 0.000000, 0.000000, -0.000000, -0.000000, -0.000000, -0.000000, 0.000000, -0.000000, 0.000000, -0.000000, -0.000000, -0.000000, -0.000000, -0.000000, -0.000000, -0.000000, -0.000000, -0.000000, -0.000000, 0.000000, -0.000000, 0.000000, 0.000000, -0.000000, -0.000000, 0.000000, 0.000000, -0.000000, -0.000000, 0.000000, 0.000000, -0.000000, 0.000000, -0.000000, 0.000000, -0.000000, 0.000000, -0.000000, -0.000000, 0.000000, -0.000000, -0.000000, -0.000000, -0.000000, -0.000000, -0.000000, -0.000000, -0.000000, 0.000000, -0.000000, -0.000000, -0.000000, -0.000000, 0.000000, -0.000000, 0.000000, -0.000000, -0.000000, 0.000000, 0.000000, 0.000000, -0.000000, 0.000000, -0.000000, 0.000000, -0.000000, 0.000000, 0.000000, 0.000000, 0.000000, 0.000000, -0.000000, -0.000000, -0.000000, -0.000000, -0.000000, -0.000000, 0.000000, 0.000000, -0.000000, -0.000000, -0.000000, -0.000000, -0.000000, -0.000000, 0.000000, 0.000000, 0.000000, -0.000000, 0.000000, 0.000000, -0.000000, -0.000000, -0.000000, 0.000000, -0.000000, 0.000000, -0.000000, -0.000000, 0.000000, -0.000000, -0.000000, 0.000000, -0.000000, -0.000000, 0.000000, -0.000000, 0.000000, 0.000000, -0.000000, -0.000000, 0.000000, -0.000000, -0.000000, 0.000000, 0.000000, 0.000000, -0.000000, -0.000000, -0.000000, 0.000000, -0.000000, 0.000000, -0.000000, 0.000000, 0.000000, -0.000000, 0.000000, 0.000000, -0.000000, -0.000000, 0.000000, -0.000000, -0.000000, -0.000000, -0.000000, -0.000000, 0.000000, -0.000000, -0.000000, 0.000000, 0.000000, -0.000000, -0.000000, -0.000000, -0.000000, -0.000000, -0.000000, 0.000000, -0.000000, -0.000000, -0.000000, 0.000000, -0.000000, -0.000000, -0.000000, 0.000000, -0.000000, -0.000000, 0.000000, 0.000000, 0.000000, -0.000000, -0.000000, -0.000000, -0.000000, -0.000000, 0.000000, -0.000000, -0.000000, 0.000000, 0.000000, -0.000000, -0.000000, -0.000000, 0.000000, 0.000000, 0.000000, 0.000000, 0.000000, -0.000000, 0.000000, 0.000000, -0.000000, 0.000000, 0.000000, -0.000000, -0.000000, 0.000000, 0.000000, 0.000000, -0.000000, -0.000000, -0.000000, -0.000000, 0.000000, -0.000000, -0.000000, -0.000000, -0.000000, 0.000000, 0.000000, -0.000000, -0.000000, -0.000000, -0.000000, -0.000000, 0.000000, 0.000000, 0.000000, -0.000000, 0.000000, 0.000000, 0.000000, -0.000000, -0.000000, -0.000000, 0.000000, 0.052423, 0.000000, -0.000000, -0.000000, -0.000000, -0.000000, -0.004487, 0.108539, 0.012764, 0.012541, -0.000000, -0.006010, 0.000000, -0.000000, -0.004476, -0.000000, 0.000000, 0.000000, 0.001638, -0.000000, -0.000000, 0.000000, -0.000000, -0.000000, -0.000000, -0.000000, -0.000000, -0.000000, -0.000000, 0.000000, -0.213069, -0.000671, 0.000000, 0.074748, -0.000000, 0.000000, 0.000000, 0.111223, -0.000000, -0.000000, 0.000000, -0.000000, -0.000000, -0.000000, -0.000000, 0.011992, -0.021279, 0.275619, 0.000000, -0.000000, -0.000000, -0.000000, -0.000000, -0.000000, -0.000000, -0.000000, 0.000109, -0.000000, -0.000000, 0.000000, 0.000000, 0.000000, 0.000000, 0.000000, -0.002732, 0.000000, -0.000000, 0.063646, 0.000000, -0.011772, -0.000000, 0.000000, -0.000000, -0.017643, 0.000000, -0.000000, 0.000000, 0.000000, 0.000000, 0.000000, 0.013156, 0.000000, -0.000000, -0.000000, 0.000000, -0.000000, 0.000000, 0.000000, 0.000000, -0.000000, 0.024275, -0.000000, 0.194876, 0.000000, -0.134967, 0.000000, -0.000000, 0.000000, -0.000000, 0.000000, 0.000000, 0.272289, -0.060123, 0.000000, 0.000000, 0.058709, 0.068944, -0.000000, -0.008062, -0.049055, -0.000000, 0.493438, 0.000000, 0.171842, 0.000000, 0.000000, -0.000000, 0.000000, -0.000000, -0.013642, -0.000000, 0.000000, -0.000000, 0.001304, -0.000000, -0.000000, 0.000000, -0.000000, -0.025363, -0.000000, -0.000000, -0.000000, -0.000000, 0.000000, -0.229303, -0.005668, 0.204099, -0.135528, -0.000000, 0.257599, -0.248421, 0.334304, -1.244165, -0.000000, 0.058013, -0.000000, -0.907609, -1.343435, -0.000000, 0.000000, -0.522711, -0.000000, -0.000000, 0.033048, 0.000000, -0.000000, -0.000000, -0.000000, 0.506287, -0.457835, 0.008122, -0.779908, -0.000000, -2.384695, 0.000000, -0.654506, -0.000000, -0.000000, 0.000000, -0.000000, -0.000000, 0.000000, -0.000000, 0.103670, 0.100860, -0.100854, 0.000000, -0.000000, -0.000000, -0.000000, -0.000000, -0.000000, -0.151739, -0.000000, -0.114760, -1.513537, 0.005562, -1.443719, -0.000000, -0.000000, 0.000000, 0.000000, 0.101073, -0.000000, -0.000000, 0.084452, -0.000000, 0.205886, -0.527586, 0.000000, -0.000000, -0.868868, -0.000000, -0.000000, -0.000000, -0.400428, 0.000000, -0.000000, 0.003717, -0.000000, -0.000000, -0.000000, 0.214651, -0.000000, -0.969488, -0.000000, -0.998088, 0.027243, 0.027924, 0.000000, -0.551343, -0.000000, 0.326307, -3.876936, 0.000000, -0.000000, 0.000000, 0.212389, 0.512628, 0.391599, 0.232453, -0.000000, -0.000000, 0.397285, -0.131645, -0.000000, 0.530165, 0.308052, 0.000000, -1.477232, -1.529781, -0.148845, -0.000000, 0.000000, -0.000000, 0.660831, -1.379916, -1.446329, -0.000000, 0.115602, 0.284707, -0.957886, 0.000000, 0.000000, -0.000000, 0.000000, -0.411560, 0.000000, -0.000000, 0.000000, 0.000000, 0.000000, 0.145240, -0.264088, -0.129018, -0.309630, -0.000000, -0.048311, -0.000000, 1.032271, -0.109704, 0.000000, -0.000000, -0.000000, 0.050078, 0.021419, -0.000000, 0.000000, 0.000000, -0.000000, -0.000000, 0.018791, -0.000000, -0.000000, 0.000000, 0.000000, 0.083105, 0.126824, -0.000218, 0.236411, -0.000000, 1.362592, 0.000000, 0.446653, 0.000000, 0.000000, -0.000000, 0.000000, -0.000000, 0.000000, -0.000000, 0.365235, -0.094796, -0.152080, 0.000000, 0.000000, 0.000000, 0.000000, 0.000000, 0.000000, 0.608977, 0.000000, 0.367494, -0.000000, -0.458774, 0.000000, -0.000000, 0.000000, 0.000000, -0.000000, -0.172649, -0.000000, -0.000000, 0.535811, 0.000000, -0.158476, 0.065780, 0.000000, 0.000000, -0.306017, 0.000000, -0.000000, -0.000000, -0.119188, -0.000000, 0.000000, -0.260817, -0.000000, 0.000000, -0.000000, -0.047144, -0.000000, 0.000000, -0.000000, 0.004938, -2.194758, -0.476287, -0.000000, -0.524227, 0.000000, -0.344273, 0.000000, -0.000000, -0.000000, -0.000000, -0.033199, -0.025960, -0.133652, 0.304957, 0.000000, -0.000000, 0.680131, -0.090233, -0.000000, 0.162876, -0.037422, -0.000000, -0.145581, -0.381714, -0.355880, 0.000000, 0.000000, 0.000000, -0.352269, 0.046106, 0.797626, 0.000000, 0.004247, 0.301759, 0.068508, -0.000000, -0.000000, -0.000000, -0.000000, -0.000000, -0.000000, 0.000000, 0.000000, -0.000000, 0.000000, -0.000000, 0.000000, -0.000000, 0.000000, 0.000000, -0.000000, -0.000000, -0.000000, 0.000000, -0.000000, -0.000000, 0.000000, -0.000000, 0.000000, -0.000000, 0.000000, 0.000000, 0.000000, -0.000000, 0.000000, 0.000000, -0.000000, -0.000000, 0.000000, -0.000000, 0.000000, 0.000000, -0.000000, 0.000000, -0.000000, 0.000000, 0.000000, -0.000000, 0.000000, -0.000000, -0.000000, 0.000000, 0.000000, -0.000000, -0.000000, -0.000000, -0.000000, -0.000000, 0.000000, 0.000000, -0.000000, -0.000000, -0.000000, -0.000000, -0.000000, 0.000000, 0.000000, -0.000000, -0.000000, 0.000000, 0.000000, -0.000000, -0.000000, -0.000000, -0.000000, -0.000000, 0.000000, 0.000000, -0.000000, -0.000000, 0.000000, 0.000000, 0.000000, 0.000000, -0.000000, -0.000000, -0.000000, -0.000000, -0.000000, -0.000000, -0.000000, 0.000000, 0.000000, -0.000000, -0.000000, 0.000000, -0.000000, -0.000000, 0.000000, -0.000000, -0.000000, 0.000000, 0.000000, -0.000000, 0.000000, -0.000000, 0.000000, -0.000000, 0.000000, 0.000000, -0.000000, -0.000000, -0.000000, -0.000000, -0.000000, 0.000000, -0.000000, -0.000000, -0.000000, -0.000000, 0.000000, -0.000000, 0.000000, 0.000000, -0.000000, 0.000000, -0.000000, 0.000000, -0.000000, -0.000000, 0.000000, -0.000000, 0.000000, 0.000000, 0.000000, 0.000000, 0.000000, -0.000000, 0.000000, -0.000000, 0.000000, -0.000000, 0.000000, -0.000009, -0.000001, 0.000000, -0.000000, -0.000000, 0.000000, 0.000000, 0.000000, -0.000000, -0.000000, 0.005202, -0.000000, -0.000000, -0.000098, -0.000000, -0.000000, -0.000004, -0.000000, -0.000000, 0.000000, 0.000000, -0.000000, -0.000000, -0.000000, 0.000073, -0.000000, 0.000000, 0.000492, -0.000000, -0.000000, -0.000000, -0.000000, -0.000000, -0.000000, -0.000000, 0.000000, -0.000000, -0.000000, -0.000000, -0.009204, 0.029238, -0.000002, 0.000000, -0.000000, 0.000000, 0.000000, -0.000000, -0.000000, -0.000000, -0.000000, 0.000000, 0.000000, 0.000000, -0.000000, -0.000000, -0.000000, 0.000000, 0.000000, 0.000000, -0.000000, 0.000000, 0.005463, 0.000000, 0.019540, -0.000000, -0.000000, -0.000000, 0.013876, 0.000000, -0.000000, -0.000000, -0.000000, 0.000000, -0.000000, -0.000000, -0.000000, -0.000000, -0.000000, 0.000000, -0.000000, -0.000000, 0.000000, 0.006284, 0.000000, 0.003691, -0.000000, -0.022588, -0.000000, 0.000000, 0.000000, -0.000000, -0.000000, -0.000000, 0.000000, 0.000000, -0.000000, -0.000000, 0.000000, 0.000000, 0.000885, -0.000000, -0.000000, 0.000000, -0.000000, 0.000000, 0.000002, -0.000000, -0.032878, -0.000000, -0.000000, 0.000000, -0.000000, 0.000000, -0.000000, -0.000000, -0.006541, 0.000000, -0.005833, -0.000000, -0.000000, 0.000000, -0.000000, -0.000000, -0.000000, -0.000000, -0.000000, -0.000000, 0.000000, 0.000000, -0.000000, 0.000000, 0.000000, -0.000000, -0.000000, 0.000000, 0.000000, -0.000000, -0.000000, 0.000000, -0.000000, 0.000000, -0.000000, -0.000000, -0.000000, 0.000000, -0.000000, -0.000000, 0.000000, -0.000000, -0.000000, -0.000000, 0.000000, 0.000000, 0.000000, -0.000000, -0.000000, -0.000000, -0.000000, -0.000000, -0.000000, 0.000000, -0.000000, -0.000000, 0.000000, 0.000000, -0.000000, -0.000000, 0.000000, 0.000000, 0.000000, -0.000000, -0.000000, -0.000000, 0.000000, 0.000000, 0.000000, -0.000000, 0.000000, -0.000000, -0.000000, -0.000000, -0.000000, 0.000000, 0.000000, -0.000000, 0.000000, 0.000000, -0.000000, 0.000000, 0.000000, 0.000000, -0.000000, 0.000000, -0.000000, -0.000000, -0.000000, 0.000000, -0.000000, -0.000000, 0.000000, -0.000000, -0.000000, 0.000000, -0.000000, -0.000000, -0.000000, 0.000000, 0.000000, -0.000000, -0.000000, -0.000000, -0.000000, 0.000000, -0.000000, -0.000000, -0.000000, -0.000000, 0.000000, -0.000000, -0.000000, 0.000000, -0.000000, 0.000000, 0.000000, -0.000000, -0.000000, 0.000000, 0.000000, -0.000000, 0.000000, -0.000000, -0.000000, -0.000000, 0.000000, -0.000000, 0.000000, -0.000000, 0.000000, -0.000000, -0.000000, -0.000000, -0.000000, -0.000000, 0.000000, -0.000000, 0.000000, -0.000000, -0.000000, -0.000000, -0.000000, -0.000000, 0.000000, -0.000000, -0.000000, 0.000000, 0.000000, 0.000000, 0.000000, 0.000000, -0.000000, 0.000000, 0.000000, 0.000000, -0.000000, 0.000000, 0.000000, 0.000000, -0.000000, 0.000000, -0.000000, 0.000000, 0.000000, -0.000000, -0.000000, 0.000000, -0.000000, 0.000000, 0.000000, -0.000000, 0.000000, -0.000000, 0.000000, -0.000000, 0.000000, 0.000000, 0.000000, 0.000000, 0.000000, 0.000000, -0.000000, 0.000000, -0.000000, -0.000000, -0.000000, -0.000000, 0.000000, 0.000000, -0.000000, -0.000000, -0.000000, 0.000000, -0.000000, -0.000000, -0.000000, 0.000000, -0.000000, 0.000000, -0.000000, -0.000000, 0.000000, 0.000000, -0.000000, 0.000000, 0.000000, 0.000000, -0.000000, -0.000000, 0.000000, 0.000000, 0.000000, -0.000000, -0.000000, -0.000000, 0.000000, -0.000000, 0.000000, -0.000000, 0.000000, 0.000000, 0.000000, 0.000000, 0.000000, -0.000000, -0.000000, -0.000000, 0.000000, 0.000000, -0.000000, 0.000000, -0.000000, -0.000000, -0.000000, -0.000000, -0.000000, 0.000000, 0.000000, 0.000000, -0.000000, 0.000000, 0.000000, 0.000000, 0.000000, 0.000000, -0.000000, 0.000000, 0.000000, 0.000000, 0.000000, 0.000000, 0.000000, 0.000000, -0.000000, 0.000000, -0.000000, -0.000000, 0.000000, -0.000000, 0.000000, 0.000000, 0.000000, -0.000000, -0.000000, -0.000000, -0.000000, 0.000000, 0.000000, 0.000000, -0.000000, -0.000000, 0.000000, -0.000000, -0.000000, -0.000000, 0.000000, 0.000000, 0.000000, 0.000000, -0.000000, 0.000000, -0.000000, -0.000000, 0.000000, -0.000000, 0.000000, -0.000000, -0.000000, -0.000000, 0.000000, -0.000000, 0.000000, 0.000000, -0.000000, 0.000000, -0.000000, -0.000000, -0.000000, -0.000000, -0.000000, 0.000000, 0.000000, -0.000000, 0.000000, 0.000000, 0.000000, 0.000000, 0.000000, -0.000000, -0.000000, -0.000000, 0.000000, 0.000000, 0.000000, -0.000000, -0.000000, 0.000000, 0.000000, -0.000000, -0.000000, -0.000000, -0.000000, -0.000000, -0.000000, -0.000000, 0.000000, 0.000000, -0.000000, -0.000000, 0.000000, 0.000000, -0.000000, -0.000000, -0.000000, 0.000000, -0.000000, 0.000000, -0.000000, 0.000000, -0.000000, -0.000000, 0.000000, -0.000000, 0.000000, -0.000000, -0.000000, -0.000000, -0.000000, -0.000000, 0.000000, -0.000000, -0.000000, -0.000000, -0.000000, 0.000000, 0.000000, -0.000000, -0.000000, 0.000000, 0.000000, 0.000000, 0.000000, -0.000000, 0.000000, 0.000000, 0.000000, -0.000000, -0.000000, -0.000000, -0.000000, -0.000000, 0.000000, 0.000000, -0.000000, 0.000000, -0.000000, -0.000000, -0.000000, -0.000000, 0.000000, -0.000000, -0.000000, 0.000000, 0.000000, 0.000000, -0.000000, -0.000000, 0.000000, 0.000000, -0.000000, -0.000000, 0.000000, -0.000000, -0.000000, 0.000000, 0.000000, 0.000000, 0.000000, -0.000000, -0.000000, -0.000000, -0.000000, -0.000000, 0.000000, 0.000000, 0.000000, 0.000000, 0.000000, -0.000000, -0.000000, 0.000000, -0.000000, -0.000000, 0.000000, 0.000000, -0.000000, -0.000000, -0.000000, -0.000000, -0.000000, -0.000000, -0.000000, -0.000000, -0.000000, -0.000000, -0.000000, -0.000000, 0.000000, 0.000000, -0.000000, -0.000000, -0.000000, -0.000000, 0.000000, 0.000000, 0.000000, -0.000000, 0.000000, -0.000000, 0.000000, -0.000000, -0.000000, -0.000000, 0.000000, 0.000000, -0.000000, -0.000000, -0.000000, 0.000000, 0.000000, -0.000000, -0.000000, 0.000000, 0.000000, -0.000000, 0.000000, 0.000000, 0.000000, -0.000000, -0.000000, 0.000000, -0.000000, -0.000000, -0.000000, -0.000000, 0.000000, 0.000000, -0.000000, -0.000000, -0.000000, -0.000000, -0.000000, -0.000000, -0.000000, -0.000000, -0.000000, -0.000000, -0.000000, -0.000000, -0.000000, -0.000000, 0.000000, -0.000000, 0.000000, -0.000000, -0.000000, -0.000000, -0.000000, -0.000000, -0.000000, 0.000000, -0.000000, 0.000000, 0.000000, 0.000000, -0.000000, -0.000000, -0.000000, 0.000000, 0.000000, 0.000000, 0.000000, 0.000000, 0.000000, 0.000000, 0.000000, 0.000000, 0.000000, 0.000000, 0.000000, 0.000000, -0.000000, -0.000000, -0.000000, -0.000000, 0.000000, -0.000000, 0.000000, -0.000000, -0.000000, -0.000000, -0.000000, -0.000000, 0.000000, -0.000000, 0.000000, -0.000000, 0.000000, 0.000000, 0.000000, -0.000000, 0.000000, -0.000011, -0.015440, 0.000000, -0.000000, -0.000000, -0.023401, -0.000000, 0.033384, 0.000000, 0.000000, 0.025460, 0.000000, -0.000000, -0.039482, -0.000000, -0.000000, -0.000507, -0.000000, -0.000000, -0.003875, -0.000000, -0.000000, -0.000000, -0.000000, 0.001701, -0.001640, 0.000000, -0.068926, -0.000000, 0.000000, -0.000000, -0.000000, -0.000000, 0.000000, 0.000000, 0.000000, -0.000000, -0.000000, -0.000000, -0.008408, 0.087276, -0.031797, -0.000000, 0.000000, 0.000000, -0.000000, -0.000000, -0.000000, -0.000000, -0.000000, 0.000000, -0.000000, 0.000570, 0.000000, -0.000000, 0.000000, -0.000000, 0.000000, 0.000255, -0.000000, -0.000000, 0.054332, -0.000000, 0.066284, -0.000005, 0.000000, -0.000000, -0.064758, 0.000000, -0.000000, -0.000000, -0.009201, -0.000000, 0.000000, 0.001837, 0.000000, -0.000000, 0.000000, -0.030226, 0.000000, -0.000000, 0.000000, -0.018143, 0.000000, 0.035660, -0.000000, -0.006557, -0.000000, 0.000000, 0.015032, 0.000000, -0.000000, 0.000000, 0.000023, 0.000000, 0.000000, -0.011010, 0.000000, 0.000000, -0.051269, -0.009596, -0.000000, 0.004280, -0.000000, -0.000000, 0.000003, -0.000000, -0.065462, -0.000000, -0.000000, -0.000000, 0.000000, -0.006368, 0.000000, -0.000000, 0.003135, 0.000000, 0.058333, 0.000000, -0.000000, 0.000000, 0.000000, 0.000000, 0.000000, 0.000000, -0.000000, -0.000000, -0.000000, 0.000000, -0.000000, 0.000000, 0.000000, -0.000000, -0.000000, -0.000000, 0.000000, -0.000000, -0.000000, -0.000000, -0.000000, -0.000000, 0.000000, -0.000000, 0.000000, -0.000000, -0.000000, -0.000000, 0.000000, -0.000000, -0.000000, -0.000000, 0.000000, -0.000000, -0.000000, -0.000000, 0.000000, -0.000000, -0.000000, -0.000000, 0.000000, -0.000000, 0.000000, -0.000000, 0.000000, -0.000000, -0.000000, 0.000000, 0.000000, 0.000000, -0.000000, -0.000000, -0.000000, -0.000000, -0.000000, -0.000000, 0.000000, 0.000000, 0.000000, -0.000000, 0.000000, -0.000000, -0.000000, -0.000000, -0.000000, -0.000000, -0.000000, -0.000000, -0.000000, -0.000000, -0.000000, -0.000000, -0.000000, 0.000000, 0.000000, 0.000000, 0.000000, -0.000000, -0.000000, -0.000000, 0.000000, -0.000000, 0.000000, 0.000000, -0.000000, 0.000000, 0.000000, 0.000000, -0.000000, -0.000000, -0.000000, -0.000000, -0.000000, 0.000000, 0.000000, 0.000000, -0.000000, 0.000000, 0.000000, 0.000000, 0.000000, -0.000000, 0.000000, 0.000000, -0.000000, -0.000000, -0.000000, -0.000000, -0.000000, -0.000000, -0.000000, 0.000000, -0.000000, 0.000000, -0.000000, -0.000000, -0.000000, 0.000000, -0.000000, -0.000000, -0.000000, 0.000000, -0.000000, -0.000000, 0.000000, -0.000000, 0.000000, -0.000000, 0.000000, -0.000000, 0.000000, -1.540943, -0.000000, -0.000000, 0.000000, -0.000000, -0.000000, 0.657626, -0.136946, -0.317476, -0.274533, -0.000000, -0.590793, 0.489882, -1.131585, -0.461360, -0.000000, 0.224697, -0.000000, -0.924723, -0.253110, -0.000000, -0.000000, 0.582327, 0.000000, -0.000000, 0.481690, -0.000000, 0.000000, 0.000000, 0.000000, -0.881752, 0.784393, -0.633642, 0.022680, 0.000000, -0.296468, -0.000000, -1.128565, -0.000000, -0.000000, -0.000000, -0.000000, -0.000000, -0.000000, -0.000000, -0.014558, -0.502996, 0.432866, -0.000000, -0.000000, 0.000000, -0.000000, -0.000000, 0.000000, 0.743315, -0.000000, -1.064598, 0.219263, 1.414013, -0.004914, -0.000000, -0.000000, 0.000000, 0.000000, -0.604348, -0.000000, -0.000000, 0.166269, 0.000000, -2.172547, 0.605729, 0.000000, -0.000000, -0.367959, -0.000000, 0.000000, -0.000000, -1.111752, 0.000000, -0.000000, 0.162457, -0.000000, 0.000000, 0.000000, -0.802094, -0.000000, -0.390112, -0.000000, -0.641159, 1.298042, 0.317475, -0.000000, -0.876733, 0.000000, -0.049792, -0.076808, 0.000000, -0.000000, -0.000000, -0.361777, -0.186965, -0.877996, -1.266073, -0.000000, -0.000000, 0.470786, -0.013826, -0.000000, 0.812260, -0.852777, 0.000000, -0.851745, 0.231390, -1.090224, -0.000000, -0.000000, 0.000000, -0.854399, 1.317215, 0.224782, -0.000000, 0.586382, 1.122345, 0.725866, 0.000000, 0.000000, 0.000000, 0.000000, -0.077737, 0.000000, -0.000000, 0.000000, -0.000000, 0.000000, -0.188822, -0.099803, 0.035863, -0.036772, -0.000000, 0.233673, 0.005924, 0.087171, -0.953143, -0.000000, 0.076868, -0.000000, -0.463855, -0.383399, -0.000000, 0.000000, -0.200911, 0.000000, -0.000000, 0.437650, -0.000000, 0.000000, -0.000000, -0.000000, -0.453845, 0.158687, -0.720348, -0.067257, -0.000000, -0.000000, 0.000000, -0.656197, 0.000000, -0.000000, -0.000000, -0.000000, -0.000000, -0.000000, -0.000000, 0.007251, -0.109233, 0.054660, -0.000000, -0.000000, -0.000000, -0.000000, -0.000000, 0.000000, 0.158830, -0.000000, -0.077737, 0.000000, 0.617826, 0.052202, 0.000000, -0.000000, -0.000000, 0.000000, 0.393878, 0.000000, -0.000000, -0.007062, 0.000000, -0.887303, -0.264778, 0.000000, -0.000000, -0.271727, -0.000000, -0.000000, -0.000000, -0.435060, -0.000000, -0.000000, 0.320110, 0.000000, 0.000000, -0.000000, -0.015322, -0.000000, -0.073573, 0.000000, -0.000000, 0.279084, 0.365684, 0.000000, -0.001240, -0.000000, 0.172047, 0.000000, -0.000000, 0.000000, -0.000000, 0.087320, 0.046655, -0.210783, -0.091873, -0.000000, -0.000000, -0.025415, 0.000033, -0.000000, 0.190078, 0.161375, -0.000000, -1.042126, -0.015965, -0.064731, 0.000000, -0.000000, -0.000000, -0.229584, 0.034129, 0.044744, -0.000000, 0.270008, 0.315688, -0.441135, 0.000000, -0.000000, -0.000000, -0.000000, -0.000000, -0.000000, -0.000000, -0.000000, 0.000000, 0.000000, 0.000000, 0.000000, -0.000000, -0.000000, -0.000000, -0.000000, -0.000000, -0.000000, 0.000000, 0.000000, -0.000000, -0.000000, -0.000000, -0.000000, -0.000000, -0.000000, -0.000000, 0.000000, -0.000000, -0.000000, 0.000000, 0.000000, -0.000000, -0.000000, 0.000000, -0.000000, -0.000000, -0.000000, -0.000000, 0.000000, -0.000000, -0.000000, -0.000000, 0.000000, -0.000000, 0.000000, -0.000000, 0.000000, 0.000000, -0.000000, -0.000000, 0.000000, 0.000000, 0.000000, 0.000000, -0.000000, -0.000000, -0.000000, -0.000000, -0.000000, -0.000000, 0.000000, 0.000000, -0.000000, 0.000000, 0.000000, -0.000000, -0.000000, -0.000000, -0.000000, -0.000000, 0.000000, -0.000000, 0.000000, 0.000000, 0.000000, -0.000000, -0.000000, 0.000000, -0.000000, 0.000000, -0.000000, 0.000000, 0.000000, -0.000000, -0.000000, -0.000000, -0.000000, 0.000000, -0.000000, -0.000000, -0.000000, 0.000000, -0.000000, -0.000000, 0.000000, -0.000000, -0.000000, -0.000000, 0.000000, 0.000000, 0.000000, -0.000000, -0.000000, -0.000000, 0.000000, -0.000000, -0.000000, 0.000000, 0.000000, -0.000000, -0.000000, -0.000000, 0.000000, 0.000000, 0.000000, -0.000000, -0.000000, 0.000000, 0.000000, 0.000000, 0.000000, 0.000000, 0.000000, -0.000000, -0.000000, -0.000000, -0.000000, -0.000000, 0.000000, 0.000000, 0.000000, -0.000000, -0.000000, -0.000000, -0.000000, 0.000000, -0.000000, -0.000014, -0.014500, 0.000000, -0.000000, -0.000000, -0.022194, 0.000000, 0.031945, 0.000000, 0.000000, 0.025377, -0.000000, 0.000000, -0.057314, -0.000000, 0.000000, -0.001741, 0.000000, 0.000000, -0.003497, -0.000000, -0.000000, -0.000000, -0.000000, 0.000290, 0.000002, -0.000000, -0.058156, -0.000000, -0.000000, -0.000000, -0.000000, -0.000000, 0.000000, -0.000000, 0.000000, -0.000000, -0.000000, -0.000000, -0.020276, 0.083066, -0.026535, 0.000000, 0.000000, 0.000000, -0.000000, -0.000000, 0.000000, -0.000000, -0.000000, 0.000000, -0.000000, 0.000000, 0.000000, -0.000000, -0.000000, 0.000000, 0.000000, -0.000000, 0.000000, 0.000000, 0.066145, -0.000000, 0.040545, -0.000001, -0.000000, 0.000000, -0.074348, -0.000000, -0.000000, 0.000000, -0.009086, -0.000000, -0.000000, 0.003344, 0.000000, -0.000000, 0.000000, -0.031013, -0.000000, 0.000000, -0.000000, -0.017000, -0.000000, 0.035871, -0.000000, -0.011068, -0.000000, 0.000000, 0.014454, 0.000000, -0.000000, 0.000000, 0.000000, 0.000000, 0.000000, -0.013158, -0.000000, 0.000000, -0.053707, -0.008166, -0.000000, -0.000443, -0.000000, -0.000000, 0.000006, 0.000000, -0.068274, -0.000000, -0.000000, 0.000000, 0.000000, -0.001659, -0.000000, -0.000000, 0.001129, 0.000000, 0.057247, 0.000000, 0.000000, 0.000000, -0.000000, -0.024254, 0.000000, 0.000000, -0.000000, 0.000000, -0.000000, 0.044144, -0.025956, 0.000000, -0.000000, -0.000000, 0.018579, 0.000000, 0.000000, -0.000000, -0.000000, -0.000000, 0.000000, 0.000000, -0.004365, -0.000000, -0.000000, 0.000000, -0.000000, -0.000000, 0.000000, -0.000000, -0.000000, -0.000000, 0.000000, 0.038820, 0.122514, -0.000000, 0.002247, -0.000000, 0.000000, -0.000000, 0.000000, 0.000000, 0.000000, 0.000000, -0.000000, 0.000000, -0.000000, -0.000000, -0.018699, 0.078759, 0.017518, -0.000000, -0.000000, 0.000000, -0.000000, 0.000000, -0.000000, -0.000000, -0.000000, 0.000000, -0.000000, 0.017527, -0.000000, -0.000000, -0.000000, -0.000000, -0.000000, -0.074353, 0.000000, 0.000000, 0.044354, -0.000000, -0.057374, -0.000000, 0.000000, -0.000000, -0.000533, -0.000000, -0.000000, -0.000000, 0.000001, -0.000000, -0.000000, 0.002704, 0.000000, -0.000000, -0.000000, -0.000000, 0.000000, 0.000000, -0.000000, -0.000000, -0.000000, -0.000000, -0.000000, 0.006171, -0.000000, 0.000000, 0.000013, 0.000000, -0.000000, -0.000000, 0.022127, 0.000000, -0.000611, 0.000256, 0.000000, 0.000000, -0.005398, -0.000000, 0.000000, -0.004417, -0.002020, -0.000000, 0.000000, -0.000000, -0.037519, -0.000000, 0.000000, -0.000000, -0.047641, -0.000029, -0.000000, -0.000000, -0.000000, 0.000000, 0.000867, -0.000000, 0.000000, 0.000000, -0.000000, 0.000000, 0.000000, -0.000000, -0.000000, -0.000000, -0.000000, -0.000000, -0.000000, -0.000000, -0.000000, 0.000000, 0.000000, 0.000000, -0.000000, -0.000000, 0.000000, 0.000000, -0.000000, 0.000000, -0.000000, -0.000000, -0.000000, 0.000000, -0.000000, -0.000000, -0.000000, 0.000000, -0.000000, 0.000000, 0.000000, -0.000000, 0.000000, 0.000000, -0.000000, 0.000000, 0.000000, -0.000000, 0.000000, 0.000000, 0.000000, -0.000000, 0.000000, 0.000000, 0.000000, -0.000000, 0.000000, -0.000000, -0.000000, -0.000000, -0.000000, -0.000000, 0.000000, 0.000000, -0.000000, 0.000000, 0.000000, -0.000000, -0.000000, -0.000000, -0.000000, 0.000000, -0.000000, -0.000000, -0.000000, -0.000000, 0.000000, -0.000000, -0.000000, 0.000000, -0.000000, 0.000000, -0.000000, 0.000000, -0.000000, -0.000000, -0.000000, 0.000000, 0.000000, 0.000000, 0.000000, 0.000000, -0.000000, -0.000000, 0.000000, -0.000000, 0.000000, 0.000000, -0.000000, 0.000000, -0.000000, -0.000000, 0.000000, -0.000000, 0.000000, -0.000000, 0.000000, -0.000000, -0.000000, -0.000000, 0.000000, 0.000000, -0.000000, -0.000000, -0.000000, -0.000000, 0.000000, 0.000000, -0.000000, 0.000000, 0.000000, 0.000000, 0.000000, 0.000000, -0.000000, 0.000000, -0.000000, 0.000000, 0.000000, -0.000000, -0.000000, -0.000000, 0.000000, -0.000000, 0.000000, 0.000000, 0.000000, -0.000000, 0.000000, 0.000000, -0.000000, -0.000000, -0.000000, -0.000000, -0.000000, -0.000000, -0.000000, -0.000000, -0.000000, -0.000000, -0.000000, -0.000000, -0.000000, -0.000000, -0.000000, 0.000000, 0.000000, 0.000000, 0.000000, -0.000000, -0.000000, -0.000000, 0.000000, 0.000000, -0.000000, -0.000000, -0.000000, 0.000000, -0.000000, 0.000000, 0.000000, -0.000000, -0.000000, -0.000000, 0.000000, 0.000000, 0.000000, -0.000000, -0.000000, -0.000000, -0.000000, 0.000000, 0.000000, -0.000000, -0.000000, 0.000000, 0.000000, 0.000000, -0.000000, -0.000000, 0.000000, -0.000000, 0.000000, 0.000000, -0.000000, -0.000000, 0.000000, 0.000000, -0.000000, -0.000000, -0.000000, 0.000000, 0.000000, -0.000000, -0.000000, 0.000000, 0.000000, 0.000000, 0.000000, 0.000000, 0.000000, -0.000000, -0.000000, -0.000000, -0.000000, -0.000000, 0.000000, -0.000000, 0.000000, 0.000000, 0.000000, -0.000000, -0.000000, -0.000000, 0.000000, -0.000000, 0.000000, -0.000000, -0.000000, -0.000000, -0.000000, 0.000000, 0.000000, -0.000000, 0.000000, 0.000000, 0.000000, -0.000000, 0.000000, 0.000000, -0.000000, -0.000000, -0.000000, -0.000000, 0.000000, -0.000000, -0.000000, -0.000000, -0.000000, 0.000000, -0.000000, 0.000000, -0.000000, 0.000000, 0.000000, -0.000000, -0.000000, 0.000000, -0.000000, -0.000000, 0.000000, -0.000000, 0.000000, -0.000000, -0.000000, 0.000000, 0.000000, -0.480080, 0.000000, -0.000000, -0.000000, -0.000000, 0.000000, -1.138220, -0.443579, 0.052876, -0.123566, -0.000000, 0.099702, 0.083025, 0.168932, -0.919460, -0.000000, -0.050417, -0.000000, -1.267216, -0.305663, -0.000000, -0.000000, -0.260261, -0.000000, -0.000000, 0.302979, 0.000000, 0.000000, -0.000000, 0.000000, 0.116974, -0.912651, -1.526097, 0.197686, -0.000000, -0.069587, -0.000000, 0.060441, 0.000000, -0.000000, -0.000000, -0.000000, -0.000000, -0.000000, -0.000000, 0.768096, -0.105740, -0.773783, -0.000000, -0.000000, -0.000000, -0.000000, -0.000000, -0.000000, 0.034650, -0.000000, -0.038682, -1.549888, -0.156086, -0.122784, 0.000000, -0.000000, -0.000000, -0.000000, -0.155703, -0.000000, -0.000000, -0.009557, -0.000000, 0.362985, -1.476924, -0.000000, -0.000000, 0.078706, -0.000000, -0.000000, -0.000000, -0.710217, 0.000000, -0.000000, 0.005627, -0.000000, -0.000000, -0.000000, -0.525276, -0.000000, -1.585509, -0.000000, -0.582008, -0.560848, -0.585547, -0.000000, 0.158555, -0.000000, -0.353399, -0.482599, 0.000000, -0.000000, -0.000000, 0.484261, -0.109438, -0.863285, -0.082406, -0.000000, -0.000000, -0.197460, -0.356881, -0.000000, -0.337040, -0.791720, 0.000000, -1.094051, -0.212317, -0.339185, -0.000000, -0.000000, 0.000000, -0.708164, -0.237006, -0.049797, -0.000000, -0.549248, -0.668383, 0.055087, -0.000000, 0.000000, 0.000000, -0.000000, -0.000000, -0.000000, -0.000000, -0.000000, -0.000000, -0.000000, -0.000000, -0.000000, 0.000000, -0.000000, -0.000000, 0.000000, -0.000000, 0.000000, 0.000000, 0.000000, 0.000000, 0.000000, 0.000000, -0.000000, -0.000000, 0.000000, -0.000000, 0.000000, 0.000000, -0.000000, 0.000000, 0.000000, 0.000000, -0.000000, 0.000000, 0.000000, -0.000000, 0.000000, -0.000000, -0.000000, 0.000000, 0.000000, -0.000000, -0.000000, 0.000000, 0.000000, -0.000000, -0.000000, -0.000000, 0.000000, -0.000000, -0.000000, -0.000000, -0.000000, -0.000000, -0.000000, -0.000000, -0.000000, -0.000000, 0.000000, -0.000000, 0.000000, -0.000000, 0.000000, 0.000000, -0.000000, -0.000000, 0.000000, -0.000000, 0.000000, -0.000000, 0.000000, -0.000000, -0.000000, 0.000000, -0.000000, -0.000000, 0.000000, -0.000000, -0.000000, -0.000000, -0.000000, -0.000000, -0.000000, -0.000000, -0.000000, 0.000000, 0.000000, -0.000000, -0.000000, 0.000000, -0.000000, -0.000000, 0.000000, 0.000000, -0.000000, -0.000000, 0.000000, -0.000000, -0.000000, -0.000000, -0.000000, 0.000000, 0.000000, 0.000000, -0.000000, 0.000000, -0.000000, -0.000000, 0.000000, -0.000000, 0.000000, 0.000000, -0.000000, 0.000000, 0.000000, -0.000000, -0.000000, -0.000000, 0.000000, -0.000000, -0.000000, -0.000000, 0.000000, -0.000000, 0.000000, -0.000000, 0.000000, -0.000000, 0.000000, -0.000000, 0.000000, 0.000000, 0.000000, -0.000000, -0.000000, 0.000000, -0.000000, 0.000000, -0.000000, -0.000000, 0.000000, 0.000000, 0.000000, -0.000000, 0.000000, -0.000000, 0.000000, -0.000000, 0.000000, -0.000000, 0.000000, 0.000000, -0.000000, -0.000000, 0.000000, 0.000000, -0.000000, 0.000000, 0.000000, 0.000000, -0.000000, 0.000000, -0.000000, 0.000000, -0.000000, -0.000000, -0.000000, 0.000000, 0.000000, -0.000000, -0.000000, 0.000000, 0.000000, -0.000000, -0.000000, 0.000000, -0.000000, -0.000000, -0.000000, 0.000000, -0.000000, -0.000000, 0.000000, -0.000000, -0.000000, -0.000000, -0.000000, 0.000000, -0.000000, -0.000000, -0.000000, -0.000000, 0.000000, 0.000000, 0.000000, 0.000000, -0.000000, -0.000000, 0.000000, 0.000000, -0.000000, 0.000000, 0.000000, -0.000000, 0.000000, -0.000000, -0.000000, 0.000000, -0.000000, -0.000000, -0.000000, -0.000000, 0.000000, 0.000000, 0.000000, -0.000000, -0.000000, 0.000000, -0.000000, 0.000000, 0.000000, -0.000000, 0.000000, 0.000000, 0.000000, -0.000000, 0.000000, -0.000000, -0.000000, 0.000000, 0.000000, -0.000000, -0.000000, 0.000000, -0.000000, -0.000000, 0.000000, -0.000000, 0.000000, -0.000000, 0.000000, 0.000000, -0.000000, -0.000000, 0.000000, -0.000000, 0.000000, -0.000000, -0.000000, -0.000000, -0.000000, -0.000000, 0.000000, -0.000000, -0.000000, -0.000000, 0.000000, -0.000000, 0.000000, 0.022745, -0.000000, 0.000000, -0.000000, 0.000000, -0.000000, -1.525652, 0.185364, -0.554861, 0.007292, -0.000000, -0.513997, -0.716102, -0.074134, -1.948891, 0.000000, -0.005130, 0.000000, -1.380052, -0.393731, -0.000000, -0.000000, -0.127947, -0.000000, -0.000000, -0.127553, -0.000000, -0.000000, -0.000000, 0.000000, -0.040474, -0.004689, -1.166226, 0.295344, -0.000000, -0.539490, -0.000000, -0.046468, 0.000000, -0.000000, -0.000000, -0.000000, 0.000000, -0.000000, -0.000000, 0.020354, 0.676517, 0.087524, 0.000000, -0.000000, -0.000000, 0.000000, -0.000000, 0.000000, -1.146777, -0.000000, -0.213698, -0.215166, -0.900323, -0.000000, 0.000000, 0.000000, -0.000000, -0.000000, -0.044933, 0.000000, -0.000000, 0.173861, -0.000000, 0.504821, 0.120252, -0.000000, 0.000000, 0.092554, 0.000000, -0.000000, -0.000000, 0.082965, -0.000000, 0.000000, -0.075593, -0.000000, -0.000000, -0.000000, -0.030936, -0.000000, -0.000000, -0.000000, 0.305914, -1.908452, 0.406973, 0.000000, 0.118980, 0.000000, -0.628942, -0.345791, -0.000000, -0.000000, 0.000000, 0.077447, 0.270210, -0.701985, 0.313173, 0.000000, -0.000000, 0.349212, -0.002446, -0.000000, -0.099762, -0.138636, 0.000000, -0.048581, 0.223925, 0.464261, 0.000000, 0.000000, 0.000000, -0.107113, -1.866744, -0.355849, -0.000000, 0.384679, -0.131236, 0.151151, 0.000000, 0.000000, -0.000000, 0.000000, -0.676118, 0.000000, -0.000000, -0.000000, -0.000000, 0.000000, 0.371065, -0.086519, -0.201657, -0.271230, -0.000000, -0.010064, 0.224670, -0.657309, -0.152816, -0.000000, 0.179782, -0.000000, -0.509888, -0.713863, -0.000000, -0.000000, 0.625808, -0.000000, 0.000000, 0.302061, -0.000000, -0.000000, 0.000000, -0.000000, -0.565713, 0.656262, -0.512997, 0.069583, -0.000000, -0.265471, 0.000000, -0.591425, -0.000000, -0.000000, -0.000000, 0.000000, -0.000000, -0.000000, -0.000000, -0.152266, -0.310855, 0.534077, -0.000000, -0.000000, 0.000000, -0.000000, -0.000000, 0.000000, 0.561013, -0.000000, -0.637684, 0.045919, 0.828353, -0.010728, 0.000000, 0.000000, -0.000000, -0.000000, -0.191961, -0.000000, -0.000000, 0.121323, 0.000000, -1.296357, 0.355583, 0.000000, -0.000000, -0.307861, -0.000000, 0.000000, -0.000000, -0.866052, -0.000000, -0.000000, 0.006402, -0.000000, -0.000000, -0.000000, -0.664571, -0.000000, -0.103707, -0.000000, -0.356213, 0.800650, 0.291408, -0.000000, 0.204575, 0.000000, 0.051843, 0.144783, -0.000000, 0.000000, 0.000000, -0.030758, 0.035860, -0.670589, -0.736183, -0.000000, -0.000000, 0.132437, -0.011567, -0.000000, 0.436981, -0.497321, -0.000000, -0.456358, 0.052812, -0.661578, -0.000000, -0.000000, -0.000000, -0.589254, 0.904840, -0.124487, -0.000000, 0.283366, 0.577455, 0.518321, -0.000000, -0.000000, 0.000000, -0.000000, -0.000000, -0.000000, 0.000000, -0.000000, -0.000000, 0.000000, -0.000000, -0.000000, -0.000000, -0.000000, -0.000000, 0.000000, -0.000000, 0.000000, 0.000000, -0.000000, -0.000000, -0.000000, 0.000000, 0.000000, -0.000000, 0.000000, -0.000000, 0.000000, -0.000000, 0.000000, -0.000000, -0.000000, 0.000000, -0.000000, -0.000000, 0.000000, -0.000000, 0.000000, 0.000000, -0.000000, -0.000000, -0.000000, 0.000000, -0.000000, -0.000000, 0.000000, -0.000000, -0.000000, 0.000000, -0.000000, 0.000000, 0.000000, -0.000000, -0.000000, -0.000000, -0.000000, -0.000000, -0.000000, -0.000000, 0.000000, -0.000000, -0.000000, -0.000000, -0.000000, -0.000000, 0.000000, 0.000000, -0.000000, -0.000000, 0.000000, 0.000000, -0.000000, 0.000000, 0.000000, 0.000000, -0.000000, -0.000000, -0.000000, -0.000000, -0.000000, -0.000000, -0.000000, -0.000000, -0.000000, 0.000000, -0.000000, -0.000000, 0.000000, 0.000000, 0.000000, -0.000000, 0.000000, -0.000000, -0.000000, -0.000000, -0.000000, -0.000000, 0.000000, -0.000000, -0.000000, 0.000000, -0.000000, 0.000000, 0.000000, 0.000000, 0.000000, 0.000000, -0.000000, 0.000000, 0.000000, -0.000000, -0.000000, -0.000000, -0.000000, -0.000000, 0.000000, 0.000000, 0.000000, -0.000000, -0.000000, 0.000000, -0.000000, 0.000000, 0.000000, -0.000000, -0.000000, -0.000000, -0.000000, 0.000000, -0.000000, 0.000000, -0.000000, -0.050091, -0.000000, 0.000000, 0.000000, -0.000000, -0.000000, 0.360202, 0.000000, -0.000000, -0.084090, -0.000000, 0.000000, -0.000000, 0.020271, -0.015068, 0.000000, -0.000000, 0.000000, 0.026869, 0.000000, -0.000000, -0.000000, -0.000000, -0.000000, 0.000000, 0.127845, -0.000000, 0.000000, -0.000000, -0.000000, -0.231029, 0.217199, 0.000000, 0.016939, -0.000000, 0.141069, 0.000000, -0.021120, 0.000000, 0.000000, -0.000000, -0.000000, -0.000000, 0.000000, -0.000000, -0.033371, 0.028956, 0.468925, -0.000000, -0.000000, -0.000000, 0.000000, -0.000000, 0.000000, 0.009103, -0.000000, -0.677632, 0.000000, 0.006294, -0.000031, -0.000000, 0.000000, 0.000000, -0.000000, 0.000000, 0.000000, 0.000000, 0.042939, 0.000000, 0.008877, -0.074083, -0.000000, -0.000000, -0.240666, 0.000000, -0.000000, 0.000000, -0.075079, -0.000000, 0.000000, -0.132085, -0.000000, 0.000000, -0.000000, 0.000000, 0.000000, -0.000000, 0.000000, 0.000000, -0.134559, 0.261352, 0.000000, 0.421672, -0.000000, 0.042984, 0.000009, -0.000000, -0.000000, -0.000000, 0.000000, -0.017891, 0.013965, -0.072162, -0.000000, -0.000000, 0.216449, -0.000000, 0.000000, -0.175033, -0.154464, -0.000000, -0.248516, 0.172149, 0.000000, -0.000000, -0.000000, -0.000000, 0.019239, 0.537290, 0.003715, -0.000000, -0.224785, 0.000633, -0.000002, 0.000000, 0.000000, -0.000000, 0.000000, -0.000000, 0.000000, -0.000000, -0.000000, -0.000000, -0.000000, 0.000000, 0.000000, 0.000000, -0.000000, -0.000000, 0.000000, -0.000000, 0.000000, 0.000000, -0.000000, 0.000000, -0.000000, 0.000000, 0.000000, -0.000000, -0.000000, -0.000000, -0.000000, -0.000000, -0.000000, -0.000000, -0.000000, 0.000000, 0.000000, 0.000000, 0.000000, 0.000000, 0.000000, -0.000000, 0.000000, -0.000000, 0.000000, -0.000000, -0.000000, -0.000000, -0.000000, -0.000000, -0.000000, 0.000000, 0.000000, -0.000000, 0.000000, -0.000000, -0.000000, -0.000000, 0.000000, -0.000000, -0.000000, -0.000000, -0.000000, -0.000000, -0.000000, -0.000000, -0.000000, 0.000000, -0.000000, 0.000000, 0.000000, -0.000000, -0.000000, 0.000000, 0.000000, -0.000000, -0.000000, -0.000000, -0.000000, -0.000000, 0.000000, -0.000000, -0.000000, -0.000000, -0.000000, -0.000000, 0.000000, -0.000000, -0.000000, -0.000000, -0.000000, -0.000000, -0.000000, 0.000000, 0.000000, -0.000000, -0.000000, 0.000000, -0.000000, -0.000000, 0.000000, 0.000000, 0.000000, -0.000000, 0.000000, 0.000000, -0.000000, 0.000000, 0.000000, -0.000000, -0.000000, -0.000000, 0.000000, -0.000000, -0.000000, -0.000000, 0.000000, 0.000000, -0.000000, 0.000000, -0.000000, -0.000000, 0.000000, -0.000000, -0.000000, -0.000000, -0.000000, -0.000000, -0.000000, -0.000000, -0.000000, -0.000000, -0.000000, -0.000000, -0.000000, 0.000000, -0.000000, 0.000000, -0.000000, -0.000000, -0.000000, -0.000000, -0.000000, 0.000000, 0.000000, -0.000000, -0.000000, 0.000000, -0.000000, -0.000000, -0.000000, -0.000000, 0.000000, 0.000000, 0.000000, -0.000000, -0.000000, 0.000000, -0.000000, 0.000000, -0.000000, -0.000000, 0.000000, 0.000000, -0.000000, 0.000000, -0.000000, 0.000000, 0.000000, 0.000000, -0.000000, 0.000000, 0.000000, -0.000000, 0.000000, -0.000000, 0.000000, -0.000000, -0.000000, 0.000000, -0.000000, -0.000000, -0.000000, -0.000000, 0.000000, -0.000000, -0.000000, 0.000000, -0.000000, 0.000000, 0.000000, -0.000000, 0.000000, 0.000000, 0.000000, -0.000000, 0.000000, 0.000000, 0.000000, -0.000000, 0.000000, 0.000000, 0.000000, -0.000000, -0.000000, 0.000000, -0.000000, -0.000000, -0.000000, -0.000000, -0.000000, -0.000000, 0.000000, -0.000000, -0.000000, -0.000000, -0.000000, -0.000000, -0.000000, 0.000000, -0.000000, 0.000000, 0.000000, 0.000000, 0.000000, -0.000000, 0.000000, 0.000000, 0.000000, -0.000000, 0.000000, -0.000000, -0.000000, -0.000000, -0.000000, 0.000000, 0.000000, 0.000000, -0.000000, 0.000000, 0.000000, -0.000000, -0.000000, -0.000000, -0.000000, -0.000000, 0.000000, -0.000000, -0.000000, -0.000000, 0.000000, -0.000000, 0.000000, -0.000000, -0.000000, -0.000000, 0.000000, -0.000000, -0.000000, -0.000000, 0.000000, -0.000000, -0.000000, -0.000000, 0.000000, -0.000000, -0.000000, 0.000000, -0.000000, 0.000000, -0.000000, -0.000000, 0.000000, 0.000000, 0.000000, 0.000000, 0.000000, 0.000000, 0.000000, 0.000000, -0.000000, 0.000000, -0.000000, 0.000000, -0.000000, 0.000000, 0.000000, -0.000000, -0.000000, 0.000000, -0.000000, 0.000000, 0.000000, -0.000000, -0.000000, -0.000000, -0.000000, -0.000000, 0.000000, -0.000000, 0.000000, -0.000000, -0.000000, 0.000000, -0.000000, -0.000000, 0.000000, 0.000000, -0.000000, -0.000000, 0.000000, 0.000000, -0.000000, -0.000000, -0.000000, -0.000000, -0.000000, 0.000000, -0.000000, -0.000000, -0.000000, 0.000000, -0.000000, -0.000000, 0.000000, 0.000000, 0.000000, 0.000000, 0.000000, 0.000000, -0.000000, 0.000000, -0.000000, 0.000000, 0.000000, 0.000000, 0.000000, -0.000000, -0.000000, 0.000000, -0.000000, -0.000000, -0.000000, 0.000000, 0.000000, -0.000000, -0.000000, 0.000000, -0.000000, 0.000000, -0.000000, -0.000000, -0.000000, -0.000000, -0.000000, -0.000000, -0.000000, 0.000000, -0.000000, -0.000000, -0.000000, 0.000000, -0.000000, -0.000000, 0.000000, -0.000000, 0.000000, -0.000000, -0.000000, -0.000000, -0.000000, -0.000000, 0.000000, -0.000000, 0.000000, 0.000000, -0.000000, -0.000000, -0.000000, -0.000000, 0.000000, -0.000000, 0.000000, -0.000000, 0.000000, -0.000000, -0.000000, 0.000000, -0.000000, -0.000000, -0.000000, 0.081658, -0.000000, 0.000000, -0.000000, 0.000000, 0.000000, 0.564169, 0.012510, 0.169743, 0.378146, -0.000000, -1.097537, -0.074408, 0.791327, 0.019050, -0.000000, -0.048177, -0.000000, 0.667058, -0.376938, -0.000000, 0.000000, 0.903089, -0.000000, 0.000000, 0.180970, 0.000000, 0.000000, -0.000000, 0.000000, -1.099009, 0.545520, 0.641103, -0.440431, 0.000000, -0.881606, 0.000000, 0.977642, 0.000000, -0.000000, 0.000000, 0.000000, 0.000000, -0.000000, 0.000000, -1.231148, -0.170453, -0.387283, -0.000000, 0.000000, -0.000000, -0.000000, -0.000000, 0.000000, -0.275618, -0.000000, -0.279514, -0.351170, -0.561103, -0.080965, 0.000000, 0.000000, -0.000000, -0.000000, -1.429025, 0.000000, 0.000000, 0.505663, 0.000000, -1.424375, -1.120869, 0.000000, 0.000000, -0.057252, 0.000000, 0.000000, -0.000000, -0.356981, 0.000000, 0.000000, -0.794384, 0.000000, -0.000000, -0.000000, 0.373912, -0.000000, 0.000000, -0.000000, 0.388703, 0.085845, -1.024992, -0.000000, -0.686923, -0.000000, -0.252509, 0.279549, 0.000000, -0.000000, -0.000000, 0.619124, 0.547538, -0.006144, -0.015931, -0.000000, -0.000000, -1.065249, 0.067164, 0.000000, -0.007799, -0.746880, -0.000000, 0.778181, -1.010949, 0.315684, -0.000000, 0.000000, -0.000000, -0.772993, -0.747408, -1.206226, -0.000000, -0.017915, -0.471087, -0.647770, 0.000000, 0.000000, 0.000000, -0.000000, 0.000000, 0.000000, 0.000000, -0.000000, -0.000000, -0.000000, 0.000000, 0.000000, -0.000000, 0.000000, 0.000000, 0.000000, -0.000000, 0.000000, 0.000000, -0.000000, -0.000000, -0.000000, 0.000000, 0.000000, -0.000000, 0.000000, 0.000000, 0.000000, -0.000000, 0.000000, 0.000000, -0.000000, 0.000000, 0.000000, 0.000000, 0.000000, -0.000000, -0.000000, 0.000000, -0.000000, -0.000000, 0.000000, -0.000000, -0.000000, 0.000000, -0.000000, 0.000000, -0.000000, -0.000000, 0.000000, -0.000000, -0.000000, 0.000000, -0.000000, -0.000000, 0.000000, -0.000000, -0.000000, -0.000000, -0.000000, 0.000000, -0.000000, -0.000000, -0.000000, 0.000000, -0.000000, -0.000000, 0.000000, 0.000000, -0.000000, -0.000000, -0.000000, 0.000000, 0.000000, 0.000000, 0.000000, -0.000000, 0.000000, -0.000000, -0.000000, 0.000000, 0.000000, -0.000000, 0.000000, -0.000000, -0.000000, -0.000000, -0.000000, -0.000000, -0.000000, -0.000000, 0.000000, -0.000000, 0.000000, -0.000000, -0.000000, -0.000000, 0.000000, -0.000000, 0.000000, -0.000000, -0.000000, 0.000000, 0.000000, -0.000000, 0.000000, -0.000000, -0.000000, -0.000000, -0.000000, 0.000000, -0.000000, -0.000000, 0.000000, 0.000000, 0.000000, -0.000000, 0.000000, 0.000000, -0.000000, 0.000000, -0.000000, 0.000000, -0.000000, -0.000000, 0.000000, -0.000000, 0.000000, -0.000000, -0.000000, 0.000000, -0.000000, -0.065359, 0.000000, 0.000000, -0.000000, 0.000000, -0.000000, 0.042188, 0.025345, -0.202221, -0.210352, -0.000000, -0.000094, -1.206861, 0.610599, 0.233933, -0.000000, -0.000000, 0.000000, 0.035982, -0.234190, -0.000000, -0.000000, 0.000000, -0.000000, -0.000000, 0.025967, 0.000000, 0.000000, -0.000000, 0.000000, -0.015916, -0.105832, -1.157430, 0.123835, -0.000000, 1.018603, -0.000000, 0.541060, -0.000000, -0.000000, -0.000000, 0.000000, 0.000000, -0.000000, -0.000000, -0.127253, 0.282197, -0.299785, -0.000000, -0.000000, 0.000000, -0.000000, -0.000000, 0.000000, 0.274635, 0.000000, -0.280012, -1.241661, -0.078428, -0.000000, -0.000000, -0.000000, -0.000000, 0.000000, 0.000721, -0.000000, -0.000000, -0.256196, -0.000000, 0.302402, 0.040580, -0.000000, 0.000000, 0.033992, 0.000000, -0.000000, 0.000000, -0.095864, -0.000000, 0.000000, -0.009077, 0.000000, 0.000000, -0.000000, -0.526511, -0.000000, -0.000000, -0.000000, -0.002359, -0.320564, -0.067147, -0.000000, -0.518348, -0.000000, 0.863147, 0.483848, 0.000000, 0.000000, -0.000000, -0.060360, 0.218539, -0.539786, 0.239072, -0.000000, 0.000000, 0.338807, -0.009525, 0.000000, -0.000006, 0.608399, -0.000000, 0.115454, -0.754905, -0.085446, -0.000000, -0.000000, 0.000000, 0.614840, 0.279408, 0.573400, 0.000000, -0.664374, -0.123984, -0.994201, 0.000000, 0.000000, -0.000000, 0.000000, -0.000000, -0.000000, 0.000000, 0.000000, -0.000000, 0.000000, -0.000000, -0.000000, 0.000000, -0.000000, -0.000000, -0.000000, -0.000000, -0.000000, -0.000000, -0.000000, 0.000000, -0.000000, 0.000000, 0.000000, -0.000000, 0.000000, -0.000000, 0.000000, 0.000000, -0.000000, -0.000000, 0.000000, -0.000000, -0.000000, 0.000000, 0.000000, -0.000000, 0.000000, -0.000000, 0.000000, 0.000000, -0.000000, -0.000000, -0.000000, 0.000000, 0.000000, -0.000000, 0.000000, -0.000000, -0.000000, -0.000000, -0.000000, 0.000000, -0.000000, -0.000000, -0.000000, -0.000000, -0.000000, -0.000000, -0.000000, -0.000000, -0.000000, -0.000000, -0.000000, -0.000000, 0.000000, -0.000000, 0.000000, -0.000000, -0.000000, -0.000000, 0.000000, 0.000000, 0.000000, 0.000000, -0.000000, 0.000000, 0.000000, 0.000000, -0.000000, -0.000000, 0.000000, -0.000000, -0.000000, -0.000000, 0.000000, -0.000000, -0.000000, 0.000000, -0.000000, 0.000000, -0.000000, -0.000000, 0.000000, -0.000000, -0.000000, -0.000000, -0.000000, -0.000000, -0.000000, -0.000000, -0.000000, -0.000000, 0.000000, -0.000000, -0.000000, -0.000000, -0.000000, -0.000000, 0.000000, -0.000000, -0.000000, 0.000000, 0.000000, 0.000000, 0.000000, -0.000000, -0.000000, 0.000000, 0.000000, -0.000000, 0.000000, 0.000000, -0.000000, -0.000000, -0.000000, -0.000000, -0.000000, -0.000000, 0.000000, 0.000000, -0.000000, -1.069640, 0.000000, 0.000000, -0.000000, 0.000000, -0.000000, 0.206923, 0.274313, -0.759615, -0.118696, -0.000000, -0.556516, -0.066837, 0.110577, 0.651013, -0.000000, 0.292243, 0.000000, -1.120011, 0.655463, 0.000000, 0.000000, 0.508802, 0.000000, 0.000000, -0.410062, -0.000000, -0.000000, 0.000000, -0.000000, -0.769001, -0.915013, 0.590004, 1.091471, -0.000000, -1.055142, -0.000000, -0.459406, 0.000000, -0.000000, -0.000000, 0.000000, -0.000000, -0.000000, 0.000000, -0.191400, -0.020190, -0.003175, -0.000000, -0.000000, -0.000000, -0.000000, -0.000000, -0.000000, -0.376716, 0.000000, -0.328530, -0.930925, -1.041904, -0.018037, 0.000000, -0.000000, -0.000000, 0.000000, -0.464474, 0.000000, 0.000000, 0.078557, -0.000000, 0.200452, -0.182931, -0.000000, -0.000000, 0.313837, 0.000000, -0.000000, -0.000000, 0.330390, 0.000000, -0.000000, -0.308181, -0.000000, -0.000000, 0.000000, 0.090127, 0.000000, -0.721734, -0.000000, -0.193122, 0.003729, -0.166565, -0.000000, 0.020657, 0.000000, -0.478597, -0.337133, 0.000000, -0.000000, -0.000000, -0.381054, -2.563702, 0.016859, -0.381925, -0.000000, -0.000000, 0.087860, 0.125860, 0.000000, -1.517896, -0.108712, 0.000000, -0.488804, -0.338003, -0.310399, -0.000000, -0.000000, -0.000000, -0.661315, -0.401775, -0.385968, -0.000000, -0.401161, -0.733963, -0.387801, 0.000000, -0.000000, -0.000000, -0.000000, -0.244012, -0.000000, -0.000000, -0.000000, 0.000000, -0.000000, 0.738432, 0.079209, -1.470256, 0.344081, -0.000000, 0.139956, -0.710349, -0.126223, -0.123568, 0.000000, -0.052467, -0.000000, 0.010757, -0.133648, -0.000000, 0.000000, 0.047627, -0.000000, 0.000000, 0.260484, 0.000000, 0.000000, -0.000000, 0.000000, -0.401326, -1.096073, -1.363095, 0.245907, 0.000000, 1.472951, 0.000000, 0.344193, -0.000000, 0.000000, -0.000000, 0.000000, 0.000000, 0.000000, -0.000000, -0.504709, 1.188785, -0.446150, -0.000000, 0.000000, -0.000000, -0.000000, -0.000000, 0.000000, -0.752634, 0.000000, 0.859566, -0.759049, -1.094907, -0.354580, -0.000000, 0.000000, -0.000000, 0.000000, -0.511929, -0.000000, -0.000000, -0.594593, -0.000000, -0.808947, -0.847891, 0.000000, -0.000000, 0.127297, 0.000000, -0.000000, -0.000000, -0.552485, -0.000000, -0.000000, 0.061506, 0.000000, 0.000000, -0.000000, -0.078445, -0.000000, -1.307196, -0.000000, -0.161849, -1.263810, 0.090379, -0.000000, -0.564361, -0.000000, 0.948705, 0.054701, 0.000000, 0.000000, -0.000000, -2.150677, 0.676736, 0.741006, -0.055032, -0.000000, -0.000000, 1.588392, 0.126873, 0.000000, -1.746037, 1.196745, -0.000000, 0.156845, 0.516259, 0.285031, 0.000000, 0.000000, 0.000000, -0.198805, -0.110649, 0.791813, -0.000000, -1.090723, -0.921268, -1.404580, 0.000000, 0.000000, 0.000000, -0.000000, 0.000000, -0.000000, 0.000000, 0.000000, 0.000000, -0.000000, 0.000000, -0.000000, 0.000000, -0.000000, -0.000000, -0.000000, -0.000000, 0.000000, 0.000000, 0.000000, -0.000000, 0.000000, -0.000000, -0.000000, -0.000000, 0.000000, -0.000000, -0.000000, 0.000000, -0.000000, -0.000000, -0.000000, -0.000000, -0.000000, 0.000000, 0.000000, -0.000000, 0.000000, -0.000000, -0.000000, -0.000000, -0.000000, -0.000000, -0.000000, 0.000000, -0.000000, -0.000000, 0.000000, -0.000000, -0.000000, 0.000000, -0.000000, -0.000000, 0.000000, -0.000000, -0.000000, -0.000000, -0.000000, -0.000000, 0.000000, 0.000000, -0.000000, 0.000000, -0.000000, 0.000000, -0.000000, -0.000000, 0.000000, -0.000000, -0.000000, -0.000000, -0.000000, 0.000000, 0.000000, -0.000000, 0.000000, -0.000000, -0.000000, -0.000000, -0.000000, -0.000000, -0.000000, 0.000000, -0.000000, -0.000000, -0.000000, 0.000000, -0.000000, 0.000000, -0.000000, 0.000000, -0.000000, -0.000000, -0.000000, -0.000000, -0.000000, -0.000000, 0.000000, 0.000000, -0.000000, -0.000000, -0.000000, 0.000000, -0.000000, -0.000000, 0.000000, 0.000000, -0.000000, 0.000000, -0.000000, -0.000000, -0.000000, 0.000000, -0.000000, -0.000000, 0.000000, 0.000000, 0.000000, -0.000000, -0.000000, -0.000000, 0.000000, 0.000000, 0.000000, -0.000000, -0.000000, 0.000000, 0.000000, -0.000000, -0.000000, -0.000000, -0.000000, -0.000000, 0.000000, -0.000000, 0.000000, 0.000000, 0.000000, 0.000000, 0.000000, 0.000000, -0.000000, -0.000000, 0.000000, -0.000000, -0.000000, -0.000000, -0.000000, -0.000000, -0.000000, 0.000000, -0.000000, -0.000000, -0.000000, 0.000000, -0.000000, 0.000000, 0.000000, -0.000000, -0.000000, -0.000000, 0.000000, 0.000000, -0.000000, 0.000000, 0.000000, 0.000000, 0.000000, 0.000000, -0.000000, 0.000000, 0.000000, -0.000000, -0.000000, 0.000000, 0.000000, 0.000000, -0.000000, -0.000000, -0.000000, -0.000000, -0.000000, -0.000000, 0.000000, -0.000000, -0.000000, 0.000000, 0.000000, -0.000000, -0.000000, -0.000000, 0.000000, 0.000000, -0.000000, 0.000000, 0.000000, 