// Auto-generated MLP weights + pointers for C inference

#pragma once

#define ALIGN16 __attribute__((aligned(16)))

#define NUM_LAYERS 4

static const int LAYER_SIZES[NUM_LAYERS+1] = { 8, 128, 64, 32, 1 };

// Shape: (8, 128)
static const float W0[1024] ALIGN16 = {
    -0.000000, 2.569232, -0.008307, 0.750359, 0.066613, 0.000000, -0.011916, 0.000000, 0.000000, -0.000000, -0.172616, 0.000000, -1.429354, -0.158829, 0.070894, -0.001801, -1.243048, 0.000000, 2.165790, 2.325881, -0.000000, 0.000000, 0.000000, 0.663682, -0.000000, 0.000000, -4.096638, -4.358840, -0.003275, -0.029345, 0.524804, 1.507947, 0.765701, 0.854839, 0.000000, 0.000000, 0.926924, 0.000000, -1.566178, 0.000000, -3.691784, -4.095239, 0.700793, 1.856917, 2.915280, 0.395724, 0.454434, 1.435369, 0.000000, -0.824928, -0.334988, -0.000000, 0.403433, 0.178906, 0.736125, -0.604658, 0.137721, 0.958929, 0.082333, -1.023293, 0.550620, 0.508305, 2.523721, 2.470175, 0.000000, -3.118490, -0.000000, 0.814794, 0.605976, 0.691476, -0.001344, -0.000000, -6.752862, 0.000000, 0.000000, 0.734160, -5.742181, 0.000000, 0.402365, 0.000000, 0.000000, 0.429984, 2.016754, 0.000000, 0.000000, 0.786791, -1.382191, 2.401394, 0.278371, -0.675012, 2.064104, -4.350537, 0.244009, -0.000000, 1.703187, 0.000000, -0.000000, 2.147311, 0.908244, -0.066716, -2.461280, 0.433046, 0.972712, 1.236177, 0.029046, 0.251497, 0.173156, 0.000000, 0.472394, -0.046131, 0.474549, 0.000000, -1.861714, -2.421187, 0.663559, 0.000000, 0.000000, 0.108081, 0.000000, -0.000000, 1.303026, 0.899454, -0.111669, 0.000000, 0.000000, 0.000000, 0.000000, -0.000000, 0.000000, -0.000000, 0.000000, 0.000000, -0.000000, 0.000000, 0.000000, -0.000000, 0.000000, -0.000000, 0.000000, -0.000000, 0.000000, -0.000000, 0.000000, -0.000000, 0.000000, -0.000000, 0.000000, -0.000000, -0.000000, -0.000000, -0.000000, -0.000000, 0.000000, 0.000000, -0.000000, -0.000000, 0.000000, 0.000000, -0.000000, 0.000000, -0.000000, -0.000000, -0.000000, 0.000000, 0.000000, 0.000000, 0.000000, 0.000000, -0.000000, 0.000000, 0.000000, 0.000000, -0.000000, 0.000000, 0.000000, -0.000000, 0.000000, 0.000000, 0.000000, 0.000000, 0.000000, -0.000000, -0.000000, 0.000000, 0.000000, -0.000000, -0.000000, 0.000000, -0.000000, -0.000000, 0.000000, 0.000000, 0.000000, -0.000000, 0.000000, -0.000000, 0.000000, 0.000000, 0.000000, -0.000000, -0.000000, 0.000000, -0.000000, 0.000000, 0.000000, 0.000000, -0.000000, -0.000000, 0.000000, -0.000000, 0.000000, 0.000000, 0.000000, 0.000000, -0.000000, -0.000000, -0.000000, -0.000000, 0.000000, -0.000000, -0.000000, 0.000000, 0.000000, 0.000000, 0.000000, -0.000000, -0.000000, -0.000000, 0.000000, 0.000000, 0.000000, -0.000000, -0.000000, 0.000000, 0.000000, 0.000000, -0.000000, 0.000000, 0.000000, 0.000000, 0.000000, 0.000000, -0.000000, -0.000000, 0.000000, -0.000000, -0.000000, 0.000000, 0.000000, -0.000000, 0.000000, 0.000000, -0.000000, 0.000000, -0.000000, -0.000000, 0.000000, 1.939862, -0.239301, -0.063969, 0.460138, -0.000000, -0.018206, -0.000000, 0.000000, 0.000000, 0.345123, -0.000000, -0.736700, -0.676557, 0.018733, 0.526424, 0.158704, 0.000000, 1.369177, 0.467756, -0.000000, 0.000000, 0.000000, 0.767125, 0.000000, -0.000000, -3.200621, -3.425330, 0.131018, 0.201210, 0.177367, 4.729492, 0.667745, 0.419880, 0.000000, -0.000000, 1.032677, -0.000000, -1.258768, 0.000000, -0.044203, -3.277571, 0.659578, 0.935254, 1.680831, 0.335897, 1.060301, 0.996920, 0.000000, 0.822418, -0.667051, -0.000000, 0.344196, 0.088462, 0.450581, -0.681145, -0.146449, 1.433847, 0.382231, -0.952344, 1.004967, 0.579117, -0.424069, 0.919641, -0.000000, -2.160559, 0.000000, 0.224055, 1.016609, 0.695157, -0.007182, -0.000000, -2.816209, 0.000000, 0.000000, 0.715658, -1.461962, -0.000000, 0.218145, -0.000000, -0.000000, 0.498576, 0.327157, -0.000000, -0.000000, 1.922739, 1.229484, 1.455420, 0.051889, 0.119835, 0.582262, -3.769279, 0.170786, -0.000000, 1.304314, 0.000000, 0.000000, 0.921657, 0.588951, 0.147716, -1.856086, -0.702662, -0.070174, 0.498858, 0.915257, 1.477131, -0.115505, 0.000000, 0.632374, -0.375450, 1.128240, 0.000000, -1.538779, 2.560496, 0.105857, 0.000000, -0.000000, 0.253428, -0.000000, 0.000000, 0.315092, 0.245777, 0.529831, -0.000000, 0.000000, -0.000000, -0.000000, -0.000000, 0.000000, 0.399174, -0.776960, -0.090123, -0.687376, -0.000000, 0.004875, -0.000000, -0.000000, -0.000000, -0.032738, 0.000000, -0.532343, -1.318499, 0.025821, -0.842407, -0.412452, -0.000000, -0.073505, 0.068008, -0.000000, 0.000000, 0.000000, -0.881184, -0.000000, 0.000000, -0.088333, 0.071393, -0.004567, -0.389894, 0.059356, -0.130174, 0.076284, 0.002041, 0.000000, -0.000000, 0.496460, 0.000000, -0.650064, 0.000000, -0.809051, -0.044046, 0.168860, 0.250345, 0.047351, 0.018597, 0.201593, 0.433628, -0.000000, -1.196629, -2.260152, -0.000000, 0.082813, 0.550252, 0.331820, -0.929432, -1.033628, 0.047570, -0.130871, -1.226819, 0.054453, 0.212064, 0.122900, 0.349349, -0.000000, -0.571345, -0.000000, -0.532740, 0.554746, -0.071407, 0.044154, 0.000000, -0.081871, 0.000000, -0.000000, -0.105174, -0.480679, -0.000000, 0.342123, -0.000000, -0.000000, 0.012044, 0.162126, -0.000000, -0.000000, 0.028953, -0.568454, 0.218256, -0.992046, 0.981698, 0.288925, 0.125412, 0.025111, 0.000000, 0.313313, 0.000000, -0.000000, 0.011329, -0.022950, -2.346995, 0.269890, -0.748406, -0.867898, -1.891469, -0.635275, 0.033655, -0.000001, 0.000000, 0.010883, -0.317042, 0.449943, 0.000000, -0.404537, -0.697024, 0.627366, -0.000000, -0.000000, -0.935896, -0.000000, -0.000000, 0.634918, -1.231594, 0.492661, 0.000000, -0.000000, 0.000000, -0.000000, -0.000000, -0.000000, 0.294835, -0.733606, -0.488343, -0.345133, -0.000000, 0.179109, -0.000000, -0.000000, -0.000000, -0.040083, -0.000000, 0.245743, 0.078878, 0.315660, -0.352935, -0.549510, -0.000000, -0.090628, 0.458497, -0.000000, -0.000000, -0.000000, 0.713572, -0.000000, -0.000000, -0.000015, -0.092837, 0.176714, 0.540983, -0.436854, 0.172816, 0.053298, -0.186598, -0.000000, -0.000000, -0.750853, -0.000000, -0.044165, 0.000000, 0.203251, 0.100987, 0.708964, -0.035652, -0.958627, -0.087453, 0.363525, -0.653709, 0.000000, -0.477344, 0.161108, -0.000000, -0.846629, -0.225654, -1.696694, 0.141888, 0.399297, 0.338447, 0.464099, 0.366413, -0.786346, 0.160807, -0.034572, 0.589508, -0.000000, 0.342026, -0.000000, -0.654343, -0.296991, -0.434528, -0.152416, -0.000000, 0.012691, 0.000000, -0.000000, -2.448251, -0.422225, -0.000000, -0.291196, 0.000000, -0.000000, -0.325098, 0.451374, -0.000000, -0.000000, 0.074627, -0.009824, -1.540787, 0.006715, -0.096055, 0.005970, -0.194137, 0.013166, -0.000000, -0.676495, 0.000000, 0.000000, -0.156317, -0.795033, 0.479739, 0.132626, 0.275528, 0.144671, 0.683033, 0.268935, 0.117436, -0.032793, -0.000000, -1.790865, -2.477442, 0.066315, -0.000000, 0.308412, 0.136556, -0.116101, -0.000000, -0.000000, 0.096135, -0.000000, -0.000000, -0.009458, 0.012397, -0.003721, -0.000000, -0.000000, -0.000000, -0.000000, -0.000000, -0.000000, -0.489947, -1.604500, -0.307390, -1.636964, 0.000000, 0.027977, -0.000000, -0.000000, -0.000000, 0.027078, 0.000000, 0.633359, 1.136839, 0.271235, -1.706238, -2.881893, 0.000000, -0.030206, -0.075510, 0.000000, 0.000000, 0.000000, -0.542320, -0.000000, 0.000000, -0.256266, -0.045367, -0.420805, -2.773839, -1.552762, 0.065408, -2.811328, 0.618692, 0.000000, 0.000000, -0.979405, 0.000000, 0.822258, 0.000000, -0.702809, -0.348423, -2.338082, 0.413119, 0.687678, -0.006250, -2.029921, -0.064707, -0.000000, -2.234246, 0.946872, 0.000000, -0.072845, -1.657549, 0.055849, -0.908917, -0.599448, -0.080871, -2.592932, 0.043510, 0.010190, -1.970136, -0.070676, -0.815055, -0.000000, 0.649778, -0.000000, 0.831069, -2.117863, 0.062037, 0.064734, -0.000000, -0.094421, -0.000000, 0.000000, 0.133547, 0.063609, 0.000000, -1.194690, -0.000000, 0.000000, -0.060655, -0.529633, -0.000000, 0.000000, -0.059355, -1.466658, 0.687569, -0.890806, -0.905450, -0.779288, -0.008691, -0.021522, 0.000000, -0.187761, -0.000000, 0.000000, -0.116500, 0.021900, -1.021096, -0.581641, -0.952557, -0.884055, 0.245876, -1.296970, 0.537899, -0.000000, -0.000000, 0.402124, 0.594702, -1.306311, -0.000000, -0.041035, -1.885751, -0.818690, -0.000000, 0.000000, -1.095479, 0.000000, -0.000000, -1.271812, -0.851210, -1.204027, -0.000000, 0.000000, -0.000000, -0.000000, -0.000000, 0.000000, 0.647805, 0.240827, 0.476625, 0.143415, 0.000000, 0.250392, 0.000000, -0.000000, 0.000000, 0.067935, 0.000000, 0.475983, 0.104263, 0.147443, 0.196392, 0.254236, 0.000000, 0.071259, -0.121569, 0.000000, -0.000000, -0.000000, 0.278502, 0.000000, 0.000000, 0.006869, -0.037689, 0.695735, 0.522067, 0.599051, 0.589912, 0.542612, -0.337908, -0.000000, 0.000000, 0.262778, 0.000000, 0.037688, 0.000000, 0.094341, 0.007742, 0.670877, -0.112012, -0.357773, -0.325667, 0.752498, 0.111414, 0.000000, 0.090319, 0.238138, 0.000000, -0.005211, 0.289378, -0.281581, 0.312318, 0.259875, 0.833666, 0.501868, 0.585031, 0.010801, 0.576897, 0.229426, 0.273067, 0.000000, 0.454177, 0.000000, 0.202503, 0.483958, 0.202648, -0.029638, -0.000000, -0.043487, 0.000000, -0.000000, 0.147004, -0.042054, 0.000000, 0.131999, 0.000000, -0.000000, -0.356030, -0.032420, 0.000000, -0.000000, 0.712201, 0.207629, -0.157428, 0.369363, -0.121808, 0.339198, -0.064700, -0.240789, 0.000000, 0.020546, -0.000000, 0.000000, 0.062546, 0.060245, 0.414248, 0.190350, 0.477625, 0.102516, 0.149051, 0.474617, 0.135005, 0.056544, -0.000000, 0.052660, -0.043278, 0.604856, -0.000000, 0.202240, 0.155556, -0.038386, 0.000000, 0.000000, 0.341419, 0.000000, -0.000000, -0.216337, 0.105188, 0.415057, 0.000000, 0.000000, 0.000000, 0.000000, 0.000000, -0.000000, 0.437857, -0.850456, -0.124308, -0.846648, 0.000000, 0.004848, -0.000000, -0.000000, -0.000000, -0.032357, 0.000000, -0.771113, -1.337903, 0.025310, -0.999876, -0.253808, -0.000000, -0.055928, -0.087842, -0.000000, -0.000000, 0.000000, -0.845953, -0.000000, 0.000000, 0.151813, 0.008524, -0.211634, -0.603277, -0.090760, -0.091719, 0.207739, -0.027249, 0.000000, -0.000000, 0.576758, 0.000000, -0.616662, 0.000000, -0.821530, 0.108027, 0.044050, 0.121140, 0.015235, 0.018870, 0.397426, 0.461949, -0.000000, -1.228314, -2.241498, 0.000000, 0.093127, 0.458368, 0.287885, -0.698754, -0.998068, 0.018707, -0.114587, -1.221654, -0.010794, -0.091218, -0.188330, 0.342943, -0.000000, -0.354564, -0.000000, -0.602935, 0.500796, -0.215914, 0.044154, -0.000000, 0.136263, 0.000000, -0.000000, 0.227495, -0.258751, -0.000000, 0.094753, -0.000000, -0.000000, 0.011913, 0.241993, -0.000000, -0.000000, -0.039219, -0.540556, -0.155759, -0.816950, 0.816163, 0.356019, -0.108417, 0.025111, 0.000000, 0.243045, 0.000000, -0.000000, -0.028367, -0.058693, -2.516873, 0.407534, -0.950282, -0.590158, -1.828658, -0.822969, -0.110655, -0.000001, 0.000000, 0.230290, -0.125279, 0.544551, 0.000000, -0.539222, -0.557995, 0.317127, -0.000000, -0.000000, -1.071795, -0.000000, -0.000000, 0.426129, -1.068389, 0.494539, 0.000000, -0.000000, -0.000000, -0.000000, 0.000000
};

// Shape: (128,)
static const float B0[128] ALIGN16 = {
    -0.039183, 0.022906, -0.126450, 0.258283, -0.416168, -0.123141, -2.305792, -0.813708, -1.333763, -0.549429, -0.727631, -0.721964, -0.256425, 0.031751, -2.996344, -0.470735, 0.013763, -0.454552, 0.076652, -0.224894, -0.113013, -0.137202, -2.070925, -0.326920, -0.399895, -0.248628, -0.183002, -0.318296, 0.175551, 0.308288, 0.737088, 0.092976, 0.380110, -3.047068, -0.645649, -0.740637, 0.382151, -0.287114, -0.157464, -0.418963, -0.423084, -0.119170, -0.090653, -1.621524, -1.236279, -2.943464, -0.083666, -0.349150, -1.945869, -0.618988, 0.187559, -0.307321, -0.812271, 0.160184, -2.458074, 0.491361, 0.331100, -0.280854, 0.095434, 0.734546, -0.609797, -0.120834, 0.089541, 0.218767, -0.291625, -0.181021, -0.171527, 0.206402, 0.234630, -0.131828, -1.837372, -0.135885, -0.450948, -2.797162, -0.421149, -0.477096, -0.455333, -0.352483, 0.105497, -0.363579, -0.289154, -2.584991, -0.586859, -0.333578, -0.745322, -0.046431, -0.026978, -0.925153, -0.560812, 0.013030, 0.492121, -0.267617, -2.468242, -0.239668, -0.133579, -0.852020, -0.175569, 0.155621, -0.142397, 0.287120, -0.169351, 0.124439, -0.409769, 0.296451, -0.507871, -0.345316, -0.178951, -0.945462, -1.281524, -0.463186, 0.279492, -1.234068, 0.106707, -0.129913, -2.112202, -0.287153, -0.104039, -0.690014, -0.256912, -0.524856, -0.196904, 0.857566, 0.219507, -0.282788, -0.320395, -0.080728, -0.232370, -0.109400
};

// Shape: (128, 64)
static const float W1[8192] ALIGN16 = {
    0.000000, -0.000000, 0.000000, 0.000000, -0.000000, 0.000000, 0.000000, -0.000000, 0.000000, -0.000000, -0.000000, 0.000000, -0.000000, 0.000000, 0.000000, -0.000000, -0.000000, -0.000000, -0.000000, 0.000000, 0.000000, -0.000000, 0.000000, 0.000000, 0.000000, -0.000000, -0.000000, 0.000000, 0.000000, -0.000000, -0.000000, -0.000000, -0.000000, 0.000000, 0.000000, -0.000000, 0.000000, 0.000000, -0.000000, 0.000000, 0.000000, 0.000000, -0.000000, 0.000000, 0.000000, 0.000000, 0.000000, -0.000000, 0.000000, -0.000000, -0.000000, -0.000000, -0.000000, 0.000000, 0.000000, -0.000000, -0.000000, -0.000000, -0.000000, 0.000000, -0.000000, 0.000000, 0.000000, -0.000000, -0.313519, -0.464152, -0.170523, -0.599568, 0.157880, 0.335991, -0.172037, -0.463021, -0.037471, 0.005273, 0.358663, -0.377643, -0.241774, 0.057488, -0.155826, -0.040535, 0.056952, -0.323461, -0.346178, -0.362914, -0.000000, -0.000000, 0.221479, -1.159352, -0.417488, 0.278764, -0.000000, 0.449325, 0.000000, -0.071146, -0.000000, -0.000000, 0.000000, -0.406170, 0.097916, -0.000000, -0.420266, 0.038558, -0.776835, -1.007336, -0.237657, 0.589248, -1.647979, -0.330929, -0.000000, -0.132590, -0.767803, 0.221528, -0.009268, -0.437101, -0.000000, -0.000000, -0.000000, 0.044402, -0.509204, 0.000000, 0.194288, -0.000000, -0.622204, -0.214295, -0.000000, 0.030409, -0.464954, -0.000000, -0.000028, -0.758277, -0.010879, -0.298045, -0.231487, -0.000000, 0.175346, -0.000261, -0.000000, -0.177213, 1.012104, 0.000000, -0.024266, 0.104660, 0.391999, -0.000000, -0.664839, -0.000000, -0.000000, 0.000000, -0.000000, 0.000000, -0.000037, 0.516314, 0.412782, 0.000000, -0.000000, -0.284518, 0.000000, 0.000000, -0.000000, 0.000000, 0.000000, -0.000000, 0.000000, 0.000000, -0.018125, -0.020114, 0.000000, -0.294239, 0.377438, 0.034183, -0.045748, 0.596915, 0.000000, -0.000000, -0.241873, -0.000002, -0.000000, -0.346977, -0.000000, -0.000000, -0.000000, -0.000008, 0.080036, 0.000000, -0.000000, -0.000000, -0.000000, 0.020814, -0.000000, -0.367322, -0.000000, -0.000000, -0.890465, -0.089567, 0.123705, 0.125285, 0.165809, 0.147190, -0.288517, -0.255172, -0.010858, 0.349895, -0.098867, 0.026683, -0.015515, -0.812663, -0.421208, -0.209576, 0.250750, -0.452236, -0.011046, 0.481241, -0.000000, -0.000000, -0.014062, 0.030502, -0.324584, -0.000000, 0.000000, -0.002727, 0.000000, 0.286545, -0.000000, -0.000000, 0.000000, -0.091986, -0.191185, 0.000000, 0.296332, -0.135693, -0.199924, -0.104660, -0.529983, -0.083045, -1.237026, 0.065956, 0.000000, -0.965049, -0.806908, -0.182489, -0.015005, -0.140565, 0.000000, -0.000000, 0.000000, -0.296415, -0.251562, 0.000000, -0.216827, 0.000000, -0.955120, -0.064746, -0.000000, 0.099714, -0.832543, -0.000000, 0.039045, 0.000000, 0.090736, -0.091287, 0.095555, 0.000000, 0.238908, -0.000000, -0.000000, -0.311477, -1.610694, 0.000001, -0.011798, 0.706287, -0.025179, 0.000000, -0.436111, 0.000000, -0.014717, -0.000000, 0.000000, 0.000000, -0.030638, -0.072228, 0.837178, 0.000000, -0.000000, -0.011443, 0.000000, 0.000000, -0.000000, 0.000000, -0.000000, -0.000000, -0.000000, -0.000000, -0.207592, -0.236568, 0.000000, 0.000000, 0.378669, -0.041184, -0.000000, -0.300504, 0.000000, -0.000000, -0.007425, -0.015658, 0.077050, 0.296835, 0.000000, 0.000000, -0.000000, 0.002844, -0.122595, 0.000000, -0.066683, 0.000000, 0.000000, 0.119485, 0.000000, 0.683094, 0.001288, -0.000000, -0.000000, 0.000000, 0.000000, 0.000000, 0.000000, -0.000000, -0.000000, -0.000000, 0.000000, -0.000000, 0.000000, -0.000000, -0.000000, -0.000000, 0.000000, 0.000000, -0.000000, -0.000000, 0.000000, 0.000000, -0.000000, -0.000000, 0.000000, 0.000000, -0.000000, 0.000000, 0.000000, -0.000000, 0.000000, 0.000000, -0.000000, 0.000000, -0.000000, 0.000000, -0.000000, -0.000000, 0.000000, 0.000000, 0.000000, -0.000000, -0.000000, -0.000000, -0.000000, 0.000000, 0.000000, -0.000000, 0.000000, 0.000000, -0.000000, -0.000000, -0.000000, -0.000000, -0.000000, -0.000000, 0.000000, -0.000000, -0.000000, -0.000000, -0.000000, 0.000000, 0.000000, -0.000000, -0.000000, -0.000000, -0.019053, -0.000000, -0.000000, 0.000000, -0.009658, -0.002686, 0.027448, -0.000000, 0.000000, -0.109405, 0.000000, -0.000000, -0.000000, -0.079362, 0.000000, -0.000000, 0.000000, 0.000000, -0.000000, -0.000000, 0.000000, -0.000000, 0.000000, -0.000000, -0.012957, 0.025275, 0.000000, 0.003711, -0.000000, 0.067769, -0.000000, -0.000000, 0.000000, 0.000000, 0.000000, -0.000000, -0.000000, -0.000000, -0.007575, -0.000000, -0.000000, -0.023550, -0.000000, -0.000000, -0.000000, -0.000000, -0.024992, -0.041261, 0.066773, 0.005891, 0.000000, -0.000000, -0.000000, -0.000000, -0.019624, 0.000000, -0.004540, -0.000000, -0.000000, -0.000000, -0.000000, 0.250334, -0.054451, 0.000000, -0.000000, -0.000000, -0.000000, 0.000000, 0.000000, 0.000000, -0.000000, -0.000000, 0.000000, 0.000000, -0.000000, 0.000000, 0.000000, 0.000000, 0.000000, -0.000000, 0.000000, 0.000000, 0.000000, 0.000000, -0.000000, -0.000000, -0.000000, -0.000000, 0.000000, 0.000000, 0.000000, -0.000000, -0.000000, -0.000000, 0.000000, -0.000000, 0.000000, -0.000000, -0.000000, -0.000000, 0.000000, 0.000000, 0.000000, 0.000000, 0.000000, -0.000000, -0.000000, 0.000000, -0.000000, 0.000000, -0.000000, 0.000000, 0.000000, 0.000000, -0.000000, -0.000000, -0.000000, 0.000000, -0.000000, 0.000000, -0.000000, -0.000000, 0.000000, 0.000000, 0.000000, -0.000000, -0.000000, 0.000000, -0.000000, -0.000000, -0.000000, -0.000000, -0.000000, 0.000000, -0.000000, 0.000000, -0.000000, 0.000000, -0.000000, -0.000000, 0.000000, 0.000000, -0.000000, -0.000000, -0.000000, -0.000000, -0.000000, -0.000000, -0.000000, -0.000000, -0.000000, 0.000000, -0.000000, 0.000000, -0.000000, 0.000000, -0.000000, 0.000000, -0.000000, 0.000000, -0.000000, -0.000000, 0.000000, -0.000000, -0.000000, -0.000000, 0.000000, 0.000000, 0.000000, -0.000000, -0.000000, 0.000000, -0.000000, 0.000000, 0.000000, 0.000000, 0.000000, 0.000000, -0.000000, 0.000000, -0.000000, 0.000000, -0.000000, -0.000000, -0.000000, -0.000000, -0.000000, -0.000000, -0.000000, -0.000000, -0.000000, 0.000000, -0.000000, 0.000000, -0.000000, -0.000000, 0.000000, -0.000000, 0.000000, -0.000000, 0.000000, -0.000000, 0.000000, -0.000000, 0.000000, 0.000000, -0.000000, 0.000000, 0.000000, -0.000000, -0.000000, -0.000000, -0.000000, -0.000000, -0.000000, -0.000000, 0.000000, 0.000000, 0.000000, 0.000000, 0.000000, 0.000000, -0.000000, -0.000000, -0.000000, -0.000000, 0.000000, -0.000000, 0.000000, -0.000000, -0.000000, -0.000000, -0.000000, 0.000000, 0.000000, -0.000000, 0.000000, 0.000000, 0.000000, 0.000000, 0.000000, 0.000000, -0.000000, 0.000000, -0.000000, 0.000000, -0.000000, -0.000000, -0.000000, 0.000000, -0.000000, -0.000000, -0.000000, -0.000000, -0.000000, -0.000000, -0.040671, -0.000000, -0.009544, -0.000000, 0.021866, -0.000000, 0.004189, -0.000000, -0.000000, 0.219692, -0.000000, 0.000000, -0.000000, 0.000000, 0.000000, -0.000000, 0.000000, 0.000000, 0.000000, 0.000000, -0.000000, -0.000000, 0.000000, 0.000000, 0.048547, 0.000000, -0.000000, -0.000000, 0.000000, -0.000000, -0.000000, 0.000000, -0.000000, -0.000000, -0.000000, -0.000000, -0.000000, -0.000000, -0.000000, 0.000000, 0.000000, 0.031756, 0.000000, -0.075419, -0.000000, -0.000000, -0.000000, -0.000000, 0.160738, 0.000000, -0.000000, -0.000000, 0.000000, 0.000000, -0.001625, -0.000000, -0.085134, -0.000000, -0.000000, 0.000000, -0.000000, 0.000000, -0.047333, -0.000000, 0.000000, 0.000000, -0.000000, 0.000000, -0.000000, -0.000000, 0.000000, -0.000000, 0.000000, -0.000000, -0.000000, 0.000000, 0.000000, 0.000000, -0.000000, 0.000000, -0.000000, -0.000000, -0.000000, -0.000000, 0.000000, -0.000000, -0.000000, 0.000000, 0.000000, 0.000000, 0.000000, -0.000000, -0.000000, -0.000000, -0.000000, 0.000000, -0.000000, 0.000000, 0.000000, -0.000000, 0.000000, 0.000000, 0.000000, 0.000000, 0.000000, -0.000000, 0.000000, -0.000000, -0.000000, 0.000000, 0.000000, -0.000000, 0.000000, 0.000000, 0.000000, -0.000000, -0.000000, -0.000000, -0.000000, 0.000000, -0.000000, -0.000000, 0.000000, 0.000000, 0.000000, -0.000000, 0.000000, -0.000000, -0.077263, -0.267002, -0.057396, -0.205576, -0.300027, 0.235063, 0.243217, -0.360536, -0.554584, -1.059865, -0.250045, -0.103552, 0.030918, -0.171857, -0.142132, -0.355098, 0.502390, -0.378195, 0.125304, -0.119416, -0.000000, -0.000000, -0.217551, 0.235751, -0.162146, -0.000000, -0.000000, 0.242042, -0.000000, -0.131043, -0.000000, 0.000000, -0.000000, 0.023317, 0.131118, 0.000000, -0.519911, -0.104000, -0.074262, -0.629624, 0.007911, 0.147026, 0.433230, 0.510624, -0.000000, -0.784122, -0.191914, 0.283501, -0.082049, -0.528644, -0.000000, 0.000000, -0.000000, -0.679400, 0.000000, 0.000000, -0.788614, -0.000000, -0.000000, 0.060910, -0.000000, 0.069289, -0.387536, -0.000000, 0.719333, 1.182345, -0.089471, -0.491122, -0.611441, 0.019026, -0.987404, -1.111282, -0.189736, 0.800507, 0.202759, -0.131227, -0.012642, 0.028522, -0.075798, 0.526275, -0.264771, -0.311260, -0.000000, 0.256301, -0.000000, -0.000000, 0.227157, 0.675740, -0.237836, 0.000000, -0.000000, -0.655636, 0.000000, 0.001005, -0.000000, 0.000000, -0.000000, 0.754109, -0.629612, 0.000000, -0.696248, 0.160283, 0.010238, -0.695903, 0.106655, 0.094932, 1.161279, 1.415008, -0.000000, -0.183949, -0.629044, -0.681697, 0.000000, 1.295772, 0.000000, -0.000000, -0.000000, 0.759611, -0.335812, 0.000000, -0.641151, 0.000000, -0.000000, -0.354156, -0.000000, -0.147036, -0.578647, -0.000000, 0.009172, -0.000000, -0.096073, -0.000000, 0.065841, 0.002593, -0.080269, 0.000000, -0.000000, -0.894154, -0.000000, -0.000000, 0.020886, -0.400544, -0.000000, -0.000000, -0.039618, -0.000000, 0.147352, -0.000000, -0.000000, -0.000000, 0.000225, -0.109248, -0.040725, 0.009313, 0.000000, -0.160252, -0.000000, 0.496764, -0.000000, 0.000000, -0.000000, -0.000000, 0.000000, -0.000000, -0.000000, -0.030606, 0.169718, -0.026591, -0.677827, -0.050084, -0.000000, -0.045967, -0.000000, 0.053254, -0.022270, 0.113346, 0.010179, -0.013339, 0.000000, -0.000000, 0.000000, -0.138970, -0.080851, 0.000000, 0.016344, -0.000000, 0.023074, -0.033131, -0.000000, 0.612772, -0.080220, -0.000000, 0.056558, -0.000000, 0.060819, -0.030112, 0.043596, -0.000000, 0.251129, -0.000000, 0.000000, -0.321670, -1.922005, -0.000000, -0.013345, 0.752909, 0.039912, -0.000000, -0.348336, 0.000000, -0.012975, -0.000000, 0.000000, 0.000000, 0.000025, 0.057911, 1.072224, 0.000000, 0.000000, 0.008048, -0.000000, 0.000000, -0.000000, 0.000000, -0.000000, -0.000000, -0.000000, -0.000000, -0.232102, -0.235217, -0.000000, 0.000000, 0.398846, 0.048847, -0.000000, -0.426509, -0.000000, -0.000000, -0.006730, -0.000000, 0.009639, 0.425075, -0.000000, 0.000000, 0.000000, -0.000000, -0.121649, -0.000000, -0.054375, -0.000000, -0.000000, 0.134389, -0.000000, 0.912941, 0.003185, -0.000000, -0.000000, -2.313643, -0.028613, 0.014177, -0.796096, -0.000000, -0.299265, -0.119963, -0.000000, -0.325607, 1.494601, 0.000000, -0.032444, -0.136961, -0.573004, -0.001049, -0.442609, -0.000000, 0.000000, 0.000000, -0.000000, 0.000000, -0.000000, 0.419829, 0.361143, -0.000000, 0.000000, -0.707530, 0.000000, -0.064376, -0.000000, 0.000000, 0.000000, 0.000000, -0.267040, 0.000000, -0.303421, -0.009844, -0.000000, -0.175549, 0.283075, -0.204167, -0.232234, 0.179302, 0.000000, -0.000000, -0.704461, -0.000000, -0.000000, -0.518663, -0.000000, -0.000000, -0.000000, 0.000000, -0.432002, -0.000000, -0.360166, -0.000000, -0.823484, -0.069416, 0.000000, 0.701434, -0.023046, -0.000000, -0.000000, -0.000000, -0.000000, -0.000000, -0.000000, 0.000000, -0.000000, -0.000000, 0.000000, 0.000000, 0.000000, -0.000000, -0.000000, 0.000000, 0.000000, 0.000000, 0.000000, 0.000000, 0.000000, 0.000000, -0.000000, 0.000000, -0.000000, -0.000000, 0.000000, 0.000000, -0.000000, 0.000000, -0.000000, -0.000000, -0.000000, 0.000000, -0.000000, -0.000000, -0.000000, -0.000000, 0.000000, -0.000000, 0.000000, 0.000000, 0.000000, -0.000000, -0.000000, -0.000000, -0.000000, 0.000000, -0.000000, 0.000000, 0.000000, -0.000000, 0.000000, -0.000000, -0.000000, -0.000000, -0.000000, -0.000000, 0.000000, -0.000000, -0.000000, -0.000000, -0.000000, -0.000000, -0.000000, -0.000000, 0.250087, 0.357129, 0.063452, 0.089381, 0.171294, 0.276423, 0.449878, 0.027449, -0.131824, 0.230164, -0.829401, 0.067744, -0.030008, 0.005024, -0.029111, -0.274645, -0.769028, -0.000000, 0.297484, -0.091985, -0.000000, 0.000000, -0.267009, -0.074110, 0.138183, -0.035978, -0.000000, 0.328989, 0.000000, -0.035080, -0.000000, 0.000000, 0.000000, -0.000000, -0.650773, -0.000000, 0.003514, -0.061067, 0.168197, -0.000133, 0.172434, 0.209027, 0.000000, 0.758418, -0.000000, 0.236701, -0.070318, -0.460394, 0.276372, -0.150381, 0.000000, -0.000000, 0.000000, 0.540647, 0.753198, -0.000000, 0.421132, -0.000000, -0.110536, 0.126666, -0.000000, -0.311715, 0.378928, -0.000000, 0.123614, -0.217834, 0.114224, -0.070762, -0.010728, -0.285227, 0.292430, -0.541696, -0.257900, 0.942812, -0.885128, -0.076993, -0.197421, -0.749613, -0.262883, -0.440844, -0.133681, -0.148919, 0.055005, 0.068165, -0.000000, 0.000000, -0.054391, -0.499886, -0.146270, -0.246827, -0.000000, 0.161279, -0.000000, 0.009220, -0.000000, -0.000000, 0.000000, -0.661478, -0.714993, -0.000000, -0.374393, 0.006311, -0.006929, -0.659852, -0.133123, 0.104835, -0.010030, 0.090562, -0.000000, -0.344562, -0.775402, 0.069828, 0.326554, -0.126251, -0.000000, -0.000000, -0.000000, -0.161112, -0.206740, -0.000000, -0.190853, 0.000000, 0.230531, 0.077005, -0.000000, -0.420864, -0.163558, 0.000000, 0.000000, 0.000000, 0.000000, 0.000000, -0.000000, -0.000000, 0.000000, 0.000000, 0.000000, 0.000000, 0.000000, -0.000000, 0.000000, -0.000000, -0.000000, 0.000000, -0.000000, 0.000000, 0.000000, 0.000000, -0.000000, -0.000000, 0.000000, 0.000000, 0.000000, 0.000000, -0.000000, -0.000000, -0.000000, 0.000000, 0.000000, -0.000000, -0.000000, -0.000000, -0.000000, 0.000000, 0.000000, 0.000000, 0.000000, -0.000000, -0.000000, 0.000000, -0.000000, 0.000000, -0.000000, -0.000000, 0.000000, -0.000000, -0.000000, -0.000000, 0.000000, -0.000000, -0.000000, -0.000000, -0.000000, 0.000000, 0.000000, -0.000000, 0.000000, 0.000000, -0.000000, 0.000000, -0.000000, 0.000000, 0.000000, 0.000000, 0.000000, 0.000000, 0.000000, -0.000000, 0.000000, -0.000000, -0.000000, -0.000000, 0.000000, -0.000000, 0.000000, 0.000000, 0.000000, 0.000000, -0.000000, -0.000000, -0.000000, -0.000000, -0.000000, -0.000000, 0.000000, 0.000000, 0.000000, -0.000000, 0.000000, 0.000000, 0.000000, 0.000000, -0.000000, 0.000000, 0.000000, -0.000000, -0.000000, 0.000000, -0.000000, -0.000000, 0.000000, 0.000000, -0.000000, 0.000000, 0.000000, 0.000000, 0.000000, 0.000000, 0.000000, 0.000000, -0.000000, 0.000000, -0.000000, -0.000000, -0.000000, -0.000000, -0.000000, -0.000000, 0.000000, 0.000000, -0.000000, 0.000000, -0.000000, -0.000000, -0.000000, -0.000000, -0.000000, 0.000000, -0.000000, -0.000000, 0.000000, -0.000000, 0.000000, 0.000000, 0.000000, -0.000000, -0.000000, 0.000000, -0.000000, -0.000000, -0.000000, -0.000000, -0.000000, -0.000000, 0.000000, 0.000000, -0.000000, 0.000000, -0.000000, 0.000000, -0.000000, -0.000000, 0.000000, 0.000000, 0.000000, -0.000000, -0.000000, 0.000000, -0.000000, -0.000000, 0.000000, -0.000000, -0.000000, -0.000000, -0.000000, 0.000000, 0.000000, -0.000000, -0.000000, -0.000000, -0.000000, -0.000000, -0.000000, 0.000000, 0.000000, -0.000000, 0.000000, -0.000000, -0.000000, 0.000000, 0.000000, -0.000000, -0.000000, -0.000000, -0.000000, -0.000000, 0.000000, 0.000000, 0.000000, 0.000000, -0.039649, -0.642495, -0.463672, -0.034314, -0.255610, 0.093655, 0.209801, -0.000000, -0.000000, -0.032539, 0.000000, 0.000000, -0.001835, -0.310312, -1.497762, 0.000000, -0.466000, -0.133074, -0.028420, 0.000000, -0.000000, -0.000000, 0.250699, -0.146646, 0.839643, 0.026493, -0.000000, -0.997094, -0.000000, -0.334706, -0.000000, -0.000000, 0.000000, -0.000000, 0.096984, -0.000000, -0.742894, -0.058605, 0.173918, -0.622654, 0.427685, 0.130198, 0.270210, 0.253992, -0.000000, 0.000000, -0.319813, 0.355549, 0.044166, -0.216897, 0.000000, 0.000000, -0.000000, 0.000049, -0.537939, -0.000000, -0.226845, -0.000000, -0.016310, -0.107580, -0.000000, -0.414128, -0.282655, -0.000000, -0.000000, -0.000000, -0.000000, 0.000000, -0.000000, 0.000000, 0.000000, 0.000000, 0.000000, 0.000000, -0.000000, -0.000000, -0.000000, -0.000000, 0.000000, -0.000000, -0.000000, 0.000000, 0.000000, -0.000000, -0.000000, -0.000000, 0.000000, 0.000000, 0.000000, -0.000000, 0.000000, 0.000000, 0.000000, -0.000000, -0.000000, 0.000000, 0.000000, 0.000000, 0.000000, -0.000000, -0.000000, 0.000000, 0.000000, 0.000000, -0.000000, -0.000000, 0.000000, -0.000000, -0.000000, 0.000000, 0.000000, 0.000000, -0.000000, 0.000000, 0.000000, -0.000000, -0.000000, 0.000000, 0.000000, -0.000000, -0.000000, 0.000000, -0.000000, 0.000000, 0.000000, -0.000000, -0.000000, -0.000000, -0.000000, -0.000000, -0.000000, -0.000000, 0.000000, 0.000000, -0.000000, 0.000000, -0.000000, -0.000000, 0.000000, -0.000000, 0.000000, 0.000000, -0.000000, -0.000000, -0.000000, 0.000000, -0.000000, -0.000000, 0.000000, -0.000000, 0.000000, -0.000000, -0.000000, 0.000000, 0.000000, 0.000000, -0.000000, 0.000000, -0.000000, -0.000000, 0.000000, -0.000000, 0.000000, -0.000000, -0.000000, 0.000000, -0.000000, 0.000000, 0.000000, -0.000000, -0.000000, 0.000000, 0.000000, -0.000000, 0.000000, -0.000000, 0.000000, 0.000000, 0.000000, 0.000000, 0.000000, 0.000000, -0.000000, -0.000000, -0.000000, -0.000000, 0.000000, -0.000000, 0.000000, -0.000000, 0.000000, 0.000000, -0.130720, -0.225311, -0.200127, -0.239526, -0.637229, -0.917909, -2.216339, 0.304304, -0.105082, -2.064767, 1.668802, -0.112357, 0.460343, 0.794697, -1.493531, 0.335363, -0.623807, 0.526810, -0.065804, 1.167209, -0.000000, -0.000000, 0.295496, -0.047681, -0.102303, 0.377364, 0.000000, -0.061993, 0.000000, -0.157630, 0.000000, 0.000000, 0.000000, 1.473926, 0.530403, 0.000000, 0.609262, 0.630215, 0.134481, 0.747421, 0.981011, -0.256855, 0.517151, -1.326482, 0.000000, 0.689091, 1.003252, -2.156734, -0.141105, -0.425789, -0.000000, 0.000000, -0.000000, -0.070763, 0.010076, 0.000000, 0.222852, -0.000000, 0.849598, -0.594200, -0.000000, 0.740452, 0.387452, 0.000000, -0.583641, -0.914718, 0.178175, -0.727480, -1.038890, 0.642859, -1.491754, -0.254493, 0.336090, -1.422481, 1.009799, -0.133698, 0.221106, -0.050017, -1.319245, 0.540589, -0.360217, 0.448705, -0.391394, 0.591860, -0.000000, 0.000000, -1.580171, -0.206600, -2.296392, 0.179627, -0.000000, -0.550338, 0.000000, 0.068571, -0.000000, 0.000000, 0.000000, 1.656054, 0.030605, 0.000000, 0.442181, -0.073243, -0.433485, 0.624840, 1.218601, -1.431891, -0.128786, -0.608556, -0.000000, 0.699345, 1.349042, -0.285992, -0.040626, -1.511950, -0.000000, 0.000000, -0.000000, 0.782441, -0.370035, -0.000000, -0.210539, 0.000000, 0.082045, -0.673923, -0.000000, 0.619935, 0.621948, -0.000000, 0.228653, 0.213553, 0.392822, -0.065454, 0.519090, 0.246937, 0.397580, -0.009041, -0.203550, 0.282612, 0.122405, -0.126980, -0.013181, -0.049358, 0.175815, 0.212799, 0.941090, -0.364060, -0.000000, 0.376389, -0.000000, 0.000000, 0.073126, 0.414731, 0.201900, -0.504936, -0.000000, 0.164810, -0.000000, -0.316096, -0.000000, -0.000000, 0.000000, 0.025925, -0.645616, 0.000000, 0.319335, 0.267560, -0.077600, 0.463291, -0.459536, -0.140250, -0.178786, -0.134900, 0.000000, 0.393151, -0.054925, 0.021458, 0.025335, 0.126013, -0.000000, 0.000000, -0.000000, -2.101407, -0.091059, 0.000000, 0.222989, 0.000000, 0.746555, -0.185706, -0.000000, 0.793891, 0.739316, -0.000000, -0.606141, -0.809243, 0.168094, -0.039849, 0.104095, -0.059767, 0.479590, -0.611772, -0.000000, -0.483031, -1.425706, 0.000000, -0.036638, 0.493239, 0.500235, -3.607015, -0.742069, -0.138524, 0.000000, 0.000000, -0.000000, -0.000000, -0.937051, 0.019807, -0.422732, -0.244933, -0.000000, -0.022731, 0.000000, -0.562803, -0.000000, 0.000000, 0.000000, -7.005127, -0.687841, 0.000000, 0.089089, -0.074886, -0.286939, -0.191254, 0.984009, -0.314362, -0.330951, -0.084262, -0.000000, -0.211317, 0.791274, 0.400778, -0.559652, 0.006434, -0.000000, 0.000000, -0.000000, 0.000000, 0.762559, 0.000000, -0.254413, -0.000000, -0.352569, -0.585101, -0.000000, 0.810044, 0.175723, -0.000000, -2.302194, -0.012252, -0.082102, 0.470009, 0.841411, -5.177922, 0.431329, -0.354336, -2.887424, 0.294540, -0.896535, -0.000000, -0.039212, -0.014563, 0.172795, -0.496942, 0.569258, -2.991935, -0.010598, 0.009757, -0.000000, 0.000000, -0.166479, 0.116530, 0.223063, -0.358899, 0.000000, 0.839879, -0.000000, 0.462927, 0.000000, -0.000000, 0.000000, -0.557059, -0.063957, 0.000000, 1.265461, 0.176401, 0.219025, -0.188762, -0.241489, -0.006045, -1.784735, -0.389590, -0.000000, -0.266782, 0.426228, 0.000000, -0.025954, -0.084363, 0.000000, -0.000000, 0.000000, -3.531268, 0.130014, -0.000000, 0.177843, 0.000000, -0.179297, 0.363438, 0.000000, 0.877168, -0.558498, 0.000000, 0.674018, 0.431046, 0.860436, 0.699701, 0.560986, 0.398867, 0.839454, -0.678418, -0.595291, 0.418975, 1.759644, 1.301182, -0.000002, 0.163820, -2.286113, -1.391410, -0.303346, -0.818194, 0.479410, -0.357628, -0.000000, -0.000000, 0.385511, 0.502750, 0.347663, -0.675225, 0.000000, -1.965440, -0.000000, -1.850047, -0.000000, -0.000000, 0.000000, -0.509754, 0.184941, -0.000000, -0.577713, -0.070083, 0.343783, -0.980647, 0.597780, 1.045378, -0.612278, 0.669850, -0.000000, 0.513355, -0.452657, -1.277222, 0.403944, -0.165835, -0.000000, -0.000000, 0.000000, 1.339360, 1.408950, 0.000000, 0.241830, -0.000000, 0.174820, -0.097179, -0.000000, 0.315795, 0.031951, -0.000000, -1.092163, -1.525347, 0.051754, -0.041410, 0.146779, -0.267206, -0.111178, -0.579368, 0.000000, 0.657784, -1.559746, 0.000000, -0.030968, 0.395356, 0.144581, -2.297776, -0.486490, -0.619576, -0.023607, -0.000000, -0.000000, -0.000000, -0.405346, -0.052460, -0.060689, -0.306317, -0.000000, 0.515781, -0.000000, -0.059200, 0.000000, 0.000000, 0.000000, -0.596468, -0.390736, 0.000000, 0.700068, 0.182336, 0.246619, -0.498710, -1.108087, -0.163154, -0.513720, -1.408961, -0.000000, -0.607875, 1.135715, 0.000000, -0.055130, 0.480107, -0.000000, 0.000000, 0.000000, -0.000000, -0.329729, -0.000000, 0.013262, 0.000000, 0.505651, 0.376027, -0.000000, 1.181886, 0.030745, -0.000000, 0.520549, -0.002174, -0.067321, 0.186062, -1.796256, -0.337708, 0.075923, -0.000000, -0.000000, -1.015530, 0.000000, -1.771793, 0.366583, -0.050145, 0.000754, -0.000000, 0.538273, -0.000000, 0.039824, -0.050553, 0.000000, -0.000000, 0.057727, 0.523653, 0.088107, -0.000000, 0.000000, -1.188247, 0.000000, -0.000000, -0.000000, 0.000000, -0.000000, -0.000000, -0.000000, -0.000000, -0.000000, -0.005221, -0.021638, -0.807147, -0.093284, 0.019839, 0.000000, -0.027503, -0.000000, -0.887584, 0.003353, 0.407243, 1.874955, 0.000000, -0.000000, -0.000000, 0.000000, -0.299875, 0.032738, 0.000000, -0.066129, -0.000000, -0.023695, 0.080368, -0.000000, -0.615651, 0.037920, -0.000000, -0.000000, -0.000000, -0.000000, 0.000000, 0.000000, -0.000000, 0.000000, 0.000000, -0.000000, 0.000000, -0.000000, 0.000000, 0.000000, -0.000000, 0.000000, -0.000000, -0.000000, -0.000000, -0.000000, -0.000000, 0.000000, 0.000000, 0.000000, 0.000000, 0.000000, -0.000000, 0.000000, 0.000000, -0.000000, -0.000000, 0.000000, -0.000000, -0.000000, -0.000000, -0.000000, 0.000000, -0.000000, 0.000000, -0.000000, 0.000000, -0.000000, 0.000000, -0.000000, -0.000000, 0.000000, 0.000000, -0.000000, 0.000000, 0.000000, -0.000000, -0.000000, 0.000000, -0.000000, -0.000000, 0.000000, -0.000000, -0.000000, -0.000000, 0.000000, -0.000000, 0.000000, -0.000000, -0.000000, 0.000000, -0.000000, -0.000000, 0.000000, 0.000000, -0.000000, -0.000000, 0.000000, 0.000000, 0.000000, -0.000000, -0.000000, -0.000000, 0.000000, -0.000000, 0.000000, -0.000000, 0.000000, 0.000000, 0.000000, -0.000000, -0.000000, -0.000000, -0.000000, -0.000000, 0.000000, -0.000000, -0.000000, -0.000000, 0.000000, 0.000000, -0.000000, -0.000000, 0.000000, 0.000000, -0.000000, 0.000000, -0.000000, -0.000000, -0.000000, -0.000000, -0.000000, 0.000000, -0.000000, 0.000000, -0.000000, -0.000000, 0.000000, -0.000000, -0.000000, -0.000000, -0.000000, 0.000000, 0.000000, 0.000000, -0.000000, 0.000000, 0.000000, -0.000000, -0.000000, -0.000000, -0.000000, 0.000000, -0.000000, -0.000000, -0.492038, -0.281608, -0.014976, 0.436219, -0.169844, -0.730598, 0.926184, 0.966715, -0.486866, -1.188034, -0.445878, 0.128730, -0.082791, -0.594194, -0.713315, -0.973701, 0.187708, 0.430228, -0.998929, 0.037601, -0.000000, 0.000000, -0.468239, -0.378492, 0.190223, -0.724767, 0.000000, 0.206983, 0.000000, -0.009279, 0.000000, -0.000000, -0.000000, 0.011776, -0.276062, 0.000000, 0.230667, -0.102164, -0.037698, -0.380486, -0.445807, -1.848453, -1.683859, -0.204796, -0.000000, 0.457476, -0.279372, -0.640935, -0.025570, -0.860367, 0.000000, -0.000000, 0.000000, -2.680721, 0.453569, -0.000000, -0.204612, 0.000000, -0.039571, 0.313882, -0.000000, 0.437864, -0.426682, -0.000000, 0.000000, -0.000000, 0.000000, 0.000000, -0.000000, -0.000000, 0.000000, 0.000000, 0.000000, 0.000000, -0.000000, -0.000000, -0.000000, 0.000000, -0.000000, 0.000000, -0.000000, -0.000000, 0.000000, -0.000000, -0.000000, 0.000000, 0.000000, 0.000000, -0.000000, 0.000000, -0.000000, 0.000000, -0.000000, 0.000000, -0.000000, 0.000000, -0.000000, 0.000000, 0.000000, -0.000000, 0.000000, -0.000000, 0.000000, -0.000000, -0.000000, 0.000000, -0.000000, -0.000000, -0.000000, 0.000000, 0.000000, 0.000000, 0.000000, 0.000000, -0.000000, -0.000000, 0.000000, -0.000000, -0.000000, -0.000000, 0.000000, -0.000000, -0.000000, 0.000000, -0.000000, -0.000000, 0.000000, 0.000000, -0.568217, 0.707179, -0.676957, 0.300795, 0.048384, -1.354917, 0.585373, -1.149087, -0.063513, -0.442055, -0.117916, -1.016351, -0.305439, -0.052401, -0.973834, 0.129393, -1.542189, -0.416312, -0.585289, -0.645850, 0.000000, -0.000000, -0.505208, 0.447584, -0.064502, 0.000000, 0.000000, -0.695938, -0.000000, -0.332181, 0.000000, 0.000000, -0.000000, 0.695070, -0.674086, 0.000000, -0.642069, 0.091710, 0.241554, 1.256689, -0.051126, 0.768489, 0.439103, 0.493328, 0.000000, -1.045620, -0.003539, 0.261555, -0.997481, 0.684346, -0.000000, -0.000000, -0.000000, -0.415583, -0.134911, -0.000000, -0.320381, -0.000000, 0.040906, -0.254943, 0.000000, -0.411242, 0.059114, -0.000000, -0.000000, 0.000000, -0.000000, 0.000000, -0.000000, 0.000000, -0.000000, -0.000000, -0.000000, 0.000000, 0.000000, 0.000000, 0.000000, 0.000000, -0.000000, -0.000000, -0.000000, -0.000000, 0.000000, -0.000000, -0.000000, -0.000000, -0.000000, -0.000000, -0.000000, -0.000000, 0.000000, 0.000000, 0.000000, -0.000000, -0.000000, -0.000000, -0.000000, -0.000000, 0.000000, -0.000000, -0.000000, 0.000000, -0.000000, 0.000000, -0.000000, 0.000000, 0.000000, -0.000000, 0.000000, 0.000000, -0.000000, 0.000000, 0.000000, -0.000000, 0.000000, -0.000000, -0.000000, -0.000000, -0.000000, 0.000000, -0.000000, 0.000000, 0.000000, -0.000000, -0.000000, 0.000000, -0.000000, 0.000000, 0.000000, 0.000000, 0.000000, -0.112335, 0.000000, -0.000000, 0.328570, 0.000000, 0.000000, -0.365793, 1.051235, -0.000000, -0.010481, 0.441287, -1.133978, 0.000000, -0.162079, 0.000000, 0.000000, -0.000000, -0.000000, -0.000000, -0.000000, 0.271377, -0.798315, -0.000000, 0.000000, -0.111481, 0.000000, 0.000000, -0.000000, -0.000000, -0.000000, 0.000000, -0.002865, 0.000000, -0.197654, -0.033041, -0.000000, -0.000000, 0.302131, -0.058236, -0.297289, -0.217131, -0.000000, -0.000000, -0.051745, 0.000000, 0.000000, -0.268232, -0.000000, 0.000000, 0.000000, -0.000000, -0.000515, -0.000000, 0.000000, 0.000000, -0.000000, 0.053648, -0.000000, 0.714748, -0.000000, -0.000000, 0.329528, -0.113943, -0.400897, -0.257013, -0.646303, -0.392051, -2.540844, 0.557472, -0.143273, -1.596493, 1.260555, -1.022888, 0.550994, 0.763052, -1.217654, 0.238472, -0.563264, 0.607103, 0.001447, 1.074859, -0.000000, -0.000000, 0.599300, -0.379254, -0.115867, 0.064334, -0.000000, -0.174917, -0.000000, 0.242658, -0.000000, -0.000000, 0.000000, 1.400588, 0.420921, -0.000000, 0.510644, 0.619812, -0.101647, 0.721072, 0.807018, 0.268523, 0.482771, -1.131844, -0.000000, 0.423587, 0.873659, -2.521907, -0.663317, -0.573629, -0.000000, -0.000000, 0.000000, 0.028201, -0.275015, 0.000000, -0.012574, -0.000000, 0.767337, -0.721658, 0.000000, 0.419614, 0.563346, -0.000000, -2.669306, -0.567875, -0.040666, -0.438958, 0.367106, -0.879977, -0.025298, -0.270353, 0.000000, -0.103420, -3.389842, 0.000000, -0.010671, 0.664143, 0.071862, -0.429460, -1.012064, -0.489701, -0.021000, 0.000000, -0.000000, -0.000000, -0.277792, -0.522500, 0.331012, -0.026239, -0.000000, -0.827703, -0.000000, -0.044081, -0.000000, 0.000000, -0.000000, -0.216610, -0.252585, -0.000000, 0.198145, -1.232802, 0.238903, -0.227971, 0.265183, -0.014692, -0.171717, -0.947677, -0.000000, 0.270552, 0.943554, -0.135051, -0.093873, 0.487502, 0.000000, -0.000000, -0.000000, -0.000000, -0.407177, 0.000000, -0.249352, -0.000000, 0.354708, 0.125259, -0.000000, 0.231982, -0.016044, -0.000000, 0.562634, -0.310048, -0.344736, -0.071869, 0.068578, 0.314292, -0.260022, 0.000000, -0.103256, 0.297935, -0.914991, -0.004145, 0.089831, -0.363275, 0.196840, -0.907149, 0.072908, -0.000000, 0.316069, 0.017187, -0.000000, -0.000000, -0.208667, 0.284064, 0.003086, -0.795722, -0.000000, -0.332286, 0.000000, -0.343371, -0.000000, 0.000000, -0.000000, -0.308976, 0.000021, -0.000000, -0.000000, -0.048946, 0.275047, -0.074199, -1.826727, 0.051519, -0.000000, -0.053287, -0.000000, -0.448941, -0.026614, -0.130728, 0.567488, 0.003155, -0.000000, 0.000000, 0.000000, -0.199672, -0.926535, -0.000000, -0.025309, -0.000000, 0.006587, 0.078273, -0.000000, -0.040835, 0.155094, 0.000000, 0.423428, -0.427995, 0.013922, 0.084075, -0.259177, -0.652608, -0.974101, -1.063573, -0.118292, 0.348633, -2.797460, -0.233365, -0.191230, -0.254024, -0.092157, -1.427584, 0.261924, -0.970985, 0.901816, 0.479987, -0.000000, 0.000000, 0.288251, 0.043203, 0.020891, 0.112313, -0.000000, -0.905555, 0.000000, -0.227651, -0.000000, -0.000000, 0.000000, -1.539546, -0.097475, -0.000000, -0.038002, 0.033002, 0.035563, -0.143531, -0.284954, -0.319621, -0.001429, -0.193619, 0.000000, -0.568086, -0.062833, -0.244212, 0.896486, -0.348836, -0.000000, -0.000000, 0.000000, 0.157335, -0.506260, 0.000000, -0.105223, 0.000000, 0.197580, -0.086799, 0.000000, -1.688606, 0.147673, -0.000000, 0.247643, -0.000000, -0.045445, -0.000000, -0.026685, -0.000001, -0.020154, -0.000000, -0.000000, -0.036447, -0.000000, -0.000000, -0.000829, -0.000000, 0.000000, -0.000000, 0.000000, -0.000000, -0.020849, -0.000000, 0.000000, -0.000000, -0.029044, 0.000000, 0.101904, -0.000000, 0.000000, 0.002615, -0.000000, 0.000000, -0.000000, 0.000000, 0.000000, -0.000000, 0.000000, -0.000000, -0.000000, -0.000000, -0.014260, -0.000000, -0.000000, -0.046593, -0.000000, 0.225478, 0.000000, -0.000000, -0.000000, 0.000000, 0.141959, -0.000000, 0.000000, -0.000000, 0.000000, 0.007404, -0.049399, -0.000000, 0.000707, -0.000000, 0.000000, -0.000000, -0.000000, 0.000006, 0.016832, 0.000000, -0.544217, -0.286871, 0.204882, -0.478190, -0.368161, -0.196208, -0.088467, -1.060787, 0.000000, 0.482791, -1.789424, -0.000000, -0.008444, 0.530075, -0.197733, -0.037112, -1.156511, -0.431782, -0.021641, 0.000000, -0.000000, -0.000000, -0.472106, -0.299660, 0.313033, 0.296478, -0.000000, -0.565724, -0.000000, -0.060857, -0.000000, 0.000000, 0.000000, -1.458994, 0.201989, -0.000000, 0.469382, -0.272057, 0.164771, -0.488509, -1.524383, -0.036475, 0.120815, -0.740360, -0.000000, 0.269258, 0.627436, 0.103302, 0.070281, 0.818018, -0.000000, 0.000000, -0.000000, -0.000000, -0.795958, -0.000000, -0.137485, 0.000000, 0.508479, 0.050914, -0.000000, 1.042936, 0.604460, -0.000000, 0.049479, -0.642143, -0.083898, -0.683797, 0.114050, 0.060608, -1.086668, -1.108779, -0.933041, -0.454031, 0.000554, 0.318272, -0.006540, -0.086364, -0.013854, -0.771358, 0.011206, -0.676459, 0.013222, -0.089505, -0.000000, 0.000000, 0.014291, -0.370836, 0.006948, -0.159585, -0.000000, 0.133140, -0.000000, 0.034821, -0.000000, -0.000000, -0.000000, 0.175054, -1.401779, -0.000000, -0.072742, -0.047591, -1.646810, -0.290331, 0.104860, 0.054005, -1.149359, 0.007753, -0.000000, -0.033081, -0.236332, -0.046833, -0.017169, -1.113907, -0.000000, 0.000000, -0.000000, -0.310174, -0.165994, 0.000000, -0.967347, -0.000000, -0.080684, 0.118816, -0.000000, 0.228213, -0.557470, -0.000000, -0.000000, -0.000000, -0.000000, 0.000000, 0.000000, -0.000000, 0.000000, 0.000000, -0.000000, -0.000000, 0.000000, -0.000000, -0.000000, 0.000000, -0.000000, 0.000000, 0.000000, -0.000000, -0.000000, -0.000000, -0.000000, 0.000000, 0.000000, -0.000000, -0.000000, 0.000000, 0.000000, -0.000000, 0.000000, -0.000000, -0.000000, -0.000000, 0.000000, -0.000000, -0.000000, -0.000000, -0.000000, -0.000000, 0.000000, 0.000000, 0.000000, -0.000000, -0.000000, -0.000000, 0.000000, -0.000000, -0.000000, -0.000000, 0.000000, 0.000000, 0.000000, -0.000000, -0.000000, -0.000000, -0.000000, -0.000000, -0.000000, 0.000000, 0.000000, -0.000000, -0.000000, 0.000000, 0.000000, 0.000000, -0.775311, -0.000000, -0.602025, 0.096265, 0.013910, -0.086906, 0.740238, -0.000000, -0.174516, -0.533055, -2.887793, 0.065526, 0.292668, 0.575859, 0.035930, -0.011994, 1.081892, -0.000000, -0.259445, -0.025821, -0.000000, 0.000000, -0.140774, 0.183039, 1.324982, 0.188394, 0.000000, 0.034011, -0.000000, -0.000000, -0.000000, -0.000000, -0.000000, -0.000000, -0.080803, 0.000000, -0.376076, -0.349294, -0.022048, 0.000000, 0.521989, 0.129196, -0.000000, -0.521004, -0.000000, -0.000000, 0.342965, 0.406374, -0.352115, 0.686812, 0.000000, 0.000000, -0.000000, -1.112993, -0.109183, 0.000000, -0.037636, 0.000000, 0.000000, 0.195543, 0.000000, 1.197361, -0.021388, 0.000000, 0.296585, 1.042635, -0.000838, -0.265940, -1.214604, 0.057138, 0.701337, 0.184176, 0.154286, -0.938997, 0.966329, -0.000000, -0.032058, -0.275931, -0.083400, 0.154308, -0.300754, 0.425538, 0.000000, -0.113091, 0.000000, -0.000000, 0.045430, 0.198767, -0.665535, 0.000000, -0.000000, 0.219377, 0.000000, -0.006170, -0.000000, 0.000000, -0.000000, 0.618733, 0.339418, -0.000000, 0.106604, 0.058082, -0.329916, -0.309123, 0.253441, -0.148589, 0.390805, 1.454515, -0.000000, -0.000000, -1.193145, -0.000000, -0.000000, 0.663538, 0.000000, 0.000000, -0.000000, 0.000000, 0.163727, -0.000000, 0.059959, -0.000000, -0.000000, 0.001238, 0.000000, 0.159177, 0.000000, -0.000000, -0.000000, 0.000000, 0.000000, 0.000000, -0.000000, 0.000000, -0.000000, 0.000000, -0.000000, -0.000000, -0.000000, -0.000000, -0.000000, 0.000000, 0.000000, -0.000000, 0.000000, -0.000000, -0.000000, 0.000000, -0.000000, 0.000000, 0.000000, -0.000000, 0.000000, -0.000000, -0.000000, -0.000000, 0.000000, -0.000000, -0.000000, 0.000000, -0.000000, -0.000000, 0.000000, -0.000000, 0.000000, -0.000000, 0.000000, 0.000000, 0.000000, -0.000000, -0.000000, -0.000000, -0.000000, -0.000000, -0.000000, -0.000000, -0.000000, 0.000000, -0.000000, -0.000000, 0.000000, -0.000000, 0.000000, 0.000000, 0.000000, -0.000000, -0.000000, -0.000000, -0.000000, -0.000000, -0.000000, -0.000000, 0.381962, -0.000000, 0.029569, -0.000000, 0.044441, -0.154256, 0.045859, -0.000000, -0.000000, -0.093703, 0.000000, 0.021796, -0.033172, 0.058320, 0.000030, -0.000000, 0.139326, 0.000000, -0.005401, -0.003236, -0.000000, -0.000000, 0.166759, -0.020625, 0.054014, 0.000000, -0.000000, -0.022027, 0.000000, -0.008342, -0.000000, 0.000000, 0.000000, -0.000000, -0.000000, -0.000000, -0.000000, 0.043641, 0.000000, 0.000000, 0.079429, 0.222401, -0.000000, 0.471087, -0.000000, 0.333592, 0.028304, 0.110991, -0.019823, -0.000000, -0.000000, -0.000000, 0.000000, 0.015795, 0.025169, -0.000000, -0.035546, -0.000000, -0.089768, 0.178910, -0.000000, 0.031997, 0.028422, -0.000000, 0.003920, -1.170340, -0.278454, -0.038042, 0.624754, -0.221005, 0.364071, -0.269915, 0.000000, 0.562043, -0.089697, 0.000000, -0.012678, 0.456890, 0.188027, -1.018628, -0.172931, -0.760567, 0.000000, -0.000000, -0.000000, 0.000000, -0.117646, 0.203481, 0.171166, 0.377035, -0.000000, -0.219972, -0.000000, 0.207200, 0.000000, 0.000000, -0.000000, -0.468797, 0.309897, -0.000000, 0.207376, 0.231775, -0.158967, -0.314263, 1.265712, 0.049575, -0.183802, -1.148710, 0.000000, 0.573251, 0.344585, 0.000000, 0.742319, 0.267655, -0.000000, 0.000000, -0.000000, 0.000000, 0.528500, -0.000000, 0.160784, 0.000000, 1.038348, 0.202960, 0.000000, 1.238773, 0.342611, -0.000000, 0.639187, -0.000000, -0.911788, -0.000644, -1.950704, -0.037130, -0.002388, 0.000000, -0.000096, -0.485338, 0.000000, 0.050717, 0.659613, 0.177589, 0.072201, -0.000000, 0.029105, -0.000000, -0.421185, 0.166810, -0.000000, 0.000000, 0.065603, -0.562548, 0.099191, -0.000482, 0.000000, -0.025660, -0.000000, 0.292994, -0.000000, 0.000000, -0.000000, 0.000000, -0.000000, 0.000000, -0.000000, 0.021660, -0.009559, -0.045097, -0.563360, -0.037659, -0.000000, 1.098690, -0.000000, 0.751213, 0.272457, 0.377595, 0.957408, -0.000000, -0.000000, 0.000000, -0.000000, 0.183161, -0.995096, 0.000000, 0.036183, 0.000000, 0.013874, 0.058766, 0.000000, 0.133041, 0.055781, 0.000000, -0.369362, -0.346223, -0.231670, 0.171052, -0.213282, -0.343613, 0.384697, -0.500089, -0.423680, -0.961051, 0.345467, 0.000000, -0.036585, -0.033006, 0.497759, 0.326878, 0.848961, 0.305198, -0.000000, -1.535755, -0.000000, 0.000000, -0.261038, 0.289017, -0.183749, 0.021579, 0.000000, 0.115178, 0.000000, -2.134822, 0.000000, -0.000000, 0.000000, 0.001510, -0.482802, 0.000000, 0.302077, 0.481107, -0.072324, 0.024568, -0.548395, -0.029844, 0.209525, 0.149600, -0.000000, -1.879503, 0.339691, -0.000000, -0.000007, 0.050372, -0.000000, -0.000000, 0.000000, -0.000000, 0.356404, 0.000000, -0.410790, 0.000000, -0.524262, -0.632721, 0.000000, -0.025999, -0.331262, -0.000000, -0.585178, -0.274130, 0.015970, -0.519875, 0.075031, -0.311911, -0.081786, -0.365965, -0.146647, -0.163454, -0.058855, -0.000000, -0.028377, 0.672727, 0.483715, -0.293701, -0.808110, -0.531444, 0.000000, -2.137799, -0.000000, 0.000000, 0.199249, -0.097577, 0.306446, -0.024152, 0.000000, 0.575996, 0.000000, -0.805089, 0.000000, -0.000000, 0.000000, -0.496639, -0.632757, 0.000000, -0.180742, 0.379856, -0.319507, 0.108299, 0.394587, 0.030975, 0.542891, 0.537990, -0.000000, -0.558048, -0.175702, 0.338045, -0.453463, -0.289826, 0.000000, 0.000000, -0.000000, -0.000000, 0.213894, 0.000000, -0.301231, 0.000000, -0.610157, -0.162190, -0.000000, -0.116960, -1.082595, -0.000000, -1.348586, 0.255894, 0.075694, 0.307328, -0.015772, -0.070113, 0.006600, -0.959501, -0.275637, 0.156457, -0.474062, 0.046735, -0.031491, 0.013688, -0.558672, -0.339047, -0.063628, -0.594143, 0.063515, 0.100079, -0.000000, -0.000000, -0.070495, -0.063741, -0.974969, 0.295809, -0.000000, 0.011095, 0.000000, 0.218900, 0.000000, 0.000000, -0.000000, -0.155239, -0.290788, -0.000000, -0.374466, -0.098278, 0.172904, -0.451812, -0.241717, -0.132374, 0.042493, -0.668498, -0.000000, -0.004674, -0.293666, 0.032076, 0.058767, -0.477713, -0.000000, -0.000000, 0.000000, -0.147149, -0.140904, -0.000000, -0.005689, 0.000000, -0.226155, 0.000518, -0.000000, 0.082810, -0.485581, -0.000000, -1.650223, -0.825079, -0.090920, -0.620431, -0.150902, -0.178942, -0.313294, -0.066749, -0.000000, 0.119120, -0.343561, 0.000000, -0.023539, 0.532185, 0.253338, -0.362912, -1.109863, -0.377928, -0.003119, 0.000000, -0.000000, 0.000000, -0.427740, 0.031902, -0.347296, -0.268782, -0.000000, -1.871067, 0.000000, -0.403579, -0.000000, 0.000000, -0.000000, -0.017573, -0.537898, -0.000000, -0.183602, -0.789781, 0.142061, -0.409247, 0.363646, -0.041299, -0.201569, -0.907982, -0.000000, -0.216756, 0.340849, 0.086560, -0.312172, 0.435067, -0.000000, -0.000000, -0.000000, 0.000000, -0.213557, -0.000000, -0.355376, -0.000000, -0.237093, -0.410644, -0.000000, 0.257967, -0.383869, -0.000000, 1.685789, 0.448669, 0.091018, -0.190483, 0.263950, 0.398353, -2.853834, -0.170835, 0.079314, 0.359943, 0.431678, -1.059832, -0.044261, -0.353052, 0.463784, 0.255389, 1.050795, 0.350432, 0.000000, 1.151951, 0.000000, 0.000000, 0.942760, -0.307352, -0.044865, -0.027160, 0.000000, -0.189155, 0.000000, 0.683592, -0.000000, -0.000000, 0.000000, -0.004691, 0.312020, 0.000000, 0.350406, 0.010951, 0.013225, 0.309557, -0.094910, 0.505005, 0.978995, 0.754977, -0.000000, 0.430750, -0.290500, -6.455833, -0.005736, 0.073764, -0.000000, -0.000000, 0.000000, -0.565601, 0.059707, 0.000000, 0.126106, -0.000000, -0.643787, -0.111375, -0.000000, -0.632559, 0.152968, 0.000000, 0.525641, 0.000000, 0.246948, 0.005705, 0.291120, -0.246483, 0.189574, -0.000000, -0.000000, -0.966863, -0.000000, 0.075853, -0.114159, 0.026772, 0.186109, -0.000000, -0.011898, -0.000000, -0.110100, 0.038566, 0.000000, -0.000000, 0.143427, 0.055866, 0.104059, -0.000000, -0.000000, -0.046420, -0.000000, -0.008490, 0.000000, -0.000000, -0.000000, -0.000000, -0.000000, -0.000000, -0.000000, 0.000114, -0.009263, -0.009806, 0.093164, 0.472404, 0.000000, 0.502876, 0.000000, 0.014270, 0.141656, 0.222929, 0.013907, -0.000000, 0.000000, 0.000000, -0.000000, 0.047751, 0.232974, -0.000000, 0.053587, 0.000000, -0.026027, 0.032069, -0.000000, -0.081455, 0.141886, -0.000000, 0.027811, -0.146357, -0.244530, -0.448394, 0.491742, -0.226432, -0.289759, -0.533327, -0.000000, 0.183332, -1.154826, 0.000000, -0.010719, 0.213729, -0.000636, 0.000000, -0.910985, -0.000000, -0.019297, 0.000000, -0.000000, -0.000000, 0.079619, -0.426033, -0.140023, -0.004728, -0.000000, -0.817267, -0.000000, 0.114800, 0.000000, 0.000000, 0.000000, 0.000000, -0.543141, -0.000000, 0.143216, -0.558343, 0.187065, -0.479002, -0.022772, -0.017786, -0.167153, -0.613116, -0.000000, -0.037265, 0.275982, -0.021808, -0.109350, -0.056489, -0.000000, -0.000000, -0.000000, -0.000000, -0.417792, 0.000000, -0.506147, 0.000000, -0.430259, 0.254584, -0.000000, 0.094627, -0.139175, -0.000000, 0.672304, 0.021858, 0.422582, -0.295530, 0.483354, -0.033277, 0.312084, -0.026153, -0.249551, 0.652939, -0.548165, 0.251338, -0.000499, -0.305061, 0.923173, 0.304584, -0.321782, -0.118715, 0.055096, 0.131414, 0.000000, -0.000000, 0.311819, 0.103669, -0.147679, 0.018343, 0.000000, -0.140318, 0.000000, 0.193321, -0.000000, -0.000000, 0.000000, -0.118394, -0.860769, -0.000000, -0.512938, -0.032195, -0.078773, -0.216484, -0.059305, -0.271894, -0.119248, 0.431803, -0.000000, 0.262724, -0.175766, 0.552930, -0.032424, -0.656122, -0.000000, 0.000000, -0.000000, 0.096393, 0.210455, 0.000000, 0.662200, 0.000000, -0.053389, -0.125779, -0.000000, -0.266756, 0.787847, -0.000000, 0.393817, 0.517832, 0.025756, -0.238969, -0.232303, 0.234533, -0.043083, 0.448159, 0.078339, 0.818340, -0.446294, -1.870348, -0.000328, -0.288116, 0.276902, -0.248174, -0.814111, 0.012668, -2.068452, -0.002315, -0.000000, -0.000000, 0.530248, -0.290630, 0.318617, -0.015184, -0.000000, -0.203340, -0.000000, 0.043190, -0.000000, 0.000000, -0.000000, -0.324699, -0.099675, -0.000000, -0.295067, 0.013464, 0.039329, -0.121003, -0.695048, -0.942028, -2.309667, -0.268411, -0.000000, -0.679046, -0.747483, -0.228905, -0.154928, 0.657769, -0.000000, -0.000000, 0.000000, -1.015565, -0.614872, -0.000000, 0.441780, -0.000000, -0.093996, 0.027380, -0.000000, -0.402684, 0.284128, 0.000000, -0.000000, -0.000000, -0.000000, 0.000000, -0.000000, -0.000000, -0.000000, -0.000000, 0.000000, -0.000000, -0.000000, -0.000000, -0.000000, -0.000000, -0.000000, -0.000000, -0.000000, -0.000000, -0.000000, -0.000000, -0.000000, -0.000000, 0.000000, -0.000000, -0.000000, 0.000000, 0.000000, -0.000000, 0.000000, 0.000000, 0.000000, 0.000000, 0.000000, -0.000000, -0.000000, -0.000000, -0.000000, -0.000000, -0.000000, 0.000000, 0.000000, -0.000000, -0.000000, -0.000000, -0.000000, -0.000000, 0.000000, -0.000000, 0.000000, -0.000000, 0.000000, -0.000000, -0.000000, 0.000000, -0.000000, 0.000000, -0.000000, -0.000000, -0.000000, -0.000000, 0.000000, -0.000000, -0.000000, -0.000000, -0.259526, 0.749840, -0.670797, 0.166754, -0.630589, -0.486486, 0.239569, -0.665555, 0.191054, -0.298724, 0.252566, 0.795678, -0.344440, 0.071584, -0.770376, 0.423717, -1.060257, 0.184852, -0.472364, 0.130257, -0.000000, -0.000000, 0.062320, 0.271480, 0.024433, -1.940025, -0.000000, -1.980704, 0.000000, -0.238696, -0.000000, -0.000000, -0.000000, 0.372110, -0.268578, -0.000000, -0.460873, -0.226121, 0.360470, 1.124141, -4.295157, -0.896199, 0.412216, 0.171901, -0.000000, -0.202585, 0.162842, -0.281417, -0.961057, 0.239649, -0.000000, 0.000000, -0.000000, 0.321843, -0.593534, -0.000000, -1.238034, -0.000000, -0.510857, -0.310738, -0.000000, -0.406472, -0.477851, 0.000000, -0.000000, -0.000000, 0.000000, -0.000000, -0.000000, -0.000000, 0.000000, 0.000000, 0.000000, -0.000000, 0.000000, 0.000000, -0.000000, -0.000000, -0.000000, 0.000000, 0.000000, 0.000000, -0.000000, 0.000000, 0.000000, -0.000000, -0.000000, -0.000000, -0.000000, -0.000000, -0.000000, -0.000000, -0.000000, 0.000000, -0.000000, 0.000000, 0.000000, 0.000000, -0.000000, 0.000000, -0.000000, -0.000000, -0.000000, 0.000000, 0.000000, -0.000000, -0.000000, 0.000000, -0.000000, -0.000000, 0.000000, -0.000000, 0.000000, 0.000000, 0.000000, -0.000000, -0.000000, -0.000000, -0.000000, -0.000000, 0.000000, 0.000000, -0.000000, 0.000000, -0.000000, 0.000000, 0.000000, -0.000000, -0.909312, 0.438878, -0.128629, 0.305040, -0.223437, -1.286056, 0.116358, -0.899943, -0.142917, 0.688864, -0.699510, -0.799210, -0.507020, -0.743927, -0.496034, 0.405125, -0.396739, -0.458959, -0.759936, -0.265574, 0.000000, -0.000000, -1.609891, 0.166182, -1.076756, -0.014501, -0.000000, -0.386966, 0.000000, 0.041682, -0.000000, 0.000000, -0.000000, -0.307365, -1.512839, -0.000000, -0.412957, -0.153243, 0.196107, 0.804006, -0.303732, 0.302759, -0.097109, -0.819276, 0.000000, -0.390675, -0.693277, 0.406153, -0.749108, 0.464530, -0.000000, 0.000000, -0.000000, 0.078953, -0.505134, -0.000000, 0.124714, 0.000000, -1.914537, 0.484201, -0.000000, -1.062659, -0.279564, 0.000000, -0.527222, -1.328870, 0.082233, -0.004270, -0.139959, 0.161003, -0.462196, -0.574458, 0.000000, -0.183648, -0.692802, 0.000000, -0.017685, 0.816163, -0.112656, -1.721977, -0.010978, -1.265750, -0.024904, -0.000000, 0.000000, 0.000000, -0.319732, 0.284732, 0.276420, 0.270063, -0.000000, 0.059143, -0.000000, 0.115962, -0.000000, -0.000000, -0.000000, 0.039305, -0.184922, 0.000000, 0.218730, 0.440038, -0.133122, -0.642235, -0.120340, -0.010097, -0.212790, -1.208775, 0.000000, 0.148038, 0.563679, 0.000000, 0.283662, 0.276663, 0.000000, 0.000000, -0.000000, 0.000000, -0.520577, -0.000000, -0.307542, -0.000000, 0.982743, 0.262607, 0.000000, 1.289488, 0.448490, -0.000000, 0.167365, 0.105066, 0.439495, 0.055388, 0.252685, 0.067636, 0.084607, 0.007081, -0.014982, -0.432781, -0.019594, 0.040648, 0.000143, 0.053788, -0.037220, -0.024367, 0.012401, -0.004224, 0.069943, 0.060437, -0.000000, -0.000000, 0.268811, 0.051043, 0.328848, -0.000000, -0.000000, -0.014247, -0.000000, 0.047582, -0.000000, -0.000000, -0.000000, 0.003460, 0.001014, -0.000000, -0.033303, -0.024095, 0.063788, 0.027892, 0.121721, 0.113120, 0.016898, 0.471055, 0.000000, 0.048834, -0.000027, -0.070880, -0.033538, 0.001198, -0.000000, -0.000000, -0.000000, -0.050344, 0.563194, 0.000000, 0.023840, 0.000000, -0.005521, -0.042893, -0.000000, 0.056812, 0.120401, -0.000000, -0.049798, 0.000000, 0.000405, 0.003846, 0.012502, -0.263872, 0.000000, -0.000000, 0.000000, -0.026461, 0.000000, -0.000000, -0.025923, 0.005847, -0.000000, -0.000000, 0.072479, -0.000000, -0.047144, 0.000000, -0.000000, -0.000000, 0.282220, -0.051139, -0.000001, 0.000000, -0.000000, 0.047433, 0.000000, 0.000000, -0.000000, 0.000000, 0.000000, -0.000000, -0.000000, -0.000000, -0.000000, -0.024978, -0.000000, -0.017551, 0.000000, 0.014980, -0.000000, -0.000000, -0.000000, -0.239855, 0.000000, 0.059739, 0.142045, -0.000000, -0.000000, -0.000000, -0.000000, 0.018118, -0.000070, 0.000000, -0.000008, 0.000000, -0.035669, 0.133512, -0.000000, -0.015912, -0.000025, 0.000000, 0.000000, 0.000000, -0.000000, -0.000000, -0.000000, -0.000000, 0.000000, 0.000000, -0.000000, -0.000000, 0.000000, -0.000000, 0.000000, 0.000000, 0.000000, 0.000000, 0.000000, 0.000000, 0.000000, -0.000000, -0.000000, 0.000000, -0.000000, -0.000000, -0.000000, 0.000000, 0.000000, -0.000000, 0.000000, -0.000000, -0.000000, -0.000000, 0.000000, -0.000000, -0.000000, -0.000000, 0.000000, 0.000000, 0.000000, 0.000000, 0.000000, -0.000000, -0.000000, -0.000000, 0.000000, -0.000000, -0.000000, -0.000000, -0.000000, -0.000000, 0.000000, -0.000000, -0.000000, -0.000000, 0.000000, 0.000000, -0.000000, -0.000000, 0.000000, 0.000000, 0.000000, 0.000000, -0.000000, 0.000000, -0.956786, -1.063352, 0.102599, -1.195837, -1.184250, -0.088301, -0.650346, 0.651699, 0.236293, -1.168218, 2.031973, -0.724158, 0.959265, 1.635717, -0.714323, 0.884104, -2.512989, 1.130604, -0.472516, 0.492020, 0.000000, -0.000000, -1.586496, -0.034069, -1.985547, -0.028647, -0.000000, -1.101970, -0.000000, -0.187717, -0.000000, -0.000000, -0.000000, 2.151604, 0.050037, -0.000000, 0.079231, 0.567543, -0.549805, 1.476166, 1.674388, 0.096920, 0.093566, -0.523322, 0.000000, 0.348948, 1.830097, -2.801143, -0.129486, -1.470264, -0.000000, -0.000000, 0.000000, 0.378915, -0.945205, -0.000000, -0.248026, 0.000000, 1.058249, -1.144182, 0.000000, 1.120925, 0.495085, 0.000000, -0.000000, 0.000000, -0.000000, 0.000000, -0.000000, -0.000000, 0.000000, 0.000000, 0.000000, 0.000000, -0.000000, -0.000000, -0.000000, -0.000000, -0.000000, -0.000000, 0.000000, 0.000000, -0.000000, -0.000000, 0.000000, -0.000000, 0.000000, -0.000000, 0.000000, -0.000000, 0.000000, 0.000000, 0.000000, 0.000000, -0.000000, 0.000000, 0.000000, 0.000000, 0.000000, 0.000000, -0.000000, 0.000000, -0.000000, -0.000000, 0.000000, -0.000000, 0.000000, -0.000000, 0.000000, 0.000000, 0.000000, -0.000000, 0.000000, -0.000000, -0.000000, 0.000000, -0.000000, -0.000000, -0.000000, -0.000000, -0.000000, 0.000000, -0.000000, -0.000000, -0.000000, -0.000000, -0.000000, -0.000000, 0.000000, 0.000000, 0.000000, 0.000000, -0.000000, 0.000000, -0.000000, 0.000000, 0.000000, 0.000000, 0.000000, 0.000000, -0.000000, 0.000000, -0.000000, 0.000000, -0.000000, 0.000000, -0.000000, 0.000000, -0.000000, -0.000000, -0.000000, -0.000000, -0.000000, 0.000000, 0.000000, -0.000000, -0.000000, -0.000000, -0.000000, 0.000000, -0.000000, -0.000000, 0.000000, 0.000000, -0.000000, 0.000000, 0.000000, 0.000000, -0.000000, -0.000000, -0.000000, -0.000000, -0.000000, 0.000000, 0.000000, -0.000000, 0.000000, 0.000000, -0.000000, 0.000000, 0.000000, -0.000000, -0.000000, 0.000000, -0.000000, 0.000000, -0.000000, 0.000000, 0.000000, -0.000000, 0.000000, -0.000000, 0.166109, -0.269978, -0.410908, -0.075456, -0.379045, 0.391715, -0.354873, -0.087324, -0.487456, -0.404089, -0.195645, 0.360240, 0.288259, -0.258378, -0.001007, 0.200550, 0.298632, -0.395418, 0.488388, -0.283310, 0.000000, 0.000000, 0.048490, 0.718159, 0.082506, -0.000182, -0.000000, -1.002610, 0.000000, 0.490189, 0.000000, -0.000000, -0.000000, 0.074802, -0.204449, -0.000000, 0.046570, 0.090837, -0.095805, -0.495918, -0.119107, 0.059997, -0.180429, 0.883583, -0.000000, 0.673773, 0.121486, -0.206002, -0.001782, 0.088703, -0.000000, 0.000000, -0.000000, 0.773020, 0.571112, -0.000000, -0.020809, -0.000000, 0.248284, 0.313325, 0.000000, -1.107401, 0.042175, 0.000000, -1.608183, -0.467060, 0.804447, -0.216196, -0.118209, -0.116520, 0.203901, -0.351505, -0.163558, 0.033618, 1.159741, 0.023875, 0.673239, 1.233698, -0.441821, -0.355059, -0.830065, -0.461213, -0.371313, 0.781441, -0.000000, 0.000000, -0.815405, 0.477712, -0.769711, 0.089901, 0.000000, -0.078141, 0.000000, 0.130607, -0.000000, -0.000000, 0.000000, -0.589932, 0.004395, 0.000000, 0.094488, 0.228998, 0.047564, 0.370812, 1.603961, 0.086232, -0.027502, 0.003133, -0.000000, -0.116217, 0.108399, -0.389485, -0.105172, -0.354714, 0.000000, -0.000000, -0.000000, -0.527923, -0.143417, -0.000000, 0.000000, -0.000000, -0.020495, -0.027463, -0.000000, -0.160003, 0.000000, 0.000000, -0.000000, 0.000000, 0.000000, 0.000000, 0.000000, -0.000000, -0.000000, -0.000000, -0.000000, 0.000000, 0.000000, -0.000000, -0.000000, 0.000000, 0.000000, -0.000000, -0.000000, -0.000000, 0.000000, -0.000000, -0.000000, 0.000000, 0.000000, -0.000000, -0.000000, 0.000000, 0.000000, -0.000000, -0.000000, 0.000000, 0.000000, -0.000000, 0.000000, 0.000000, -0.000000, 0.000000, 0.000000, -0.000000, 0.000000, 0.000000, -0.000000, 0.000000, 0.000000, 0.000000, 0.000000, -0.000000, -0.000000, 0.000000, 0.000000, 0.000000, -0.000000, 0.000000, 0.000000, -0.000000, -0.000000, -0.000000, 0.000000, 0.000000, -0.000000, -0.000000, -0.000000, -0.000000, 0.000000, 0.000000, 0.127268, -0.371584, 0.047622, -0.188957, 0.080555, -0.113299, -0.218885, 0.030406, 0.000000, 0.168942, -0.193822, -0.000000, -0.010314, -0.341974, -0.257694, -0.366015, 0.146777, -0.000000, -0.011925, -0.000000, -0.000000, -0.000000, -0.047582, -0.088136, -0.290369, -0.040140, 0.000000, 0.207932, -0.000000, 0.578162, -0.000000, -0.000000, -0.000000, 0.125240, -0.091136, 0.000000, 0.017336, -0.009826, -0.005526, 0.125817, -0.746606, 0.033348, -0.138542, -0.179010, -0.000000, -0.914860, -0.655263, -0.000014, -0.103172, -0.293997, -0.000000, 0.000000, 0.000000, -0.025086, -0.108156, -0.000000, -0.646273, 0.000000, -0.288439, 0.081044, -0.000000, 0.219896, -0.831967, -0.000000, -0.000000, -0.000000, -0.000000, -0.000000, -0.000000, 0.000000, -0.000000, 0.000000, 0.000000, 0.000000, -0.000000, -0.000000, 0.000000, -0.000000, -0.000000, 0.000000, 0.000000, 0.000000, -0.000000, -0.000000, -0.000000, -0.000000, -0.000000, 0.000000, -0.000000, -0.000000, 0.000000, 0.000000, -0.000000, -0.000000, -0.000000, 0.000000, -0.000000, 0.000000, 0.000000, -0.000000, 0.000000, 0.000000, -0.000000, -0.000000, -0.000000, -0.000000, -0.000000, -0.000000, -0.000000, -0.000000, 0.000000, -0.000000, 0.000000, 0.000000, 0.000000, -0.000000, 0.000000, 0.000000, -0.000000, 0.000000, -0.000000, 0.000000, -0.000000, -0.000000, -0.000000, 0.000000, 0.000000, -0.000000, 0.000000, 0.000000, -0.000000, -0.000000, -0.000000, -0.000000, 0.000000, 0.000000, 0.000000, -0.000000, -0.000000, -0.000000, -0.000000, -0.000000, -0.000000, -0.000000, 0.000000, 0.000000, -0.000000, -0.000000, -0.000000, -0.000000, 0.000000, 0.000000, -0.000000, 0.000000, -0.000000, -0.000000, -0.000000, 0.000000, -0.000000, -0.000000, -0.000000, -0.000000, 0.000000, -0.000000, -0.000000, 0.000000, 0.000000, -0.000000, 0.000000, -0.000000, -0.000000, 0.000000, 0.000000, 0.000000, 0.000000, 0.000000, 0.000000, -0.000000, 0.000000, -0.000000, -0.000000, 0.000000, -0.000000, -0.000000, 0.000000, -0.000000, -0.000000, 0.000000, -0.000000, -0.000000, 0.000000, -0.000000, 0.318166, 0.000000, -0.149951, -0.002607, -0.049548, -0.013937, -0.027343, -0.000000, -0.000000, -0.271237, -0.000000, -0.000085, -0.018746, 0.025886, 0.090228, -0.000000, 0.010229, 0.000000, 0.055703, -0.066473, 0.000000, -0.000000, -0.111175, -0.082058, 0.126297, 0.000000, 0.000000, 0.020693, -0.000000, 0.000000, -0.000000, 0.000000, -0.000000, -0.000000, 0.000000, 0.000000, -0.000000, -0.000000, -0.054032, 0.000000, 0.025861, 0.120572, 0.000000, 0.368320, 0.000000, 0.048853, -0.019816, 0.029565, 0.128267, -0.000000, 0.000000, -0.000000, 0.000000, 0.049019, -0.152432, -0.000000, 0.036544, -0.000000, -0.000000, -0.007663, -0.000000, -0.015076, 0.053069, 0.000000, 0.022308, -0.175966, -0.045491, -0.045411, 0.076795, -0.198649, 0.157071, -0.674109, -0.066507, 0.939827, -0.000000, -0.002175, -0.039072, -0.600790, 0.230940, -1.115657, -0.389104, -0.281324, 0.235779, -0.025481, 0.000000, -0.000000, -1.427250, -0.112637, -0.319734, 0.273880, 0.000000, -0.182955, -0.000000, 0.397624, -0.000000, -0.000000, -0.000000, -0.522472, -0.058091, -0.000000, 0.036621, 0.027383, 0.139207, -0.000000, 0.071846, -0.285533, -0.000000, 0.162973, -0.000000, -0.361170, -0.051559, 0.094530, 0.182708, -0.030815, 0.000000, -0.000000, -0.000000, -0.912360, -0.412301, -0.000000, -0.116768, -0.000000, -0.144870, 0.195806, -0.000000, -0.012526, 0.045284, -0.000000, -0.000000, 0.000000, 0.000000, -0.000000, -0.000000, -0.000000, 0.000000, 0.000000, -0.000000, -0.000000, 0.000000, -0.000000, -0.000000, -0.000000, -0.000000, -0.000000, -0.000000, 0.000000, -0.000000, -0.000000, 0.000000, -0.000000, -0.000000, -0.000000, 0.000000, -0.000000, 0.000000, 0.000000, 0.000000, -0.000000, 0.000000, 0.000000, 0.000000, -0.000000, 0.000000, 0.000000, -0.000000, -0.000000, -0.000000, 0.000000, 0.000000, 0.000000, -0.000000, 0.000000, 0.000000, -0.000000, 0.000000, -0.000000, -0.000000, 0.000000, -0.000000, -0.000000, 0.000000, -0.000000, -0.000000, -0.000000, 0.000000, -0.000000, 0.000000, -0.000000, -0.000000, -0.000000, -0.000000, -0.000000, -0.000000, -0.000000, -0.000000, 0.000000, -0.000000, 0.000000, -0.000000, 0.000000, 0.000000, 0.000000, 0.000000, -0.000000, 0.000000, 0.000000, -0.000000, 0.000000, 0.000000, 0.000000, 0.000000, -0.000000, -0.000000, -0.000000, -0.000000, -0.000000, 0.000000, 0.000000, 0.000000, 0.000000, 0.000000, -0.000000, 0.000000, 0.000000, 0.000000, -0.000000, 0.000000, 0.000000, -0.000000, 0.000000, 0.000000, -0.000000, 0.000000, -0.000000, 0.000000, 0.000000, 0.000000, 0.000000, 0.000000, 0.000000, 0.000000, -0.000000, -0.000000, -0.000000, 0.000000, 0.000000, -0.000000, -0.000000, -0.000000, -0.000000, 0.000000, -0.000000, -0.000000, 0.000000, 0.000000, -0.000000, 0.284957, 0.582512, 0.734007, 0.250275, 0.399219, 0.592191, 0.818093, -0.206527, -0.145275, -0.680373, -0.297164, 0.014506, -0.000000, 0.057294, -0.682597, -0.230593, -0.108331, -0.138290, 0.004627, 0.043781, -0.000000, -0.000000, -0.024950, 0.098256, 0.556679, -0.138539, -0.000000, -0.045854, -0.000000, -0.086417, -0.000000, 0.000000, -0.000000, -0.044257, -0.175227, 0.000000, -0.071335, 0.000460, 0.012389, -0.150052, 0.166324, -0.092436, -0.026283, -0.084181, 0.000000, 0.170570, -0.146021, 0.055295, 0.046257, -0.155189, -0.000000, 0.000000, -0.000000, -0.101219, 0.812671, -0.000000, 0.020021, 0.000000, 0.035218, -0.119296, -0.000000, 0.042592, 0.207675, -0.000000, 0.000000, -1.204853, -0.025251, 0.041468, -0.101793, -0.000000, 0.486912, 0.034933, 0.000000, -0.663128, 1.304727, -0.000000, -0.020584, 0.322567, -0.898145, -0.000002, -0.545923, 0.000000, -0.000000, -0.000000, -0.000000, -0.000000, -0.040866, 0.400953, 0.597489, 0.000000, -0.000000, -0.536681, -0.000000, -0.000000, -0.000000, -0.000000, -0.000000, -0.000000, 0.079727, 0.000000, -0.199426, 0.093738, -0.000000, -0.639372, 0.381822, -0.163820, -0.188249, 0.330536, -0.000000, 0.000000, -0.444867, 0.000000, -0.000000, -0.269661, -0.000000, 0.000000, -0.000000, 0.000000, -0.326910, -0.000000, -0.000000, -0.000000, -0.216583, 0.073904, -0.000000, 0.806870, -0.189054, -0.000000, 0.128171, -0.499701, -0.013292, -0.179563, -0.286352, -0.510143, -1.431800, -0.000000, -0.571001, 0.208712, -3.145683, -0.480379, 0.089486, -0.386195, 0.143998, -1.855692, 0.459951, -0.100763, 0.754035, 0.474056, -0.000000, -0.000000, 0.135103, 0.545322, 0.029497, -0.093988, -0.000000, -0.885591, -0.000000, -0.136878, -0.000000, 0.000000, -0.000000, -1.487053, 0.044774, -0.000000, -0.000004, 0.032321, 0.393779, -0.205233, -0.577292, -0.010162, -1.271789, 0.117499, 0.000000, 0.268702, 0.079268, -0.400386, 0.658774, -0.644637, -0.000000, 0.000000, -0.000000, 0.315353, 0.039590, -0.000000, -0.019462, -0.000000, 0.030837, -0.615032, -0.000000, -1.878084, 0.081430, 0.000000, 0.008331, -0.000000, 0.007524, 0.073964, 0.001346, 0.000000, 0.456886, 0.000000, -0.000000, -0.042889, -0.000000, -0.000000, -0.003704, 0.099771, -1.121252, -0.000000, 0.018292, -0.000000, 0.000000, -0.000000, 0.000000, 0.000000, -0.000000, 0.005062, 0.779361, 0.000000, 0.000000, 0.011045, 0.000000, 0.000000, -0.000000, 0.000000, 0.000000, 0.000000, -0.000000, -0.000000, 0.063099, -0.095387, -0.000000, 0.000000, 0.105411, 0.018275, -0.000000, -0.691377, 0.000000, -0.000000, 0.000000, 0.000000, 0.050888, 0.083964, 0.000000, -0.000000, 0.000000, 0.000000, -0.067505, 0.000000, -0.029832, -0.000000, 0.000000, 0.019894, 0.000000, 0.394856, -0.043938, 0.000000, -0.144638, -2.839574, 0.434382, -2.502600, 0.321130, 0.988966, -0.480846, -0.553999, -0.304535, -1.389961, 0.627851, -0.625272, -0.544769, 0.282466, -0.874592, -0.174734, -0.049126, -0.240983, -0.447639, -0.725032, -0.000000, 0.000000, -0.372292, -1.565309, -1.253972, 0.127293, -0.000000, 0.335957, -0.000000, 0.124704, 0.000000, -0.000000, -0.000000, 0.017219, -0.264591, -0.000000, -0.204835, -0.258142, -1.503318, -2.658130, 0.164857, 0.148391, -1.187746, -1.069573, -0.000000, 0.020458, -0.253442, 0.485705, -0.468223, -2.138705, -0.000000, -0.000000, -0.000000, 0.005474, 0.139669, -0.000000, 0.280600, -0.000000, -0.387844, 0.033248, 0.000000, -0.098886, -0.546290, 0.000000, 0.660089, 0.085026, -0.094057, 0.398375, 0.073225, 0.192917, 0.133884, 0.917556, 0.287117, 1.059537, -0.953314, -2.216007, -0.013978, -0.365524, 0.159024, -0.045065, -0.073193, -0.006258, -1.849177, -0.050653, 0.000000, -0.000000, 0.157013, -0.017558, 0.182741, 0.152834, 0.000000, 0.195312, 0.000000, 0.122028, -0.000000, -0.000000, -0.000000, -0.378802, 0.121637, 0.000000, 0.261387, -0.139645, 0.435618, -0.171835, -0.282406, -0.917553, -2.254741, -0.485742, -0.000000, 0.109204, -0.490677, -0.285352, 0.030112, 0.061438, -0.000000, 0.000000, -0.000000, -0.862501, 0.248998, -0.000000, 0.667950, -0.000000, -0.023293, 0.319787, -0.000000, 0.147171, 0.617536, -0.000000, -0.329900, -1.166836, 0.697012, -0.557427, -1.821412, 0.222228, -1.478601, 0.446761, 0.946068, -2.191393, 1.582543, 0.203929, 0.386844, 0.520575, -2.577771, 1.153613, -0.641341, 0.965599, -0.282303, 0.659002, -0.000000, 0.000000, -3.739100, 0.181923, -2.169144, -0.375350, 0.000000, -1.079380, -0.000000, -0.319181, -0.000000, 0.000000, -0.000000, 1.584011, -0.072815, -0.000000, 0.334992, 0.104500, -0.278865, 1.183651, 1.575777, -2.989881, 0.569466, -0.630919, -0.000000, 1.231490, 0.478285, -0.905810, 0.003898, -1.008961, -0.000000, 0.000000, 0.000000, 1.443822, -0.232754, -0.000000, -0.222713, 0.000000, 0.555218, -0.351287, -0.000000, 0.512694, 0.108499, 0.000000, 0.083165, -0.000000, -0.042240, 0.000000, -0.007803, 0.000000, 0.010389, 0.000000, 0.000000, -0.013001, 0.000000, -0.000000, 0.000000, 0.000000, 0.000000, -0.000000, 0.000000, 0.000000, -0.008124, -0.000000, 0.000000, -0.000000, -0.022636, 0.000000, 0.047393, 0.000000, 0.000000, -0.000000, -0.000000, 0.000000, -0.000000, 0.000000, 0.000000, 0.000000, -0.000000, -0.000000, 0.000000, 0.000000, 0.000000, 0.000000, 0.000000, -0.049816, -0.000000, 0.130067, 0.000000, 0.000000, 0.000000, -0.000000, 0.095339, -0.000000, -0.000000, -0.000000, -0.000000, -0.000000, -0.048686, -0.000000, -0.030223, -0.000000, -0.000000, 0.000000, -0.000000, 0.000000, -0.000289, -0.000000, -0.000000, -0.000000, 0.000000, -0.000000, -0.000000, -0.000000, 0.000000, 0.000000, 0.000000, 0.000000, -0.000000, 0.000000, 0.000000, 0.000000, -0.000000, -0.000000, 0.000000, -0.000000, -0.000000, 0.000000, 0.000000, -0.000000, -0.000000, 0.000000, 0.000000, 0.000000, 0.000000, 0.000000, 0.000000, -0.000000, -0.000000, 0.000000, 0.000000, -0.000000, -0.000000, -0.000000, 0.000000, 0.000000, 0.000000, -0.000000, 0.000000, 0.000000, 0.000000, -0.000000, -0.000000, -0.000000, -0.000000, -0.000000, 0.000000, 0.000000, -0.000000, 0.000000, 0.000000, -0.000000, -0.000000, 0.000000, -0.000000, -0.000000, 0.000000, 0.000000, -0.000000, 0.000000, 0.000000, 0.000000, 0.354260, -0.282738, -0.133093, -0.435432, 0.123912, 0.056223, -0.522969, -0.641570, -0.250018, -0.448542, -0.322919, 0.101596, -0.100261, -0.146731, 0.162594, 0.011321, 0.046119, -1.180187, -0.010965, 0.009238, -0.000000, 0.000000, 0.475334, 0.006942, -0.024094, -0.473838, -0.000000, 0.176617, 0.000000, -0.453726, -0.000000, 0.000000, -0.000000, -0.389901, -0.876130, -0.000000, -0.142254, 0.107041, -0.809667, -0.431811, -0.027770, 0.328342, -0.000131, 0.183194, -0.000000, 0.160082, -0.129417, -0.157879, 0.133173, -0.882882, -0.000000, 0.000000, 0.000000, 0.153534, -0.176507, -0.000000, -0.543430, 0.000000, 0.355966, -0.019350, 0.000000, 0.165113, -0.280748, -0.000000, -0.000000, -0.000000, -0.000000, -0.000000, 0.000000, -0.000000, -0.000000, 0.000000, 0.000000, -0.000000, -0.000000, -0.000000, -0.000000, 0.000000, -0.000000, -0.000000, 0.000000, 0.000000, -0.000000, 0.000000, -0.000000, 0.000000, -0.000000, -0.000000, 0.000000, 0.000000, -0.000000, -0.000000, 0.000000, 0.000000, -0.000000, 0.000000, -0.000000, -0.000000, 0.000000, -0.000000, -0.000000, 0.000000, -0.000000, 0.000000, -0.000000, 0.000000, -0.000000, -0.000000, -0.000000, 0.000000, -0.000000, -0.000000, 0.000000, -0.000000, -0.000000, 0.000000, -0.000000, 0.000000, 0.000000, -0.000000, -0.000000, 0.000000, 0.000000, -0.000000, -0.000000, -0.000000, 0.000000, -0.000000, -0.000000, 0.000000, -0.000000, -0.000000, 0.000000, -0.000000, 0.000000, -0.000000, -0.000000, -0.000000, 0.000000, 0.000000, 0.000000, 0.000000, -0.000000, -0.000000, 0.000000, -0.000000, -0.000000, -0.000000, 0.000000, -0.000000, 0.000000, 0.000000, 0.000000, 0.000000, -0.000000, 0.000000, 0.000000, 0.000000, -0.000000, 0.000000, -0.000000, -0.000000, 0.000000, 0.000000, 0.000000, 0.000000, 0.000000, 0.000000, -0.000000, 0.000000, -0.000000, -0.000000, 0.000000, 0.000000, 0.000000, 0.000000, 0.000000, 0.000000, -0.000000, 0.000000, 0.000000, -0.000000, -0.000000, -0.000000, 0.000000, -0.000000, 0.000000, 0.000000, 0.000000, -0.000000, -0.000000, 0.000000, 0.368050, 0.186153, 0.472351, -0.343912, 0.411506, 0.382323, 0.438043, -0.432458, -0.176471, 0.271990, -0.349010, 0.070203, -0.034824, 0.060711, 0.335159, 0.202426, -1.123276, -0.081541, 0.351978, -0.104262, 0.000000, -0.000000, -0.140725, -0.049117, 0.250908, -0.084209, 0.000000, -0.312531, 0.000000, 0.066752, -0.000000, -0.000000, -0.000000, -0.257815, -0.836206, -0.000000, -0.677161, -0.045659, -0.177297, -0.170802, -0.136410, 0.127523, -0.077220, 0.727041, -0.000000, 0.394642, -0.353161, -1.165310, 0.364382, -0.437753, -0.000000, -0.000000, -0.000000, 0.831668, 0.666579, -0.000000, 0.656532, -0.000000, -0.072397, 0.141039, -0.000000, -0.067225, 0.560632, -0.000000, 0.130365, 0.011784, -0.143167, -0.041709, 0.087057, -0.353916, -0.559198, 0.000001, -0.000000, -0.536343, -0.134443, 0.293801, 0.146934, -0.033778, -0.531023, 0.137327, -0.028768, -0.000000, -0.155287, 0.164995, 0.000000, 0.000000, -0.137319, 0.012380, -0.092851, -0.000001, 0.000000, -0.204599, -0.000000, 0.019135, 0.000000, -0.000000, -0.000000, -0.102702, -0.000000, -0.000000, -0.102809, -0.060228, 0.020277, -0.053115, -0.064891, 0.396919, -0.000014, 0.396621, 0.000000, -0.156764, -0.051560, 0.275499, -0.040714, -0.037017, -0.000000, -0.000000, -0.000000, 0.144602, -0.350261, -0.000000, -0.099660, -0.000000, -0.043786, 0.058975, -0.000000, 0.123188, -0.494710, 0.000000, 0.038367, 0.615389, 0.081424, 0.442785, -0.661717, -0.000000, 0.889452, -0.331996, -0.000000, 0.275234, -0.245671, -0.000000, -0.049450, -0.437539, -0.568593, -1.901655, 0.289675, 0.540492, 0.000000, 0.000000, -0.000000, 0.000000, 0.512548, 0.330415, -0.245487, -0.000000, -0.000000, 0.899958, 0.000000, -0.000000, -0.000000, -0.000000, 0.000000, -1.764850, 0.484609, -0.000000, -0.377876, -0.084380, -0.465938, -0.330545, 0.405615, -0.076263, 1.097737, 1.760714, -0.000000, 0.000000, -0.926304, 0.000000, -0.075917, 0.102324, -0.000000, -0.000000, -0.000000, 0.000000, 0.430448, 0.000000, -0.312077, -0.000000, -0.126753, 0.118964, -0.000000, 1.031265, -0.249985, -0.000000, -0.320508, -0.473382, -0.668846, -0.361408, -0.613088, -0.181435, -0.377022, -0.125274, 0.347463, -2.952221, -0.254619, -1.250976, -0.040559, 0.498378, -1.047421, -0.317761, 0.134334, 0.430053, -0.618902, -0.110340, -0.000000, 0.000000, 0.046517, -0.047501, 0.301033, 0.006133, -0.000000, 0.127384, 0.000000, 0.388895, -0.000000, 0.000000, 0.000000, 0.821883, 0.226335, 0.000000, 0.009438, 0.159092, -0.367904, 0.685573, 0.276040, -2.291627, -0.039043, -1.631591, -0.000000, 0.042534, 0.477563, -0.234737, -0.216817, -0.407735, -0.000000, 0.000000, -0.000000, 0.508089, -0.082848, 0.000000, 0.042612, -0.000000, 0.011464, -0.247334, 0.000000, 0.280170, -0.087336, -0.000000, -0.166973, 0.084832, -0.052310, 0.031905, -0.616927, -0.000000, 0.581773, -0.270100, -0.000000, 0.133669, 0.300697, -0.000000, -0.023819, -0.167107, 0.465637, -0.614404, 0.106278, 0.111114, -0.000000, -0.000000, -0.000000, 0.000000, -0.274733, -0.363425, -0.545330, -0.000000, 0.000000, 0.114087, 0.000000, 0.000000, 0.000000, -0.000000, 0.000000, -0.495242, 0.536502, 0.000000, -0.223946, -0.047408, 0.006771, 0.005629, 0.368528, -0.116073, -0.257547, 0.607840, -0.000000, 0.000000, -0.786159, 0.000000, -0.001723, -0.294660, -0.000000, -0.000000, -0.000000, -0.000000, -0.260012, 0.000000, -0.078095, -0.000000, -0.427460, -0.053037, -0.000000, 0.365764, -0.308971, -0.000000, 0.182946, -0.054357, 0.052887, 0.032459, 0.214224, -0.008954, 0.274205, -0.001854, -0.003158, 0.370751, 0.000000, 0.000012, 0.017142, -0.180440, -0.239625, -0.028377, 0.029056, -0.002423, -0.031196, -0.000000, 0.000000, -0.000000, -0.275327, 0.058912, -0.095636, 0.000000, -0.000000, 0.004635, 0.000000, -0.007004, -0.000000, 0.000000, -0.000000, -0.028823, 0.003420, -0.000000, -0.465853, -0.049633, 0.135053, 0.000000, 0.180786, -0.119675, -0.031725, 0.372793, 0.000000, -0.000000, 0.001675, 0.202863, 0.545372, -0.223207, 0.000000, -0.000000, -0.000000, -0.010514, -0.130221, 0.000000, -0.305502, -0.000000, -0.000000, 0.007939, -0.000000, -0.654151, 0.006283, -0.000000, 0.448945, 0.445525, -0.391606, 0.132675, -1.193882, -0.771668, -0.425616, -0.064617, -0.960359, 0.778163, -0.522995, -0.023244, -0.091866, -0.733486, 0.571127, -0.131637, 0.525793, -0.188783, 0.073896, -1.462716, -0.000000, -0.000000, -0.706533, -0.491368, -0.513171, -0.039519, -0.000000, -0.158300, 0.000000, -0.823478, -0.000000, -0.000000, -0.000000, -0.645989, 0.857170, -0.000000, -0.602885, -0.190025, 0.428632, -0.272374, 0.660737, 0.470289, 1.089207, 0.969526, -0.000000, -0.596102, -0.250116, 1.280240, 0.739012, -0.515343, 0.000000, -0.000000, 0.000000, -0.977975, -1.069607, -0.000000, -0.403720, -0.000000, -0.211099, -0.123068, -0.000000, 0.187669, -0.478401, 0.000000, 0.125636, -0.000000, 0.083082, 0.105292, 0.173046, -0.000000, 0.673667, 0.000000, 0.000000, 0.027411, 0.000000, 0.000000, -0.004473, 0.107983, -2.315758, -0.000000, 0.053364, 0.000000, -0.014483, -0.000000, 0.000000, -0.000000, -0.031868, -0.125767, 0.807807, 0.000000, 0.000000, 0.009634, 0.000000, -0.000000, -0.000000, -0.000000, -0.000000, 0.000000, 0.000000, -0.000000, -0.579688, -0.062220, 0.034112, -0.000000, 0.078814, -0.025899, -0.142739, 0.146921, 0.000000, 0.000000, -0.072758, -0.000000, 0.201938, -0.218994, 0.000000, -0.000000, -0.000000, -0.000000, -0.094909, -0.000000, -0.056229, 0.000000, 0.000000, 0.012426, -0.000000, -0.188856, 0.025833, 0.000000, -1.665288, 0.184564, -0.084181, 0.390248, 0.047739, -0.475637, 0.178808, -2.528384, 0.180291, 0.397184, 0.188702, 0.607505, -0.020207, -0.292913, 0.000000, 0.024654, -0.389057, 0.221002, 0.419972, -2.710830, -0.000000, -0.000000, -1.240537, -0.115881, -0.204496, 0.644646, -0.000000, -0.250168, -0.000000, -0.866035, -0.000000, 0.000000, 0.000000, 0.343481, -1.024022, 0.000000, -0.000000, -0.000120, -0.196903, 0.306441, 0.012721, -0.218934, -0.871173, -0.978112, 0.000000, -0.961202, -0.092109, 0.129045, -0.084766, -0.304844, -0.000000, -0.000000, 0.000000, -0.166142, -1.235032, 0.000000, -1.146919, -0.000000, 0.043934, -0.510215, -0.000000, -0.563740, 0.107347, -0.000000, -0.011024, 0.000000, 0.000944, -0.000000, 0.001640, -0.000000, 0.001157, -0.000000, 0.000000, -0.024981, 0.000000, -0.000000, -0.000000, 0.000000, -0.000000, 0.000000, -0.000000, 0.000000, -0.000000, 0.000000, 0.000000, 0.000000, -0.000000, 0.000000, 0.040125, -0.000000, -0.000000, -0.000000, -0.000000, 0.000000, -0.000000, -0.000000, 0.000000, 0.000000, -0.000000, -0.000000, -0.000000, 0.000000, -0.000000, -0.000000, 0.000000, 0.007551, 0.000000, 0.026061, -0.000000, -0.000000, 0.000000, 0.000000, 0.051669, 0.000000, 0.000000, -0.000000, -0.000000, -0.000000, -0.051700, -0.000000, -0.038406, -0.000000, 0.000000, -0.000000, -0.000000, 0.000000, 0.013367, -0.000000, -0.000000, 0.000000, -0.000000, 0.000000, 0.000000, -0.000000, 0.000000, -0.000000, 0.000000, -0.000000, 0.000000, 0.000000, 0.000000, 0.000000, -0.000000, 0.000000, -0.000000, 0.000000, -0.000000, -0.000000, 0.000000, 0.000000, -0.000000, 0.000000, -0.000000, -0.000000, -0.000000, 0.000000, 0.000000, -0.000000, -0.000000, -0.000000, -0.000000, 0.000000, 0.000000, -0.000000, -0.000000, 0.000000, -0.000000, 0.000000, -0.000000, 0.000000, -0.000000, 0.000000, -0.000000, 0.000000, 0.000000, 0.000000, 0.000000, -0.000000, -0.000000, -0.000000, 0.000000, 0.000000, 0.000000, -0.000000, -0.000000, -0.000000, -0.000000, -0.000000, -0.000000, 0.000000, -0.000000, -0.000000, -0.115756, -0.580681, -0.491002, -0.444505, -0.370328, 0.440489, -0.007772, -0.000000, 0.000000, 0.111384, -0.132624, -0.004496, 0.044984, -0.380759, 0.000000, 0.021878, 0.322765, -0.000000, 0.079627, -0.104741, -0.000000, 0.000000, 0.126670, 0.432332, 0.065474, -0.363988, -0.000000, -0.261837, 0.000000, -0.317299, -0.000000, 0.000000, -0.000000, -0.018488, -0.000000, -0.000000, -0.000000, 0.029264, -0.097337, -0.329013, -0.043641, -0.312646, -0.000000, 0.585297, 0.000000, 0.558346, -0.042578, -1.212996, 0.369470, -0.483560, -0.000000, -0.000000, 0.000000, 0.090029, -0.288992, -0.000000, 0.021017, 0.000000, -0.022114, -0.326819, -0.000000, -1.028169, 0.006287, 0.000000, 0.593510, -0.718009, -0.320028, -0.339420, -0.323839, 0.378351, -1.620646, -0.565650, -0.890025, -0.522507, -0.480800, 0.297658, 0.290601, 0.328104, -0.157695, -0.559364, 0.396603, -0.470638, -1.754094, -0.080383, 0.000000, -0.000000, 0.328373, 0.875859, -0.004655, 0.000062, -0.000000, -1.548793, -0.000000, 0.907378, -0.000000, -0.000000, -0.000000, -0.416509, -0.738139, -0.000000, -0.260351, -0.060761, -0.183558, -0.508685, -0.044367, 0.518721, 0.346916, -0.065578, -0.000000, -0.433740, 0.179316, 0.648821, -0.778186, 0.688458, -0.000000, -0.000000, 0.000000, 0.438925, -0.411775, -0.000000, -0.335575, -0.000000, -0.079512, 0.645592, 0.000000, -0.005141, 0.000322, 0.000000, 0.083201, -0.563862, -0.281329, -0.685386, -0.217209, -0.090133, 0.601323, 0.693564, -1.026805, -0.672213, -0.082446, -0.000000, -0.012608, 0.149971, -0.079135, -1.453788, -0.992910, 0.440553, -0.023304, -2.313090, -0.000000, -0.000000, -0.012214, 0.143072, 0.010744, -0.113111, 0.000000, 0.568251, -0.000000, -0.514199, -0.000000, 0.000000, -0.000000, -0.057095, 0.067809, -0.000000, -0.257260, 0.325230, -0.849707, 0.592707, 0.230784, -0.151945, -0.896310, -1.306807, -0.000000, -0.098698, -0.104862, -1.661956, 0.780745, 0.024630, -0.000000, -0.000000, -0.000000, -1.397291, 0.303567, -0.000000, -0.061664, -0.000000, 0.454295, 0.032848, -0.000000, 0.622844, 0.469478, -0.000000, -0.000000, 0.000000, -0.000000, 0.000000, -0.000000, -0.000000, -0.000000, -0.000000, -0.000000, -0.000000, -0.000000, 0.000000, 0.000000, 0.000000, 0.000000, -0.000000, -0.000000, 0.000000, 0.000000, -0.000000, -0.000000, -0.000000, -0.000000, -0.000000, -0.000000, 0.000000, -0.000000, 0.000000, 0.000000, -0.000000, -0.000000, 0.000000, 0.000000, -0.000000, 0.000000, -0.000000, -0.000000, -0.000000, 0.000000, 0.000000, 0.000000, 0.000000, 0.000000, -0.000000, 0.000000, -0.000000, 0.000000, -0.000000, 0.000000, -0.000000, -0.000000, -0.000000, -0.000000, 0.000000, 0.000000, -0.000000, -0.000000, 0.000000, -0.000000, -0.000000, 0.000000, -0.000000, -0.000000, -0.000000, 0.444454, 0.352446, -0.264619, -0.055402, -0.226826, 0.128198, -1.205049, 0.100747, -0.208816, -0.427811, 0.453414, -0.458638, -0.015621, -0.131748, 0.107422, 0.128084, 0.830974, -0.070836, -0.000000, 0.774088, -0.000000, 0.000000, 0.200294, -0.189821, 0.039226, -0.021434, 0.000000, -0.275373, 0.000000, 0.199939, 0.000000, -0.000000, -0.000000, 0.131180, -0.320913, 0.000000, 0.332550, 0.167097, -0.175310, 0.219567, 0.130395, 0.030335, 0.690647, 0.091954, 0.000000, 0.408264, 0.452746, -0.254292, -0.286287, -0.080789, -0.000000, -0.000000, -0.000000, -0.749714, 0.060275, -0.000000, -0.160426, -0.000000, -0.252796, -0.427008, -0.000000, -0.470711, -0.087173, -0.000000, 0.057605, -0.193760, 0.008388, -0.075206, 0.132854, -0.000000, 1.285211, 0.000000, -0.000000, -0.387100, 0.303307, -0.000000, -0.021430, 0.620426, -1.968760, -0.000000, -1.020050, -0.000000, -0.000040, -0.000000, -0.000000, -0.000000, -0.042882, 0.802046, 0.579295, 0.000000, 0.000000, -0.979835, -0.000000, -0.000000, -0.000000, -0.000000, 0.000000, 0.000000, 0.056848, -0.000000, -0.838484, 0.096423, -0.015981, -2.281477, 0.313242, -0.002155, -0.230213, -0.309780, -0.000000, -0.000000, -0.078610, 0.000000, 0.014637, 0.408444, 0.000000, 0.000000, 0.000000, 0.000000, -0.153218, 0.000000, -0.035389, 0.000000, -0.197828, 0.134636, 0.000000, 1.281729, -0.682018, 0.000000, 0.891286, -0.000000, -0.460806, 0.000000, 0.153977, 0.088504, 0.011704, 0.000000, -0.000000, -0.102183, -0.000000, -0.000000, -0.049377, -0.096881, 0.000000, -0.000000, -1.530547, -0.000000, -0.065360, -0.000000, 0.000000, -0.000000, 0.235317, -0.000000, 0.073658, 0.011366, 0.000000, 0.310802, 0.000000, 0.004318, -0.000000, 0.000000, 0.000000, 0.000000, 0.000000, -0.000000, -0.000000, -0.015492, -0.000137, -0.000000, -0.676938, 0.016234, -0.000000, 0.232026, 0.000000, -0.481467, -0.024860, -0.015048, 1.499146, 0.000000, -0.000000, -0.000000, -0.000000, -0.045770, -1.024126, 0.000000, 0.460963, -0.000000, -0.000000, 0.159874, 0.000000, 0.983835, 0.037226, 0.000000, 0.000000, -0.000000, -0.000000, -0.000000, -0.000000, 0.000000, -0.000000, -0.000000, 0.000000, 0.000000, 0.000000, 0.000000, 0.000000, -0.000000, -0.000000, 0.000000, -0.000000, -0.000000, 0.000000, 0.000000, 0.000000, 0.000000, 0.000000, 0.000000, -0.000000, 0.000000, 0.000000, -0.000000, 0.000000, 0.000000, 0.000000, -0.000000, 0.000000, 0.000000, 0.000000, -0.000000, 0.000000, 0.000000, -0.000000, 0.000000, -0.000000, -0.000000, 0.000000, 0.000000, -0.000000, -0.000000, -0.000000, -0.000000, 0.000000, -0.000000, 0.000000, 0.000000, -0.000000, -0.000000, -0.000000, 0.000000, 0.000000, -0.000000, -0.000000, 0.000000, -0.000000, 0.000000, 0.000000, -0.000000, 0.000000, 0.000000, 0.000000, -0.000000, 0.000000, -0.000000, -0.000000, -0.000000, 0.000000, 0.000000, 0.000000, 0.000000, 0.000000, 0.000000, -0.000000, -0.000000, -0.000000, 0.000000, -0.000000, -0.000000, -0.000000, -0.000000, -0.000000, 0.000000, -0.000000, 0.000000, 0.000000, 0.000000, 0.000000, 0.000000, 0.000000, 0.000000, 0.000000, -0.000000, -0.000000, 0.000000, -0.000000, 0.000000, 0.000000, 0.000000, 0.000000, 0.000000, -0.000000, -0.000000, 0.000000, 0.000000, -0.000000, 0.000000, -0.000000, 0.000000, -0.000000, 0.000000, -0.000000, 0.000000, -0.000000, -0.000000, 0.000000, -0.000000, 0.000000, -0.000000, 0.000000, 0.000000, 0.000000, -0.000000, 0.008035, 0.000000, 0.006898, 0.095477, 0.000622, 0.000000, 0.646111, 0.000000, 0.000000, -0.048104, -0.000000, -0.000000, -0.001594, 0.149726, -1.102454, -0.000000, 0.016770, 0.000000, 0.000000, 0.000000, 0.000000, -0.000000, -0.000000, 0.016551, 1.117334, -0.000000, 0.000000, -0.000085, 0.000000, 0.000000, 0.000000, 0.000000, 0.000000, -0.000000, 0.000000, 0.000000, 0.080861, -0.120377, -0.000000, -0.000000, 0.196037, 0.018107, -0.000000, -0.839950, 0.000000, -0.000000, 0.000000, -0.000000, 0.049842, 0.118995, 0.000000, -0.000000, -0.000000, 0.000000, -0.050033, 0.000000, -0.029609, -0.000000, 0.000000, 0.022811, 0.000000, 0.495453, -0.042943, 0.000000, -0.000000, 0.000000, 0.000000, 0.000000, 0.000000, 0.000000, -0.000000, -0.000000, -0.000000, -0.000000, -0.000000, 0.000000, 0.000000, 0.000000, 0.000000, -0.000000, 0.000000, -0.000000, -0.000000, 0.000000, 0.000000, 0.000000, 0.000000, 0.000000, -0.000000, 0.000000, -0.000000, -0.000000, 0.000000, -0.000000, -0.000000, -0.000000, -0.000000, -0.000000, 0.000000, 0.000000, -0.000000, 0.000000, 0.000000, -0.000000, -0.000000, 0.000000, -0.000000, -0.000000, -0.000000, 0.000000, 0.000000, 0.000000, -0.000000, 0.000000, 0.000000, 0.000000, -0.000000, 0.000000, -0.000000, -0.000000, -0.000000, 0.000000, -0.000000, 0.000000, -0.000000, 0.000000, 0.000000, -0.000000, 0.000000, -0.000000, 0.000000, -0.000000, -0.000000, 0.000000, 0.000000, 0.000000, 0.000000, 0.000000, -0.000000, -0.000000, 0.000000, -0.000000, -0.000000, 0.000000, -0.000000, 0.000000, -0.000000, -0.000000, 0.000000, 0.000000, -0.000000, 0.000000, 0.000000, 0.000000, 0.000000, 0.000000, 0.000000, -0.000000, -0.000000, -0.000000, 0.000000, -0.000000, 0.000000, 0.000000, -0.000000, 0.000000, -0.000000, 0.000000, 0.000000, 0.000000, 0.000000, 0.000000, 0.000000, -0.000000, -0.000000, -0.000000, 0.000000, -0.000000, -0.000000, -0.000000, -0.000000, -0.000000, 0.000000, -0.000000, 0.000000, -0.000000, 0.000000, 0.000000, -0.000000, -0.000000, -0.000000, -0.000000, 0.429412, -0.164634, -0.186210, -0.045694, 0.404999, -0.238087, 0.074642, 0.112969, 0.028846, 0.901641, -3.179804, 0.009143, -0.069908, 0.043614, -0.028189, -0.099727, -0.809571, -0.724447, 0.015205, -0.132817, -0.000000, -0.000000, 0.743955, -0.099133, -0.268904, -0.293289, 0.000000, 0.446695, -0.000000, -1.096723, -0.000000, -0.000000, -0.000000, -0.739823, -0.161539, -0.000000, -0.671966, -0.285441, 0.004159, -0.000000, -0.361457, -0.193187, -0.014596, -0.114288, -0.000000, -0.115393, -0.161330, -0.180665, 1.080830, -0.342905, -0.000000, -0.000000, 0.000000, -0.568286, 0.710150, 0.000000, -0.398303, -0.000000, -1.804428, -0.232893, 0.000000, 0.553973, -0.272341, -0.000000, -0.064983, -0.166928, -0.205609, 0.267021, -0.106465, -0.200981, -0.460806, 0.520274, 0.320070, -0.151316, 0.196195, 0.053812, 0.448352, -0.215610, 0.671998, 0.587520, 1.078508, 0.792337, -0.278071, -2.238288, 0.000000, 0.000000, -0.604195, -0.295634, -0.313956, 0.062082, -0.000000, 0.165115, -0.000000, -3.204768, -0.000000, 0.000000, 0.000000, 0.107789, -0.130234, 0.000000, 0.677531, 0.117158, -0.248130, -0.143754, -1.333387, 0.246881, 0.059986, 0.470639, -0.000000, -3.189637, -0.306560, 0.456718, 0.710574, 0.326662, 0.000000, -0.000000, 0.000000, -0.384197, -0.179696, 0.000000, -1.021309, -0.000000, -0.633685, -0.736919, -0.000000, -0.305945, -0.370742, -0.000000, -0.290418, -0.349156, -0.607759, -0.287123, -0.063270, 0.002454, 0.753132, 0.870125, -0.830888, -1.096874, 0.043749, 0.000000, -0.011251, 0.060010, -0.197327, -0.990322, -0.866716, 0.638088, -0.031316, -2.165247, -0.000000, 0.000000, 0.165748, 0.051298, -0.090345, 0.251490, 0.000000, 0.541012, -0.000000, -0.122122, -0.000000, -0.000000, -0.000000, 0.096355, 0.140844, 0.000000, -0.103554, 0.327413, -1.098671, 0.525717, 0.737433, 0.011741, -0.755702, -0.923924, -0.000000, -0.085473, -0.074320, -1.266840, 0.289562, -0.306792, -0.000000, -0.000000, -0.000000, -0.978022, 0.401961, -0.000000, 0.010599, 0.000000, 0.211280, -0.051291, -0.000000, 0.697207, 0.353677, -0.000000, -0.000000, -0.000000, 0.000000, 0.000000, 0.000000, -0.000000, 0.000000, 0.000000, -0.000000, 0.000000, 0.000000, 0.000000, -0.000000, 0.000000, -0.000000, 0.000000, -0.000000, -0.000000, 0.000000, 0.000000, 0.000000, -0.000000, 0.000000, 0.000000, 0.000000, 0.000000, -0.000000, 0.000000, -0.000000, 0.000000, -0.000000, 0.000000, 0.000000, 0.000000, -0.000000, -0.000000, 0.000000, 0.000000, 0.000000, 0.000000, 0.000000, -0.000000, 0.000000, -0.000000, -0.000000, -0.000000, 0.000000, -0.000000, 0.000000, -0.000000, -0.000000, 0.000000, -0.000000, -0.000000, -0.000000, -0.000000, 0.000000, -0.000000, -0.000000, 0.000000, -0.000000, 0.000000, -0.000000, 0.000000, 0.000000, -0.000000, -0.000000, 0.000000, 0.000000, -0.000000, 0.000000, -0.000000, 0.000000, 0.000000, -0.000000, 0.000000, -0.000000, -0.000000, -0.000000, 0.000000, 0.000000, 0.000000, -0.000000, -0.000000, -0.000000, 0.000000, -0.000000, -0.000000, -0.000000, -0.000000, -0.000000, 0.000000, 0.000000, -0.000000, 0.000000, -0.000000, 0.000000, -0.000000, 0.000000, 0.000000, -0.000000, -0.000000, -0.000000, 0.000000, -0.000000, -0.000000, 0.000000, -0.000000, -0.000000, -0.000000, 0.000000, -0.000000, -0.000000, 0.000000, -0.000000, 0.000000, -0.000000, -0.000000, -0.000000, -0.000000, -0.000000, -0.000000, -0.000000, 0.000000, 0.000000, -0.000000, -0.000000, -0.000000, 0.000000, 0.000000, -0.000000, 0.000000, 0.000000, 0.000000, -0.000000, 0.000000, -0.000000, 0.000000, 0.000000, -0.000000, 0.000000, -0.000000, -0.000000, -0.000000, 0.000000, -0.000000, -0.000000, 0.000000, -0.000000, -0.000000, 0.000000, -0.000000, 0.000000, 0.000000, 0.000000, -0.000000, 0.000000, -0.000000, -0.000000, 0.000000, 0.000000, 0.000000, -0.000000, 0.000000, -0.000000, -0.000000, 0.000000, -0.000000, -0.000000, 0.000000, 0.000000, -0.000000, 0.000000, 0.000000, 0.000000, -0.000000, 0.000000, -0.000000, 0.000000, -0.000000, -0.000000, -0.000000, 0.000000, 0.000000, -0.000000, 0.000000, 0.000000, -0.000000, -0.000000, 0.000000, 0.000000, 0.000000, -0.000000, -0.000000, -0.000000, -0.000000, -0.000000, 0.000000, -0.000000, 0.000000, -0.000000, 0.000000, 0.000000, -0.000000, 0.000000, 0.000000, 0.000000, 0.000000, 0.000000, 0.000000, -0.000000, 0.000000, 0.000000, -0.000000, -0.000000, -0.000000, -0.000000, 0.000000, -0.000000, 0.000000, 0.000000, -0.000000, -0.000000, 0.000000, 0.000000, 0.000000, 0.000000, -0.000000, 0.000000, 0.000000, 0.000000, 0.000000, 0.000000, -0.000000, 0.000000, -0.000000, -0.000000, -0.000000, -0.000000, 0.000000, 0.000000, 0.000000, -0.000000, -0.000000, -0.000000, -0.000000, -0.000000, -0.000000, 0.000000, -0.000000, -0.000000, -0.000000, -0.000000, -0.000000, 0.000000, 0.000000, -0.000000, 0.000000, 0.000000, -0.000000, -0.000000, -0.000000, 0.000000, 0.000000, -0.000000, 0.000000, -0.000000, -0.000000, 0.000000, 0.000000, 0.000000, -0.000000, -0.000000, 0.000000, 0.000000, -0.000000, 0.000000, -0.000000, -0.000000, -0.000000, -0.000000, 0.000000, 0.000000, 0.000000, 0.000000, 0.000000, -0.000000, -0.000000, 0.000000, -0.000000, 0.000000, -0.000000, -0.000000, 0.000000, 0.000000, 0.000000, -0.000000, 0.000000, -0.000000, -0.000000, -0.000000, -0.000000, -0.000000, 0.000000, 0.000000, 0.000000, -0.000000, 0.000000, -0.000000, -0.000000, 0.000000, -0.000000, 0.000000, 0.000000, 0.000000, 0.000000, -0.000000, -0.000000, 0.000000, -0.000000
};

// Shape: (64,)
static const float B1[64] ALIGN16 = {
    0.025560, 0.644802, 0.312766, 0.497796, 0.440180, 0.178290, 0.475576, 0.029827, 0.392442, 0.171757, -0.131270, 0.495496, -0.518707, -0.894783, -0.023354, 0.811049, 0.319653, 0.122285, -0.137743, -0.422099, -0.235855, -0.054743, 0.291319, -0.033691, 0.339338, 0.005762, -0.289837, 0.072771, -0.159076, 0.500779, -0.205828, -0.089559, -0.010928, -0.321243, 0.727555, -0.085259, -0.302772, -0.558721, 0.461924, -0.083902, -0.000093, 0.465645, -0.149391, -0.186141, -0.047721, 0.067104, -0.394127, 0.540545, -3.672270, 0.421118, -0.080165, -0.204879, -0.187776, 0.948094, 0.001824, -0.197389, 0.208707, -0.114546, -0.013318, 0.151476, -0.157839, -1.253137, -0.347668, -0.052245
};

// Shape: (64, 32)
static const float W2[2048] ALIGN16 = {
