// Auto-generated MLP weights + pointers for C inference

#pragma once

#define ALIGN16 __attribute__((aligned(16)))

#define NUM_LAYERS 3

static const int LAYER_SIZES[NUM_LAYERS+1] = { 8, 64, 32, 1 };

// Shape: (8, 64)
static const float W0[512] ALIGN16 = {
    1.476461, 1.536756, 0.758699, -8.198511, 3.019870, -2.614982, -2.564691, 0.565843, -1.464788, 0.396865, 0.304941, -0.714877, -0.472760, -1.804468, -0.579643, -0.204941, 0.045416, 1.287733, -2.439459, 0.638845, 1.406891, -4.428377, -1.725331, 1.154733, 0.622104, 0.245796, -0.000000, -4.361542, 1.022604, 0.019744, 1.776485, -0.914147, -1.259237, 4.831114, 0.849948, 0.758056, 2.619639, 0.576789, 0.315292, -0.071153, -4.787044, 0.424758, 0.239224, 2.182825, 1.040376, -5.904104, -2.613248, 1.667572, 1.887044, 1.143680, 0.207196, -1.789887, -1.468027, 2.589592, 2.185810, 0.747495, 0.594906, 0.402439, 4.528646, 1.377129, -0.254041, 1.199247, -0.920791, -2.926530, -0.000000, -0.000000, 0.000000, -0.000000, 0.000000, 0.000000, 0.000000, 0.000000, -0.000000, 0.000000, 0.000000, -0.000000, 0.000000, 0.000000, -0.000000, -0.000000, -0.000000, 0.000000, -0.000000, 0.000000, -0.000000, 0.000000, -0.000000, -0.000000, 0.000000, -0.000000, -0.000000, 0.000000, -0.000000, 0.000000, -0.000000, 0.000000, 0.000000, 0.000000, -0.000000, -0.000000, -0.000000, -0.000000, -0.000000, -0.000000, 0.000000, -0.000000, -0.000000, -0.000000, -0.000000, 0.000000, -0.000000, -0.000000, -0.000000, -0.000000, -0.000000, -0.000000, -0.000000, 0.000000, 0.000000, 0.000000, -0.000000, 0.000000, -0.000000, -0.000000, -0.000000, 0.000000, 0.000000, -0.000000, -0.673062, -0.057149, 0.638076, -1.520185, 2.086640, 1.244342, -1.386447, 0.316846, -1.401875, -1.205526, -0.221881, 1.096063, 0.395707, 1.425489, 0.080799, 1.135227, 0.437492, 0.347735, 1.132043, -0.081743, -0.604008, -2.803614, 1.491546, -0.087200, -0.603461, 0.088423, 0.000000, -3.418540, 0.031263, -0.009909, 2.115009, 1.307812, 0.253464, 1.629597, 0.430956, 0.366637, 0.396273, 0.345471, -0.166297, -0.973364, -4.593145, -0.070115, -0.369030, 0.313454, -0.142782, -2.908863, -0.753589, 0.029643, -0.367370, 0.568163, 0.172746, -2.441902, -0.883335, 3.491703, 0.446716, 1.308093, 0.881930, -0.184602, 4.307035, 0.097581, -0.779167, 1.026792, -1.113188, -1.253926, 0.083436, -0.393575, -0.122283, -0.081457, 0.052584, 0.315868, -0.506514, 0.175256, -0.383671, 0.375963, -1.161743, -0.157177, 0.122488, -1.026533, 0.210630, 0.181016, -0.373205, -0.336122, -0.246548, -0.646128, -0.762036, -0.229773, 0.221207, -0.127058, -1.255937, -0.210174, -0.000000, 0.216756, 0.150819, -0.119580, -0.241762, -0.309885, -0.740088, 0.122583, 0.507697, -0.147851, 0.528590, -0.515701, -0.410312, -0.739251, -0.091532, -0.168438, -1.334260, 0.049444, -0.093911, -0.568838, -0.637740, -0.778508, 0.178845, -0.140552, -0.017412, 0.235571, -1.831072, 0.171361, 0.129412, 0.331485, 0.096429, 0.360112, -0.183175, 0.021516, 0.778664, -0.395880, -1.437627, -0.209890, -0.184993, -0.429352, -0.640906, -0.288570, -0.153554, -0.315296, -1.097642, -0.577525, 0.211749, 0.237612, 0.090788, 0.067340, 0.114297, -0.473718, 0.255296, 0.345219, -0.124888, 0.385364, -0.303331, 0.215785, 0.154562, 0.231969, 0.038311, -0.335629, 0.765957, -1.000041, -0.000000, -0.382455, 0.040610, -1.336300, -1.268034, -0.074236, -0.778833, -0.029514, -0.939905, -1.363114, 0.043644, -0.679851, -0.799169, -0.296622, -0.117710, -0.424610, 0.106582, -1.572417, -1.364531, 0.023545, 0.222381, -0.241137, -0.004751, 0.065602, -0.032948, -1.914327, 0.350982, -0.276714, 0.457736, -0.368644, -0.968023, 0.228231, 0.032507, -0.015699, -0.086941, -0.785626, -0.440920, -0.332320, -1.361406, 0.285444, 0.144465, -0.448389, 0.329687, -1.897411, 0.782656, 0.377667, 0.380893, -3.706344, -0.885231, 0.216932, -2.292984, -2.327175, -1.664479, -2.252953, 0.370450, -0.809091, -1.673123, -0.441603, 0.809849, -0.293088, -2.622922, 0.044834, -2.571554, -0.025149, -0.000000, -0.368577, -0.256005, 0.123274, 0.582120, 0.574720, -2.064345, -1.443069, -0.437328, 0.161818, -0.936294, 0.487756, 0.795351, 0.361107, -0.136048, 0.033596, -0.811606, 0.522111, 0.950797, 0.382324, 0.697891, 0.570798, -0.453644, -0.684492, 0.022822, -0.918478, -1.243250, -0.313621, -1.511473, -0.536288, -0.416586, -0.721270, -0.068978, -1.251980, -0.877865, 0.145355, 1.318006, 0.537350, 0.278534, 1.007042, 0.167381, -0.042347, 0.054559, 0.088447, 0.398126, -0.375923, 0.507453, 0.768304, 0.128088, 1.175486, 0.711643, 0.067192, 0.662038, 0.183113, -0.479088, 1.658079, 0.138334, 0.832132, 0.076075, 0.440727, 0.187389, 0.229884, 0.550020, -0.337428, 0.000000, 0.381194, 0.983833, 0.694181, 0.136580, 0.115885, 0.117914, -0.171634, 0.063562, 0.096496, 1.215351, 0.235516, 0.042354, 0.238728, -0.041218, 0.129732, 0.072380, 0.042321, -0.143688, -0.126803, 0.275151, 0.593638, 0.886841, -0.038569, 0.179206, 0.458477, 0.019859, 0.709725, 0.516663, -0.353109, 0.035573, 0.955401, 0.150372, 1.284910, 0.395388, 0.444055, 0.293368, -0.037404, -0.164004, -0.689184, -0.069249, 0.028500, -0.120020, 0.320786, -0.946581, 0.010258, -0.716004, 0.590301, -1.221158, -0.602896, -0.152396, -0.677943, 0.579016, 0.135879, 0.162694, -0.214980, -0.390081, -0.550423, -1.006021, 0.194511, -0.154996, 0.041768, -1.407145, -0.147278, -0.000000, 0.299402, -0.180687, -0.127798, 0.261142, -0.221056, -0.547017, 0.375233, 0.211147, -0.084850, 0.352478, -0.391615, -0.832650, -0.859478, 0.122567, 0.042337, -1.187910, -0.009226, -0.095861, -0.494714, -0.742078, -0.684162, -0.022460, -0.416828, -0.017381, 0.588809, -1.447756, -0.045089, 0.062603, 0.245595, -0.058336, 0.023531, 0.165425, 0.270355, 0.835273, -0.168419, -1.184586, -0.289129
};

// Shape: (64,)
static const float B0[64] ALIGN16 = {
    -0.154601, 0.538291, -0.620544, -0.746400, 0.121707, -0.126992, 0.188879, -2.685668, -0.064163, -0.037401, 0.854914, 0.891755, 0.598973, -0.559897, -0.167894, 0.122560, -1.767132, 0.618503, 0.465527, 0.521051, 0.589700, -0.072788, 0.314996, -0.092006, 0.203132, -0.609067, -0.851326, -0.072864, 0.468654, 0.687684, -0.989517, 0.008802, -0.265287, 0.283941, -2.118814, -0.470198, -0.016867, -0.102983, 0.393409, 0.551346, -0.247211, 0.177445, 0.842946, -0.460682, -1.460830, -0.595552, 0.084240, 0.334962, 0.397885, -0.580502, -0.427069, -0.114891, 0.720113, 0.173974, -0.016502, 0.113489, 0.656232, -0.696446, 0.377941, 0.929103, -0.048550, 0.523990, 0.135347, 0.026167
};

// Shape: (64, 32)
static const float W1[2048] ALIGN16 = {
    -0.176570, 0.052019, 0.000000, -1.684649, -0.037111, -0.578088, -0.000000, 0.255638, 0.130906, 0.625914, -0.000000, -0.029457, 0.076322, -0.000000, -0.642778, 0.387725, -0.078178, 0.415066, 0.000000, -0.100678, 0.198086, 0.189300, 0.461837, -0.476049, 0.237395, -1.103720, -0.000000, -0.069041, 0.000000, 0.562510, 0.247827, 0.035375, -0.021642, 0.134143, 0.000000, 0.518389, 0.611799, -0.840696, 0.210062, 0.382222, 0.199692, 0.306514, -0.000000, -0.208602, 0.149468, -0.000000, 0.257109, 0.593680, -0.145181, 0.762925, 0.038434, 0.326723, -0.867797, -0.718931, 0.622573, 0.274648, -0.700766, 0.558261, -0.000000, -0.473273, 0.046250, -0.423958, -0.414598, 0.894378, -0.040712, -0.128800, -0.000000, -0.000000, 0.000000, 0.000000, 0.114071, -0.653278, -0.101171, 0.000000, -0.000000, -0.000000, 0.022042, -0.000000, 0.000000, 0.262874, 0.212917, 0.000000, -0.102315, -0.308665, -0.010430, -0.099418, 0.682141, -0.000000, 0.080723, 0.055879, -0.000000, 0.130926, 0.000000, -0.000000, -0.000000, 0.039559, 0.357852, -0.000000, -0.000000, 0.000243, -0.000000, 3.873171, -0.813897, -0.000000, 2.704281, -0.012046, 0.000000, -0.000000, -0.000000, 0.000000, 0.000010, -0.005302, 4.087390, -0.000000, 1.775903, -1.377392, -0.635459, -0.477967, -1.200018, 0.000000, -0.000000, -0.010087, -0.000000, -0.053566, 0.000000, -0.000000, -0.000000, -0.021578, 0.358233, 0.340681, -0.000000, 0.157225, -3.147325, 0.642299, 0.309772, 0.333945, 0.274972, -0.178482, -0.000000, 0.032467, 0.312604, 0.000000, 0.458298, 0.115866, 0.318398, -3.619240, -0.006104, 0.658878, -0.064487, 0.709576, -0.340305, -0.223298, -0.069728, 0.559890, -0.000000, 0.073054, -0.531858, -0.536394, -0.561199, 0.372731, 1.092323, 0.341296, 0.000000, -0.369338, -0.271155, 1.544461, 0.021737, -1.033850, 0.554802, -0.353041, 0.000000, 1.800285, 0.996049, 0.000000, 0.490978, -0.233958, -0.005433, -1.100675, -0.440808, 0.014001, -0.412471, 0.018852, -0.754884, 1.026399, -1.306528, 0.281386, -0.000000, -0.000000, -0.000000, -0.608322, -1.425998, -0.034947, -0.515735, -0.226343, -0.000000, -0.247419, -0.086921, -0.664208, 0.565342, -1.004863, -1.249781, -0.384165, 0.000000, -4.075745, -0.141998, -0.000000, 0.414412, -0.512346, 1.024979, 0.520826, 0.536672, 0.509737, 0.650253, -0.348710, -0.736638, -0.271768, 0.241883, 0.187214, 0.000000, 0.707015, -0.031554, 0.223922, 0.022967, 0.741000, -0.441355, -0.132566, -0.000000, -0.177460, -0.000000, -0.033807, 0.335570, -0.118074, 1.244342, 0.045837, -0.000000, -1.397816, -0.514117, -0.000000, -0.000000, -0.380762, 0.371052, 0.000000, -0.683196, -0.467881, -2.085494, -0.572133, -0.010010, -2.546360, -0.137946, -3.349914, -0.000000, 0.311036, 0.088275, -0.000000, -0.000000, -0.348262, -0.149258, -0.189120, -0.000000, -0.543031, 0.368227, -0.325272, -0.396265, 0.503399, -0.457604, 0.023800, -0.000000, 0.800718, -0.515431, 0.000000, -0.069030, 0.190897, -0.000031, 0.372103, 0.047401, -0.336399, 0.003518, -0.188509, 0.007087, -0.274416, -0.415776, 0.149222, 0.000000, -0.000000, 0.052962, -0.259006, -0.429915, -0.807959, 0.156423, 0.884393, -0.000000, -2.598363, -0.643022, 0.596392, 0.000000, -3.176990, 0.576765, -0.031319, 0.000000, -1.711371, -0.592139, -0.000000, -0.898370, -0.295138, -0.210594, 0.291228, -3.759954, 0.115719, 0.004296, 0.353232, -0.011968, -0.148690, -0.425895, -0.725355, 0.000000, 0.066264, -0.000009, 0.273020, -0.167064, 0.640081, 0.856307, -0.689600, 0.000000, -0.721688, 0.616791, -0.595418, -0.062959, -0.774985, 0.211655, 0.476146, -0.000000, -2.196257, -0.590041, -0.000000, -0.885434, 0.140883, -0.020719, 0.279676, -1.342881, -0.063785, -0.509275, 1.141468, 0.479528, -1.325502, 0.123252, -0.229350, 0.000000, 0.222956, -0.083488, -0.695363, -0.038500, 0.491595, -0.008489, -0.040762, -0.000000, 0.110883, 0.069884, 0.422115, 0.812329, -0.260913, -0.198453, 0.580503, 0.000000, 0.342450, 0.046931, 0.000000, 0.236721, 0.265481, -4.138027, 0.019082, 0.073378, 0.376933, 0.231011, 0.217300, 0.522368, 0.281397, -0.270763, 0.173913, -0.000000, 1.366248, 0.446532, -0.308923, -0.298932, 0.746152, 1.484944, 1.042864, -0.000000, 0.683617, -1.388692, 0.592285, 0.000000, 0.027328, 0.787218, -0.195114, -0.000000, 1.417999, 1.067028, -0.000000, 0.105918, -0.478518, -0.036156, -0.674097, 0.158838, -0.000000, 0.642357, 0.000000, -0.451974, 1.258090, 1.552928, 0.357992, 0.000000, -0.000000, -0.020630, 1.422594, 1.353564, -0.000000, 1.334216, 0.236145, 0.000000, 1.381621, -0.978528, 1.932471, 0.000000, 0.944235, 0.439244, -0.629111, -0.000000, -0.000000, 1.149670, -0.000000, 1.305366, -0.582391, 0.022179, -1.129050, 0.000000, -0.829781, -0.617700, -0.020921, -1.818054, 1.124967, -0.318472, 1.035523, -0.000000, 0.004100, 0.000000, -0.519330, -0.285139, -0.017421, 0.242338, -0.160423, 0.000000, -0.652470, -1.730350, -1.054033, -0.000000, -0.931888, 0.491728, -1.343168, -0.000000, 0.422653, -0.117660, -0.000000, -0.514922, -0.444532, -0.256033, -0.697252, 0.194372, 0.190440, 0.139906, 0.280846, -0.943826, 0.738496, 0.139223, -4.614942, 0.000000, 0.107915, -0.051076, 0.354642, 0.072791, 0.081290, 0.189059, 0.386169, -0.000000, 0.301585, -3.136769, 0.218762, -0.000318, 0.171587, 0.691321, -0.265490, -0.000000, 0.683810, 0.216216, -0.000000, 0.760637, -0.365288, 0.197318, -2.249326, 0.339424, 0.135596, -0.033357, 0.426896, -1.365661, 1.277605, 0.270931, -1.412925, -0.000000, -0.093037, -0.221635, 0.337181, -0.209932, -0.633948, -0.210185, -0.942999, -0.000000, -0.066480, -0.016484, -0.080129, -0.182610, -0.292892, -0.212838, -0.378406, -0.000000, -0.523922, -0.858718, -0.000000, 0.145339, 0.097287, 0.331772, -0.000000, -0.079828, 0.067392, 0.028783, -0.297612, -0.388799, 0.030725, -0.054207, -0.102855, -0.000000, 0.364208, 0.033956, 0.136832, -0.007245, -1.051576, -0.599353, -0.002351, -0.000000, 0.641754, 0.149422, -0.064545, -7.164785, 0.562050, -0.184699, 0.140000, -0.000000, 0.118528, -0.657364, -0.000000, 0.771609, 0.414727, -0.117633, 0.330033, 0.226978, -0.829190, 0.219116, -1.523048, 0.467594, -0.054459, 0.404334, 0.821875, 0.000000, -0.078732, 0.057896, 0.719653, 0.226787, -3.855031, 1.666613, 0.238624, -0.000000, 0.518804, -0.092786, 2.015696, -0.015188, -0.766564, 1.291004, -0.474437, -0.000000, 0.155294, 0.524813, -0.000000, 0.244999, -0.475593, 0.220077, -0.666243, -1.011853, 0.106338, 0.347522, 0.044587, -0.308012, 0.842900, 0.963651, 0.513509, 0.000000, 0.005934, -0.000159, 0.409354, 0.716937, 0.031479, -0.420828, -0.032576, 0.000000, 0.308845, -0.373310, 0.466844, -3.401880, 0.462939, -0.189912, 0.361362, -0.000000, -0.351086, -0.221803, -0.000000, 0.763187, 0.014685, 0.018440, -0.230251, 0.406840, -2.137361, -0.254887, -2.606543, 0.334496, 0.061623, -0.235957, 0.780245, -0.000000, -0.000000, -0.249863, 0.474170, 0.166105, -1.722468, -1.342695, 0.616139, 0.000000, 0.472735, 0.543483, -0.026466, -1.686162, 1.052701, -0.832706, 0.398050, -0.000000, 0.311055, 1.293889, -0.000000, 0.278629, 0.362355, -0.623876, 0.488501, 0.562450, -1.615375, -1.319865, -1.469980, 0.792775, 0.036600, -0.244198, 0.767707, 0.000000, -2.960594, 0.359940, -1.002647, -0.497056, -1.519868, 0.497477, 0.039355, -0.000000, -0.529103, 0.607573, -0.397921, -0.279546, -0.592531, -0.320477, 0.179630, 0.000000, 0.238879, -0.153718, -0.000000, -0.838666, 0.035898, -2.434513, 1.252200, -0.620197, -0.219477, -0.301332, 0.187671, 0.318046, -0.223402, -0.198576, -1.199028, -0.000000, -1.087561, -0.093862, -0.161198, -0.847015, -0.413411, 1.260230, 0.131010, -0.000000, 0.196262, -0.390730, 1.625607, 0.000000, -0.444783, 0.798296, -0.291972, 0.000000, -0.660570, 0.387183, -0.000000, 0.488291, -0.382917, -0.000000, -0.594213, -1.901590, 0.000000, 0.329350, -0.000000, -0.276397, 0.741252, 1.357078, 0.886195, 0.000000, -0.000000, -0.000000, 1.464438, 1.203532, -0.000000, 0.147260, -0.108698, 0.000000, 0.000000, -0.103768, 0.209173, -0.034273, -0.545798, -0.091542, -0.009059, 0.000000, 0.026187, 0.000439, -0.000000, 0.180275, 0.270841, -0.293304, -0.068828, 0.034494, -0.131361, -0.049916, 0.235740, 0.645818, 0.021186, 0.056989, 0.017177, -0.000000, -0.055042, 0.000000, -0.017794, -0.016327, 0.191608, 0.438424, -1.502635, -0.000000, -1.268547, 0.307848, 0.128262, 0.000000, -0.132312, 0.770940, 0.704415, -0.000000, 0.267559, -1.556025, 0.000000, -0.504027, 0.734786, 0.328668, 0.596999, 1.208525, 0.077405, 0.418156, 0.080799, 0.776489, -1.177692, 0.430198, -1.941968, 0.000000, 0.120015, -0.029549, -0.556180, 0.111598, 0.196264, 0.320899, -0.000000, 0.000000, -0.000240, -0.000000, -0.695139, 0.417642, -0.000000, 0.364485, -0.106432, -0.000000, -0.000000, -0.000000, -0.000000, -0.000000, -1.128144, -0.480821, -0.000000, 0.589329, 0.057831, -0.253390, -0.017128, -0.252895, 0.000000, 0.005906, 0.314783, -0.000000, 0.095551, -0.005730, -0.000000, -0.000000, -0.254357, -0.000000, 0.000000, 0.000000, -0.000000, -0.000000, -0.000000, -0.000000, -0.000000, -0.000000, 0.000000, -0.000000, -0.000000, 0.000000, -0.000000, 0.000000, 0.000000, 0.000000, -0.000000, -0.000000, 0.000000, 0.000000, 0.000000, -0.000000, -0.000000, 0.000000, 0.000000, -0.000000, 0.000000, -0.000000, 0.000000, 0.000000, 0.000000, 0.508588, -0.368823, -0.000000, -1.123501, 1.103659, -1.465656, 0.144656, -0.666893, -0.853519, 0.344818, 0.000000, -0.172887, 0.010182, -0.000000, -1.660932, 0.339298, 0.233868, 1.108359, -1.671452, -0.198351, 0.473759, 0.165166, -0.312264, -0.183308, -0.642692, -2.407612, -0.000000, -0.328201, -0.048332, -0.875995, -0.636997, 0.074054, 0.276188, 0.378894, -0.000000, 0.370581, 0.240100, -0.053687, 0.150733, 0.231539, 0.077886, 0.449132, -0.000000, 0.207259, 0.508673, -0.000000, 0.030181, 0.652466, -0.042859, 0.688154, 0.243671, -0.439325, -0.231739, -0.161984, 0.521239, 0.473822, -0.139812, -0.226721, -0.000000, -1.199567, -0.072383, 0.099598, -0.156339, -0.426546, -0.439806, 0.537952, -0.000000, 0.463053, 0.307514, -0.182791, 0.231266, 0.603882, -0.878636, -0.983025, 0.000000, -0.615020, 0.651183, -0.000000, 0.454590, -0.436017, 0.103694, -0.077243, 0.765542, 0.055092, -0.176583, 0.146676, -0.723990, 0.809718, 0.147764, 0.490370, -0.000000, -0.355506, -0.036685, 0.428965, -0.212230, -0.333810, -0.034980, 0.168388, -0.000000, -4.320905, -0.000027, -0.009592, -0.022134, -2.744097, 0.043905, 1.192508, -0.000000, -0.068055, -0.159119, 0.000000, -1.062058, 0.337277, 0.614463, 0.000000, -0.188540, -1.196359, -0.937875, -0.283258, 0.731895, -0.170894, -0.121834, -0.455197, 0.000000, 0.311148, -0.043049, -0.000000, -0.000000, -0.388219, -1.534141, -0.285808, -0.000000, -0.034392, -0.888694, 0.476959, 0.044039, -0.203527, 0.001082, 0.407655, -0.000000, -0.115280, -0.335900, -0.000000, -0.446080, -0.419913, 0.300062, -0.810908, -0.109842, 0.485759, 0.254032, 0.248949, 0.251433, 0.080514, -0.588424, 0.211922, 0.000000, -0.108278, 0.044688, -1.042716, -0.133669, 0.106556, 0.515623, 0.484034, -0.000000, 1.045706, -0.948498, 1.140194, -0.000000, 1.038004, 0.166301, -0.447811, 0.000000, -0.000000, 0.758613, 0.000000, 0.233384, -0.551675, -0.093875, -0.679206, -0.000040, -0.608818, -0.416315, -0.000000, -1.086932, 0.726052, -0.638395, -0.203696, -0.000000, -0.005635, -0.000000, -0.312062, -0.484932, 0.000000, 0.132152, -0.689422, -0.000000, -4.558449, 0.028438, -0.330357, -1.093166, -1.420943, 0.089858, -0.402520, -0.000000, -2.142505, -1.482111, -0.000000, -1.775735, 0.262054, 0.525281, 0.468597, -1.267637, -0.223503, -0.314195, 0.329632, 0.012608, -2.391948, 0.109903, -1.425542, -0.000000, -0.725691, 0.193915, 0.247609, -0.176570, 0.259098, -0.230385, -1.470401, 0.000000, -0.124378, -0.000000, 0.000000, 0.933032, -0.303840, 0.540938, 0.268780, -0.000000, -1.455410, -0.514263, 0.000000, 0.000000, -0.723885, -0.807198, 0.000000, -0.000000, -1.228530, 0.000000, 0.097057, 0.256416, 0.717601, -0.015915, 0.000000, 0.000000, -0.354718, -0.425882, -0.000000, -0.000000, -0.089968, -0.315021, 0.043613, -0.000000, 0.024583, 0.000000, 0.025840, -0.120895, -0.436441, -0.257241, 0.020343, -0.000000, 0.017000, 0.069033, -0.000000, 0.200692, 0.297102, -0.310643, 0.000000, 0.226681, 0.159889, 0.017154, 0.399008, 0.483160, -0.025088, 0.038728, 0.121761, 0.000000, 0.228802, 0.000000, -0.000000, 0.000000, 0.386488, 0.114515, -0.376483, 0.000000, -0.357876, -1.752796, -0.685465, -0.119186, -0.201601, -0.467096, -0.098920, -0.000000, 0.056457, -0.062319, 0.000000, -2.218772, -0.433614, -1.213957, -0.777079, -0.256807, -0.370154, 1.200819, -2.331417, -0.221114, 0.159010, 0.159489, -3.550101, 0.000000, -2.639510, 0.201612, 0.245924, 0.147509, 0.148883, -0.119193, -0.065099, 0.000000, 0.454103, 0.255961, -0.275774, 0.632485, 0.375435, -0.007617, 0.517791, 0.000000, -0.000000, -0.292908, -0.000000, 0.116235, 0.202555, 0.026578, 0.314127, 0.429161, 0.323239, -0.085609, 0.456816, 0.383900, 0.110129, 0.348141, 0.110006, 0.000000, -0.067027, -0.001461, -0.065994, 0.458181, 0.410056, -0.922439, -0.365042, 0.000000, -0.204232, -0.152481, 0.219516, -0.157276, -0.287219, -0.784401, -0.999853, -0.000000, -2.741224, -0.404086, -0.000000, 0.568484, -1.063158, -0.226479, -0.575871, 0.763114, 1.071052, 0.524431, -0.285988, -0.728551, -0.036529, 0.305950, 0.584734, 0.000000, 0.283241, -0.021366, 0.267187, 0.196063, 0.475366, -0.108407, -0.145009, -0.000000, 0.218105, 0.798417, -0.734323, 1.201088, 0.106274, 0.255252, 0.661079, 0.000000, -0.093394, -0.359730, -0.000000, 0.320508, 0.370750, -0.000000, 0.374896, -0.307441, 0.540199, -0.625709, 0.415226, 0.461943, -0.297424, -0.306373, 0.581664, -0.000000, -0.075156, 0.039274, -0.767024, -0.316362, 1.016202, -0.245856, -1.369716, -0.000000, -5.029690, 2.484096, 0.392501, 4.305826, -4.567191, 3.839204, 2.640873, -0.000000, -3.827471, -3.906593, 0.000000, -2.216120, 1.005621, 4.747361, 3.031137, -2.489791, 1.858720, -0.334607, 3.720983, 2.085812, -3.106165, -1.209674, -2.813592, 0.000000, -0.192240, 0.017353, -2.514630, -1.533501, 1.857457, -0.080777, 0.370900, -0.000000, 0.003093, 0.632331, -0.613050, 0.827065, 0.134326, 0.042487, -0.264562, 0.000000, -0.221604, 0.263918, -0.000000, 0.336244, -0.323105, 0.195656, 0.023639, 0.641819, 0.285206, 0.244111, 0.251306, -0.156431, 0.337214, -0.215289, 0.081251, 0.000000, 0.405692, -0.005828, 0.567383, -0.283831, 0.240926, 0.913995, -0.936666, 0.000000, -0.433617, 1.251811, -0.286458, -0.041048, -0.638947, 0.099119, 0.477164, 0.000000, -1.884253, -0.357313, -0.000000, -0.693905, 0.653331, -0.278795, 0.908514, -1.269467, -0.333956, -0.511418, 1.037642, 0.774576, -0.757464, 0.152062, -0.150297, -0.000000, 0.291087, -0.051047, -0.291088, 0.072111, 0.416662, -0.553846, 0.255587, 0.000000, 1.068884, -0.666897, -2.614575, -0.139385, 0.319545, -0.135095, -0.622596, -0.000000, -0.099809, 0.119936, 0.000000, -0.327150, 0.240004, 0.131006, -2.748705, 0.105191, -0.313831, -0.149607, -0.403761, -1.255568, 0.047898, 0.005409, -0.006293, 0.000000, 0.625098, -0.020398, -0.000000, -0.000000, -0.051978, -0.702419, -0.040309, 0.000000, 0.828799, -0.000000, -3.690203, 0.076986, 0.387017, 0.354572, -6.550739, -0.000000, -0.020937, 0.355092, -0.000000, -0.766265, -2.973290, 0.120017, 0.000000, 0.335939, -0.454683, 0.223254, -0.098337, -6.972981, 0.108453, -0.091210, 0.000471, -0.000000, 0.835631, -0.063051, -0.000000, -0.000000, -0.420477, -1.541061, -0.000032, -0.000000, 0.551311, -0.265536, 0.963075, -1.846561, -0.000000, 0.612466, -0.217998, 0.000000, -0.087558, -0.016327, -0.000000, 0.432229, -0.264003, 1.115715, -0.207409, 1.545733, 0.959600, 0.498074, -2.101482, 0.120669, 0.158221, 0.117350, 0.386957, -0.000000, -0.298735, -0.008249, -0.081968, -0.071685, -0.538145, -0.125627, -1.310322, -0.000000, -1.071837, -0.459488, 1.088284, 0.505206, -0.866574, -0.836265, -0.913186, 0.000000, -1.469646, -1.623282, -0.000000, 0.390098, -0.875722, 0.211907, -0.175976, -0.619979, 0.259434, 0.357049, 0.100538, -0.791754, -1.105194, -1.061024, -0.656434, 0.000000, 2.482504, 0.208887, -1.611785, -0.786420, 0.565090, -0.287978, -0.287482, -0.000000, 0.499243, 0.568608, -0.876045, 0.537765, 0.559599, 0.404733, 0.187060, -0.000000, -0.520714, -0.112550, 0.000000, 0.334261, 0.629439, 0.222487, 0.345676, -0.549623, -0.483748, -0.514985, 0.403713, 0.303161, 0.042521, -0.258813, 0.293397, 0.000000, -0.396337, -0.016485, -0.685598, -0.074104, 0.091237, -0.255049, 0.308230, -0.000000, 0.344680, 0.304660, -0.601390, -0.462012, 0.416452, 0.323004, 0.310360, -0.000000, 0.043862, 0.151528, -0.000000, 0.312179, 0.220983, -0.634945, 0.857048, 0.601474, -0.320446, 0.219763, 0.640497, 0.263840, 0.344706, -0.178801, -0.303464, -0.000000, -0.136959, -0.069181, 0.002071, 0.179567, -0.274738, 0.306358, -0.192691, -0.000000, 0.000000, 0.000000, -0.172164, -0.000000, -0.885982, 0.168009, -0.000000, -0.000000, -0.001389, -0.000000, 0.000000, -0.000620, 0.021279, 0.336258, -0.000002, -0.000049, 0.013588, 0.005474, 0.574602, 0.110167, -0.000000, 0.404091, -0.022920, 0.000000, 0.369071, -0.037073, 0.007504, -0.000000, 0.548625, -0.027092, -0.027632, -0.000000, -0.000000, -0.000000, 0.000000, -0.011579, -0.184813, -0.000796, 0.000000, -0.000000, 0.018817, 0.004684, -0.000000, -0.000000, 0.162257, 0.055962, -0.000000, -0.000046, -0.015948, 0.000000, 0.039259, 0.227211, 0.000190, -0.030398, 0.000000, -0.000000, -0.031121, -0.000000, 0.000000, -0.000000, 0.032413, -0.563854, 0.353934, -0.000000, 1.231896, 0.577393, 0.307627, -2.139240, -0.487940, -1.475213, 0.823430, -0.000000, -0.516716, 0.290784, -0.000000, -1.655813, 0.301334, -0.817860, 0.435966, -0.193445, -1.558041, 0.655238, 0.702889, 0.583567, -0.823686, -0.116250, -0.961971, -0.000000, -1.178646, -0.266983, 0.452273, 0.161498, -0.222085, 0.424026, 0.166197, -0.000000, 1.102623, -0.175372, 0.929088, -0.033327, 0.878927, -0.314270, -0.589283, 0.000000, 2.576501, 0.735284, -0.000000, 0.340739, 0.145305, -0.173918, -0.317830, -0.331142, 0.526563, 1.059185, -2.305960, 0.512214, 1.034827, 0.358619, 0.062067, 0.000000, -0.066453, -0.028324, -0.040976, 0.763652, -0.813847, 0.171376, 0.276576, 0.000000, -0.242538, -0.047010, 0.997668, -0.115763, 1.724670, -0.088046, -2.545642, -0.000000, 4.107330, -0.571726, -0.000000, 1.490524, 0.171447, 0.045883, -1.605546, -0.720920, 0.212817, -0.264001, 0.446802, -0.152041, -0.187250, -0.344506, 0.610586, -0.000000, 0.198480, -0.000504, -0.731114, -0.690922, 0.428706, -0.043550, -0.255319, -0.000000, -2.455436, -1.842992, -0.132756, -0.000000, 0.363121, 0.496639, -0.282565, 0.000000, -1.572111, -2.206788, 0.000000, -0.708813, 0.017880, 0.422657, 0.096712, -1.749971, -0.085995, 0.098869, 0.492116, 0.234340, -1.475124, -0.078238, -2.160820, -0.000000, 0.306345, 0.054099, -0.295873, -0.399657, 0.240009, 0.263839, -0.338529, -0.000000, -0.358149, -1.480224, -0.526719, -0.221709, -0.029139, -0.123936, -0.190424, -0.000000, -0.006429, -0.374463, 0.000000, -0.274191, -0.361583, 0.127776, -1.598532, 0.168855, -0.286809, -0.065209, -0.404787, -0.368129, -0.087690, -1.293042, 0.303985, -0.000000, -0.031144, -0.018511, -1.016092, -0.730434, 0.030759, -0.195582, 0.504912, 0.000000, 0.654736, 0.122747, -0.235172, 0.356096, 0.250337, -0.192427, -0.107591, -0.000000, 1.056937, 0.571829, 0.000000, 0.452437, -0.258352, -1.004693, -0.215755, 0.388262, 0.086779, -0.238085, 0.421882, -0.376073, 0.101167, -0.374066, -0.092457, 0.000000, 0.191468, -0.019022, 0.666728, -0.070554, -0.058117, -0.322440, 0.270576, -0.000000, 0.337993, -0.000000, -0.662089, -0.011463, -0.091759, 0.296275, -0.910239, -0.000000, -0.459227, -0.145561, 0.000000, -0.000000, 0.200173, 0.433252, -0.498667, -0.059364, 0.343189, -0.144681, 0.412313, -0.537216, 0.213716, 0.008831, -0.000000, -0.000000, -0.026675, -0.059939, 0.220068, -0.454938, -0.097003, 0.114068, -0.061355, 0.000000, -6.992912, 1.590394, -0.255719, 0.601044, -0.018848, -0.252375, -0.576261, -0.000000, -1.818096, -2.412234, -0.000000, -1.669669, 0.149365, 0.008361, 1.144130, -2.369565, 0.366034, 0.513487, 0.277143, 0.211675, -2.794940, 0.359369, -3.597234, -0.000000, 0.424318, 0.008587, -0.295112, -0.620604, 0.385125, -0.711610, 0.143170, 0.000000, 0.172639, 0.830422, 0.641803, -3.557983, 0.892094, 0.557306, 0.184300, -0.000000, 0.577877, -0.194181, -0.000000, 0.886021, 0.032683, -0.090639, 0.686690, 1.771275, -2.798131, 0.391335, -2.275169, 0.017912, 0.372173, 0.203161, 0.806238, -0.000000, 0.104968, -0.119434, 0.290855, 0.409782, -3.310325, 0.332049, 0.087177, -0.000000, 0.086875, 0.320239, -3.200133, 0.000198, 0.050378, 0.082246, -0.087500, -0.000000, 0.085457, 0.198551, -0.000000, -7.130361, 0.452656, -0.282015, -0.173081, 0.092735, 0.363644, -1.689610, -0.160295, -0.002069, 0.181908, 0.225099, -1.080209, 0.000000, -0.357678, 0.087664, 0.103698, 0.058390, 0.338831, -0.863969, 0.421170, -0.000000, 0.119222, -0.005647, -0.489422, 0.999368, 0.337666, -0.205711, -0.950809, -0.000000, -1.057408, 0.346402, 0.000000, 0.743113, -0.577572, 0.287123, -0.271291, 0.492099, 0.381985, -0.010376, 0.308871, -0.716890, 0.175004, -0.087029, 0.363960, 0.000000, 0.696417, -0.023073, 0.357076, -0.226472, 0.773282, -0.495744, -0.271014, -0.000000, -0.420899, 0.741189, -4.988870, 1.062478, -0.329339, 0.049336, 1.188885, 0.000000, -4.563791, -0.954131, -0.000000, -0.556390, 0.802926, 1.983780, 0.735228, -0.916579, -0.258972, -0.283014, 0.585085, 1.018691, -0.978704, 0.553227, -0.381172, -0.000000, -1.075251, -0.015642, -1.697609, 0.243147, 0.279453, -2.178684, -0.111743, -0.000000, -0.115871, -0.450053, 0.096026, 0.040311, -0.241481, 0.020964, 0.403895, 0.000000, -0.108645, -0.254192, -0.000000, -0.544255, -0.300922, 0.044623, -0.311207, -0.045418, 0.585990, 0.589382, 0.387191, 0.691087, -0.324834, -0.267698, 0.178428, -0.000000, -0.258521, -0.022459, 0.123486, -0.087100, 0.367045
};

// Shape: (32,)
static const float B1[32] ALIGN16 = {
    0.916508, 0.366809, -0.326690, 0.567742, -0.249608, 0.285627, 0.506743, 0.284604, -1.620878, 0.517399, -0.187882, 0.562621, 0.468626, -0.093249, 0.184206, 0.658696, -1.461062, -0.141827, 0.108298, 0.511961, -0.168678, 0.541555, 0.656380, 0.338416, -0.259015, 0.195297, -0.208304, -0.566493, -0.650598, -0.380185, -0.006168, 0.372517
};

// Shape: (32, 1)
static const float W2[32] ALIGN16 = {
    0.542616, 0.227526, 0.000000, 5.095997, -2.088552, 3.252250, -1.436690, 1.980894, 0.789484, -1.203646, 0.000000, 4.178005, 0.799299, -0.000000, 3.336034, -0.293653, 1.526945, -1.696875, 2.021782, -0.757918, -0.464579, -1.023679, -1.278893, 1.234714, -0.383178, 3.320745, 0.000000, -1.089884, -0.007944, -1.479328, -0.730218, -0.586228
};

// Shape: (1,)
static const float B2[1] ALIGN16 = {
    -0.313029
};

// Weight & bias pointers per layer
static const float *WEIGHTS[NUM_LAYERS] = { W0, W1, W2 };
static const float *BIASES[NUM_LAYERS]  = { B0, B1, B2 };

#undef ALIGN16
