{
    "n_estimators": 1,
    "max_depth": 20,
    "feature_importances": [
        0.00489076228460676,
        0.08511384934556121,
        0.0,
        0.03761478671578071,
        0.050752051338255603,
        0.0004791432394510483,
        0.026236912974497616,
        0.010520476577023609,
        0.0033153179120267496,
        0.7695195062859689,
        0.000566920039351501,
        0.010990273287476166
    ],
    "estimators": [
        {
            "n_nodes": 4397,
            "children_left": [
                1,
                2,
                3,
                4,
                -1,
                6,
                -1,
                8,
                9,
                10,
                -1,
                -1,
                13,
                -1,
                -1,
                -1,
                17,
                18,
                19,
                20,
                -1,
                22,
                -1,
                24,
                -1,
                -1,
                -1,
                28,
                29,
                -1,
                31,
                32,
                33,
                34,
                35,
                36,
                -1,
                -1,
                -1,
                40,
                -1,
                -1,
                -1,
                44,
                -1,
                46,
                47,
                -1,
                49,
                50,
                51,
                52,
                53,
                -1,
                -1,
                -1,
                -1,
                -1,
                59,
                -1,
                -1,
                62,
                -1,
                -1,
                65,
                -1,
                -1,
                68,
                -1,
                -1,
                71,
                72,
                73,
                74,
                -1,
                76,
                77,
                78,
                -1,
                80,
                -1,
                -1,
                -1,
                -1,
                85,
                86,
                -1,
                -1,
                -1,
                90,
                91,
                92,
                -1,
                -1,
                95,
                -1,
                -1,
                98,
                99,
                -1,
                101,
                -1,
                -1,
                -1,
                -1,
                -1,
                107,
                108,
                109,
                110,
                111,
                112,
                -1,
                114,
                -1,
                -1,
                117,
                118,
                119,
                -1,
                121,
                122,
                -1,
                124,
                -1,
                -1,
                127,
                -1,
                -1,
                -1,
                131,
                132,
                -1,
                -1,
                135,
                136,
                -1,
                138,
                -1,
                140,
                -1,
                -1,
                -1,
                144,
                -1,
                146,
                147,
                -1,
                -1,
                -1,
                151,
                152,
                153,
                154,
                155,
                156,
                -1,
                -1,
                159,
                160,
                -1,
                -1,
                163,
                -1,
                165,
                166,
                167,
                -1,
                -1,
                -1,
                171,
                -1,
                -1,
                -1,
                -1,
                -1,
                177,
                178,
                -1,
                -1,
                -1,
                182,
                183,
                184,
                185,
                -1,
                187,
                -1,
                189,
                -1,
                -1,
                192,
                193,
                -1,
                -1,
                -1,
                197,
                198,
                199,
                200,
                201,
                202,
                -1,
                204,
                205,
                -1,
                -1,
                208,
                209,
                210,
                -1,
                -1,
                -1,
                214,
                215,
                -1,
                -1,
                -1,
                219,
                -1,
                221,
                -1,
                -1,
                224,
                225,
                226,
                -1,
                228,
                229,
                230,
                231,
                232,
                233,
                234,
                235,
                -1,
                -1,
                238,
                -1,
                -1,
                241,
                -1,
                -1,
                244,
                245,
                -1,
                247,
                -1,
                -1,
                -1,
                -1,
                252,
                253,
                254,
                -1,
                256,
                -1,
                -1,
                259,
                -1,
                -1,
                262,
                -1,
                264,
                265,
                266,
                -1,
                -1,
                -1,
                -1,
                -1,
                272,
                273,
                274,
                275,
                276,
                277,
                278,
                -1,
                -1,
                281,
                -1,
                -1,
                284,
                -1,
                -1,
                -1,
                288,
                -1,
                -1,
                291,
                -1,
                -1,
                294,
                295,
                296,
                -1,
                298,
                -1,
                -1,
                301,
                302,
                303,
                -1,
                305,
                -1,
                -1,
                -1,
                309,
                -1,
                311,
                312,
                -1,
                -1,
                315,
                -1,
                -1,
                318,
                -1,
                320,
                -1,
                322,
                323,
                -1,
                325,
                -1,
                -1,
                328,
                -1,
                -1,
                331,
                -1,
                -1,
                334,
                335,
                336,
                337,
                338,
                339,
                340,
                341,
                -1,
                -1,
                -1,
                345,
                346,
                347,
                -1,
                349,
                -1,
                -1,
                -1,
                353,
                -1,
                355,
                356,
                -1,
                -1,
                359,
                -1,
                -1,
                -1,
                363,
                364,
                365,
                366,
                -1,
                368,
                -1,
                -1,
                -1,
                372,
                373,
                -1,
                375,
                376,
                -1,
                -1,
                -1,
                380,
                381,
                382,
                -1,
                -1,
                385,
                -1,
                -1,
                388,
                -1,
                390,
                -1,
                -1,
                393,
                394,
                -1,
                396,
                397,
                398,
                -1,
                -1,
                -1,
                402,
                403,
                -1,
                -1,
                406,
                -1,
                -1,
                -1,
                -1,
                411,
                412,
                -1,
                414,
                415,
                416,
                -1,
                -1,
                -1,
                420,
                421,
                422,
                423,
                424,
                -1,
                -1,
                427,
                -1,
                -1,
                430,
                -1,
                -1,
                433,
                -1,
                -1,
                436,
                -1,
                438,
                439,
                440,
                -1,
                -1,
                443,
                -1,
                -1,
                -1,
                447,
                -1,
                449,
                450,
                451,
                452,
                453,
                454,
                -1,
                -1,
                457,
                -1,
                -1,
                460,
                461,
                -1,
                -1,
                464,
                -1,
                -1,
                -1,
                468,
                469,
                470,
                471,
                -1,
                -1,
                -1,
                475,
                -1,
                477,
                -1,
                -1,
                480,
                481,
                -1,
                -1,
                484,
                485,
                -1,
                -1,
                488,
                -1,
                -1,
                -1,
                492,
                493,
                494,
                -1,
                -1,
                497,
                498,
                -1,
                -1,
                501,
                502,
                503,
                -1,
                505,
                -1,
                -1,
                508,
                -1,
                -1,
                511,
                -1,
                513,
                -1,
                515,
                516,
                517,
                -1,
                -1,
                -1,
                521,
                -1,
                523,
                -1,
                -1,
                526,
                527,
                -1,
                529,
                530,
                -1,
                532,
                -1,
                534,
                -1,
                -1,
                537,
                -1,
                -1,
                540,
                -1,
                542,
                -1,
                544,
                545,
                546,
                547,
                548,
                -1,
                -1,
                551,
                -1,
                -1,
                554,
                555,
                -1,
                -1,
                558,
                -1,
                -1,
                561,
                -1,
                563,
                564,
                -1,
                -1,
                -1,
                -1,
                569,
                -1,
                -1,
                572,
                573,
                574,
                -1,
                576,
                577,
                578,
                579,
                580,
                -1,
                582,
                583,
                584,
                585,
                586,
                -1,
                -1,
                -1,
                590,
                -1,
                592,
                -1,
                -1,
                -1,
                596,
                -1,
                -1,
                599,
                600,
                601,
                602,
                603,
                604,
                -1,
                -1,
                607,
                -1,
                -1,
                -1,
                611,
                -1,
                613,
                -1,
                615,
                -1,
                -1,
                -1,
                619,
                620,
                621,
                -1,
                623,
                624,
                -1,
                -1,
                -1,
                628,
                629,
                -1,
                631,
                -1,
                -1,
                -1,
                635,
                -1,
                -1,
                638,
                639,
                640,
                641,
                642,
                -1,
                -1,
                -1,
                -1,
                -1,
                -1,
                649,
                -1,
                651,
                652,
                653,
                654,
                655,
                -1,
                -1,
                -1,
                659,
                660,
                661,
                -1,
                -1,
                664,
                665,
                -1,
                -1,
                -1,
                -1,
                670,
                -1,
                -1,
                673,
                674,
                675,
                676,
                -1,
                678,
                679,
                -1,
                -1,
                682,
                -1,
                -1,
                685,
                -1,
                687,
                -1,
                -1,
                690,
                691,
                -1,
                -1,
                694,
                -1,
                696,
                -1,
                -1,
                699,
                -1,
                701,
                702,
                -1,
                704,
                -1,
                706,
                -1,
                -1,
                709,
                -1,
                711,
                712,
                -1,
                -1,
                715,
                -1,
                -1,
                -1,
                719,
                -1,
                721,
                722,
                723,
                724,
                -1,
                726,
                727,
                728,
                -1,
                730,
                731,
                732,
                -1,
                -1,
                -1,
                736,
                -1,
                738,
                -1,
                -1,
                -1,
                742,
                743,
                744,
                -1,
                -1,
                -1,
                748,
                -1,
                -1,
                -1,
                752,
                -1,
                754,
                755,
                -1,
                757,
                758,
                759,
                760,
                -1,
                -1,
                763,
                764,
                -1,
                -1,
                -1,
                768,
                769,
                770,
                -1,
                -1,
                -1,
                774,
                -1,
                -1,
                777,
                -1,
                -1,
                780,
                -1,
                -1,
                -1,
                784,
                -1,
                786,
                787,
                788,
                789,
                -1,
                791,
                -1,
                793,
                -1,
                -1,
                796,
                -1,
                798,
                799,
                800,
                801,
                802,
                803,
                804,
                -1,
                -1,
                -1,
                808,
                -1,
                -1,
                811,
                -1,
                -1,
                814,
                -1,
                816,
                817,
                818,
                -1,
                -1,
                -1,
                822,
                823,
                -1,
                -1,
                -1,
                827,
                828,
                -1,
                830,
                831,
                -1,
                833,
                -1,
                -1,
                -1,
                837,
                -1,
                -1,
                -1,
                841,
                -1,
                -1,
                844,
                -1,
                846,
                847,
                -1,
                849,
                850,
                851,
                852,
                -1,
                -1,
                855,
                856,
                -1,
                -1,
                -1,
                860,
                -1,
                -1,
                863,
                -1,
                865,
                866,
                -1,
                -1,
                -1,
                870,
                -1,
                872,
                -1,
                -1,
                875,
                876,
                -1,
                -1,
                879,
                -1,
                -1,
                882,
                883,
                884,
                -1,
                886,
                887,
                888,
                889,
                890,
                891,
                892,
                893,
                894,
                895,
                896,
                897,
                -1,
                899,
                -1,
                -1,
                902,
                903,
                -1,
                -1,
                906,
                -1,
                -1,
                909,
                -1,
                911,
                912,
                -1,
                -1,
                915,
                -1,
                -1,
                918,
                919,
                920,
                -1,
                -1,
                -1,
                924,
                -1,
                926,
                -1,
                928,
                -1,
                -1,
                -1,
                932,
                933,
                934,
                -1,
                936,
                937,
                938,
                -1,
                -1,
                941,
                -1,
                -1,
                944,
                945,
                -1,
                -1,
                -1,
                -1,
                950,
                -1,
                952,
                953,
                954,
                955,
                -1,
                -1,
                958,
                -1,
                -1,
                961,
                962,
                -1,
                -1,
                965,
                -1,
                -1,
                -1,
                969,
                970,
                971,
                -1,
                973,
                974,
                -1,
                976,
                977,
                -1,
                -1,
                -1,
                981,
                -1,
                -1,
                984,
                985,
                986,
                -1,
                -1,
                -1,
                -1,
                991,
                992,
                993,
                994,
                -1,
                996,
                997,
                -1,
                -1,
                1000,
                -1,
                -1,
                1003,
                1004,
                1005,
                -1,
                -1,
                -1,
                1009,
                1010,
                -1,
                -1,
                -1,
                1014,
                1015,
                1016,
                1017,
                -1,
                -1,
                1020,
                -1,
                -1,
                -1,
                1024,
                -1,
                -1,
                1027,
                -1,
                -1,
                1030,
                1031,
                1032,
                -1,
                1034,
                1035,
                -1,
                -1,
                1038,
                -1,
                1040,
                -1,
                1042,
                1043,
                -1,
                -1,
                -1,
                1047,
                -1,
                -1,
                1050,
                -1,
                -1,
                1053,
                1054,
                1055,
                1056,
                1057,
                -1,
                -1,
                1060,
                1061,
                1062,
                -1,
                1064,
                1065,
                -1,
                -1,
                1068,
                -1,
                -1,
                -1,
                1072,
                -1,
                1074,
                1075,
                1076,
                -1,
                -1,
                1079,
                -1,
                -1,
                -1,
                1083,
                -1,
                1085,
                1086,
                1087,
                1088,
                1089,
                -1,
                -1,
                1092,
                -1,
                -1,
                -1,
                1096,
                -1,
                1098,
                1099,
                -1,
                -1,
                1102,
                -1,
                -1,
                1105,
                1106,
                1107,
                -1,
                1109,
                -1,
                -1,
                -1,
                1113,
                1114,
                1115,
                -1,
                -1,
                -1,
                1119,
                1120,
                -1,
                -1,
                1123,
                -1,
                -1,
                1126,
                1127,
                1128,
                1129,
                1130,
                -1,
                1132,
                1133,
                -1,
                -1,
                -1,
                -1,
                1138,
                -1,
                1140,
                1141,
                1142,
                -1,
                -1,
                1145,
                -1,
                -1,
                1148,
                1149,
                -1,
                -1,
                1152,
                -1,
                -1,
                -1,
                1156,
                1157,
                1158,
                1159,
                -1,
                1161,
                -1,
                -1,
                -1,
                -1,
                1166,
                -1,
                1168,
                1169,
                -1,
                1171,
                1172,
                -1,
                -1,
                -1,
                1176,
                -1,
                -1,
                1179,
                -1,
                -1,
                1182,
                -1,
                -1,
                1185,
                1186,
                1187,
                1188,
                -1,
                1190,
                1191,
                -1,
                -1,
                -1,
                -1,
                1196,
                -1,
                1198,
                1199,
                -1,
                1201,
                -1,
                1203,
                -1,
                1205,
                -1,
                -1,
                -1,
                -1,
                1210,
                -1,
                -1,
                1213,
                1214,
                1215,
                1216,
                1217,
                -1,
                1219,
                -1,
                1221,
                1222,
                -1,
                1224,
                1225,
                -1,
                -1,
                1228,
                -1,
                -1,
                1231,
                1232,
                -1,
                -1,
                -1,
                1236,
                -1,
                -1,
                1239,
                -1,
                -1,
                -1,
                1243,
                1244,
                -1,
                1246,
                -1,
                -1,
                1249,
                -1,
                1251,
                -1,
                1253,
                1254,
                1255,
                1256,
                1257,
                1258,
                1259,
                -1,
                1261,
                1262,
                -1,
                -1,
                -1,
                1266,
                -1,
                -1,
                1269,
                -1,
                -1,
                1272,
                -1,
                1274,
                1275,
                1276,
                1277,
                1278,
                -1,
                -1,
                1281,
                -1,
                -1,
                1284,
                -1,
                -1,
                -1,
                1288,
                1289,
                1290,
                -1,
                1292,
                -1,
                -1,
                1295,
                1296,
                -1,
                -1,
                1299,
                -1,
                -1,
                1302,
                -1,
                1304,
                -1,
                -1,
                -1,
                1308,
                -1,
                -1,
                1311,
                -1,
                1313,
                1314,
                1315,
                1316,
                -1,
                1318,
                1319,
                -1,
                1321,
                -1,
                -1,
                -1,
                1325,
                1326,
                1327,
                1328,
                1329,
                -1,
                -1,
                1332,
                -1,
                -1,
                1335,
                1336,
                -1,
                -1,
                1339,
                -1,
                -1,
                1342,
                1343,
                -1,
                1345,
                -1,
                -1,
                -1,
                -1,
                -1,
                1351,
                1352,
                1353,
                1354,
                1355,
                1356,
                1357,
                -1,
                -1,
                1360,
                -1,
                -1,
                -1,
                -1,
                1365,
                -1,
                -1,
                -1,
                -1,
                1370,
                1371,
                1372,
                1373,
                1374,
                -1,
                1376,
                -1,
                -1,
                1379,
                -1,
                -1,
                -1,
                1383,
                1384,
                -1,
                1386,
                1387,
                1388,
                1389,
                1390,
                -1,
                1392,
                -1,
                -1,
                -1,
                1396,
                -1,
                -1,
                1399,
                -1,
                -1,
                -1,
                1403,
                1404,
                -1,
                -1,
                1407,
                1408,
                1409,
                1410,
                -1,
                1412,
                1413,
                1414,
                -1,
                -1,
                1417,
                -1,
                1419,
                -1,
                1421,
                -1,
                -1,
                -1,
                1425,
                1426,
                1427,
                1428,
                1429,
                -1,
                -1,
                1432,
                1433,
                -1,
                1435,
                -1,
                -1,
                1438,
                -1,
                -1,
                1441,
                -1,
                -1,
                -1,
                -1,
                1446,
                -1,
                1448,
                1449,
                1450,
                1451,
                -1,
                -1,
                -1,
                -1,
                1456,
                -1,
                1458,
                1459,
                1460,
                1461,
                1462,
                1463,
                -1,
                -1,
                -1,
                1467,
                1468,
                -1,
                -1,
                1471,
                -1,
                -1,
                1474,
                -1,
                -1,
                -1,
                1478,
                -1,
                1480,
                1481,
                1482,
                1483,
                -1,
                -1,
                1486,
                -1,
                -1,
                -1,
                1490,
                1491,
                1492,
                -1,
                -1,
                -1,
                1496,
                -1,
                1498,
                -1,
                -1,
                1501,
                1502,
                -1,
                1504,
                1505,
                1506,
                1507,
                -1,
                1509,
                1510,
                -1,
                1512,
                1513,
                -1,
                -1,
                1516,
                -1,
                -1,
                -1,
                1520,
                -1,
                -1,
                1523,
                1524,
                1525,
                -1,
                1527,
                1528,
                1529,
                -1,
                -1,
                -1,
                1533,
                -1,
                -1,
                -1,
                1537,
                1538,
                -1,
                1540,
                -1,
                1542,
                -1,
                -1,
                -1,
                -1,
                1547,
                1548,
                -1,
                1550,
                1551,
                -1,
                -1,
                1554,
                1555,
                -1,
                1557,
                1558,
                1559,
                1560,
                -1,
                -1,
                -1,
                -1,
                -1,
                -1,
                -1,
                1568,
                1569,
                1570,
                1571,
                1572,
                1573,
                1574,
                1575,
                -1,
                1577,
                1578,
                -1,
                -1,
                -1,
                1582,
                1583,
                -1,
                1585,
                -1,
                1587,
                -1,
                1589,
                -1,
                -1,
                1592,
                1593,
                1594,
                -1,
                -1,
                -1,
                1598,
                1599,
                -1,
                1601,
                -1,
                1603,
                -1,
                1605,
                -1,
                -1,
                -1,
                1609,
                1610,
                1611,
                -1,
                1613,
                1614,
                1615,
                -1,
                -1,
                -1,
                -1,
                -1,
                1621,
                1622,
                -1,
                -1,
                -1,
                1626,
                -1,
                -1,
                1629,
                -1,
                -1,
                1632,
                1633,
                1634,
                -1,
                1636,
                1637,
                1638,
                1639,
                1640,
                -1,
                1642,
                -1,
                1644,
                -1,
                -1,
                1647,
                -1,
                -1,
                1650,
                -1,
                -1,
                1653,
                1654,
                1655,
                -1,
                1657,
                1658,
                -1,
                -1,
                1661,
                1662,
                -1,
                -1,
                1665,
                -1,
                -1,
                1668,
                -1,
                1670,
                -1,
                1672,
                -1,
                1674,
                -1,
                -1,
                -1,
                1678,
                -1,
                1680,
                1681,
                1682,
                1683,
                1684,
                1685,
                -1,
                -1,
                1688,
                -1,
                -1,
                1691,
                -1,
                1693,
                -1,
                -1,
                -1,
                -1,
                1698,
                1699,
                1700,
                1701,
                1702,
                -1,
                -1,
                1705,
                -1,
                -1,
                1708,
                -1,
                1710,
                -1,
                -1,
                -1,
                1714,
                1715,
                1716,
                1717,
                -1,
                -1,
                1720,
                -1,
                -1,
                -1,
                1724,
                -1,
                -1,
                -1,
                1728,
                -1,
                1730,
                1731,
                -1,
                1733,
                1734,
                -1,
                1736,
                -1,
                1738,
                -1,
                1740,
                1741,
                -1,
                1743,
                -1,
                -1,
                1746,
                1747,
                -1,
                -1,
                -1,
                1751,
                -1,
                1753,
                1754,
                -1,
                -1,
                -1,
                1758,
                -1,
                1760,
                -1,
                1762,
                -1,
                1764,
                1765,
                1766,
                1767,
                1768,
                -1,
                -1,
                -1,
                -1,
                1773,
                -1,
                1775,
                -1,
                -1,
                1778,
                1779,
                1780,
                -1,
                1782,
                -1,
                -1,
                1785,
                -1,
                -1,
                1788,
                -1,
                1790,
                -1,
                -1,
                1793,
                1794,
                1795,
                1796,
                -1,
                1798,
                -1,
                1800,
                -1,
                1802,
                1803,
                1804,
                -1,
                1806,
                -1,
                -1,
                -1,
                1810,
                -1,
                -1,
                1813,
                -1,
                -1,
                1816,
                -1,
                1818,
                1819,
                -1,
                1821,
                -1,
                -1,
                -1,
                1825,
                1826,
                -1,
                1828,
                1829,
                1830,
                1831,
                -1,
                1833,
                -1,
                -1,
                1836,
                -1,
                1838,
                -1,
                -1,
                -1,
                -1,
                1843,
                1844,
                1845,
                -1,
                -1,
                -1,
                1849,
                1850,
                1851,
                -1,
                1853,
                1854,
                1855,
                1856,
                -1,
                -1,
                -1,
                1860,
                -1,
                1862,
                -1,
                -1,
                1865,
                -1,
                -1,
                1868,
                -1,
                1870,
                -1,
                1872,
                1873,
                1874,
                -1,
                1876,
                -1,
                1878,
                -1,
                -1,
                1881,
                -1,
                -1,
                -1,
                1885,
                -1,
                1887,
                1888,
                -1,
                1890,
                1891,
                -1,
                -1,
                1894,
                1895,
                1896,
                1897,
                -1,
                -1,
                1900,
                -1,
                -1,
                -1,
                1904,
                -1,
                -1,
                1907,
                -1,
                1909,
                1910,
                1911,
                1912,
                1913,
                -1,
                -1,
                -1,
                1917,
                -1,
                1919,
                -1,
                -1,
                1922,
                -1,
                -1,
                1925,
                -1,
                -1,
                1928,
                -1,
                1930,
                1931,
                -1,
                -1,
                -1,
                1935,
                1936,
                1937,
                1938,
                1939,
                1940,
                1941,
                1942,
                1943,
                1944,
                1945,
                -1,
                -1,
                -1,
                -1,
                1950,
                -1,
                1952,
                1953,
                1954,
                1955,
                -1,
                -1,
                -1,
                1959,
                -1,
                -1,
                -1,
                1963,
                1964,
                1965,
                1966,
                1967,
                1968,
                1969,
                -1,
                1971,
                -1,
                1973,
                1974,
                -1,
                1976,
                -1,
                -1,
                1979,
                -1,
                -1,
                1982,
                -1,
                1984,
                1985,
                1986,
                1987,
                -1,
                -1,
                1990,
                -1,
                -1,
                1993,
                -1,
                -1,
                -1,
                1997,
                -1,
                1999,
                2000,
                -1,
                -1,
                2003,
                2004,
                -1,
                2006,
                -1,
                -1,
                2009,
                -1,
                -1,
                2012,
                2013,
                2014,
                -1,
                -1,
                2017,
                2018,
                -1,
                -1,
                -1,
                2022,
                -1,
                -1,
                2025,
                2026,
                2027,
                2028,
                -1,
                -1,
                -1,
                -1,
                2033,
                2034,
                2035,
                2036,
                2037,
                2038,
                2039,
                -1,
                -1,
                2042,
                -1,
                -1,
                2045,
                -1,
                -1,
                -1,
                2049,
                -1,
                -1,
                2052,
                -1,
                2054,
                2055,
                2056,
                -1,
                -1,
                -1,
                -1,
                2061,
                -1,
                -1,
                2064,
                2065,
                2066,
                2067,
                -1,
                2069,
                -1,
                2071,
                2072,
                2073,
                2074,
                -1,
                -1,
                -1,
                -1,
                2079,
                -1,
                -1,
                2082,
                -1,
                -1,
                2085,
                -1,
                2087,
                -1,
                -1,
                2090,
                2091,
                2092,
                -1,
                2094,
                -1,
                -1,
                2097,
                -1,
                -1,
                2100,
                -1,
                -1,
                2103,
                2104,
                2105,
                -1,
                -1,
                -1,
                2109,
                -1,
                -1,
                2112,
                2113,
                2114,
                2115,
                -1,
                -1,
                2118,
                -1,
                -1,
                2121,
                2122,
                2123,
                2124,
                2125,
                -1,
                -1,
                -1,
                2129,
                -1,
                -1,
                2132,
                -1,
                2134,
                -1,
                2136,
                2137,
                2138,
                -1,
                -1,
                -1,
                2142,
                -1,
                -1,
                2145,
                -1,
                -1,
                2148,
                2149,
                2150,
                2151,
                2152,
                2153,
                2154,
                2155,
                -1,
                -1,
                -1,
                2159,
                -1,
                -1,
                2162,
                -1,
                -1,
                2165,
                -1,
                -1,
                2168,
                2169,
                2170,
                -1,
                2172,
                2173,
                2174,
                -1,
                2176,
                -1,
                -1,
                -1,
                2180,
                2181,
                -1,
                2183,
                2184,
                -1,
                -1,
                -1,
                -1,
                2189,
                2190,
                2191,
                2192,
                2193,
                2194,
                -1,
                -1,
                2197,
                -1,
                -1,
                2200,
                -1,
                -1,
                2203,
                -1,
                -1,
                2206,
                2207,
                -1,
                -1,
                -1,
                -1,
                2212,
                2213,
                2214,
                2215,
                -1,
                2217,
                2218,
                2219,
                -1,
                -1,
                -1,
                2223,
                -1,
                -1,
                -1,
                2227,
                2228,
                -1,
                -1,
                2231,
                2232,
                -1,
                -1,
                -1,
                2236,
                2237,
                2238,
                -1,
                2240,
                -1,
                -1,
                -1,
                2244,
                2245,
                2246,
                2247,
                -1,
                2249,
                -1,
                -1,
                2252,
                -1,
                -1,
                2255,
                -1,
                -1,
                2258,
                -1,
                2260,
                -1,
                -1,
                2263,
                2264,
                2265,
                2266,
                2267,
                -1,
                -1,
                2270,
                -1,
                -1,
                2273,
                -1,
                2275,
                2276,
                -1,
                -1,
                -1,
                2280,
                -1,
                2282,
                2283,
                2284,
                2285,
                -1,
                2287,
                -1,
                -1,
                2290,
                -1,
                -1,
                -1,
                2294,
                2295,
                2296,
                2297,
                -1,
                2299,
                -1,
                -1,
                2302,
                -1,
                2304,
                -1,
                -1,
                2307,
                -1,
                -1,
                -1,
                2311,
                -1,
                -1,
                2314,
                2315,
                2316,
                2317,
                -1,
                -1,
                2320,
                -1,
                -1,
                -1,
                2324,
                -1,
                -1,
                2327,
                2328,
                2329,
                -1,
                -1,
                2332,
                2333,
                2334,
                -1,
                2336,
                -1,
                -1,
                2339,
                -1,
                2341,
                2342,
                2343,
                -1,
                2345,
                -1,
                -1,
                -1,
                -1,
                2350,
                -1,
                -1,
                2353,
                -1,
                -1,
                2356,
                2357,
                2358,
                2359,
                -1,
                -1,
                -1,
                2363,
                2364,
                -1,
                2366,
                -1,
                2368,
                -1,
                -1,
                2371,
                -1,
                2373,
                2374,
                2375,
                2376,
                2377,
                -1,
                2379,
                -1,
                -1,
                2382,
                -1,
                2384,
                -1,
                -1,
                2387,
                2388,
                -1,
                2390,
                2391,
                -1,
                -1,
                -1,
                -1,
                -1,
                2397,
                -1,
                -1,
                2400,
                -1,
                2402,
                -1,
                -1,
                2405,
                2406,
                2407,
                2408,
                2409,
                2410,
                2411,
                -1,
                2413,
                -1,
                2415,
                2416,
                -1,
                2418,
                2419,
                -1,
                -1,
                -1,
                2423,
                -1,
                2425,
                -1,
                -1,
                2428,
                -1,
                2430,
                2431,
                2432,
                -1,
                2434,
                -1,
                -1,
                2437,
                2438,
                2439,
                -1,
                -1,
                -1,
                2443,
                2444,
                2445,
                -1,
                2447,
                -1,
                -1,
                -1,
                2451,
                -1,
                2453,
                -1,
                2455,
                -1,
                -1,
                2458,
                2459,
                -1,
                -1,
                -1,
                2463,
                2464,
                -1,
                2466,
                -1,
                2468,
                -1,
                2470,
                2471,
                -1,
                2473,
                -1,
                -1,
                -1,
                2477,
                2478,
                2479,
                -1,
                -1,
                2482,
                -1,
                -1,
                2485,
                2486,
                -1,
                -1,
                -1,
                2490,
                -1,
                2492,
                2493,
                2494,
                2495,
                2496,
                2497,
                2498,
                2499,
                2500,
                2501,
                -1,
                -1,
                -1,
                2505,
                -1,
                -1,
                -1,
                -1,
                2510,
                2511,
                -1,
                2513,
                -1,
                -1,
                -1,
                2517,
                -1,
                -1,
                -1,
                2521,
                -1,
                2523,
                2524,
                -1,
                -1,
                2527,
                -1,
                2529,
                2530,
                -1,
                2532,
                2533,
                2534,
                -1,
                -1,
                2537,
                -1,
                -1,
                -1,
                2541,
                -1,
                2543,
                -1,
                2545,
                -1,
                2547,
                -1,
                -1,
                2550,
                -1,
                -1,
                -1,
                2554,
                2555,
                2556,
                2557,
                -1,
                2559,
                -1,
                -1,
                -1,
                2563,
                -1,
                -1,
                2566,
                2567,
                2568,
                2569,
                2570,
                2571,
                2572,
                -1,
                -1,
                -1,
                2576,
                -1,
                -1,
                2579,
                -1,
                -1,
                2582,
                -1,
                -1,
                2585,
                -1,
                2587,
                -1,
                -1,
                2590,
                -1,
                -1,
                2593,
                2594,
                2595,
                2596,
                2597,
                -1,
                2599,
                2600,
                2601,
                -1,
                -1,
                2604,
                -1,
                2606,
                -1,
                2608,
                2609,
                2610,
                2611,
                -1,
                2613,
                -1,
                -1,
                2616,
                -1,
                -1,
                2619,
                -1,
                -1,
                -1,
                -1,
                2624,
                -1,
                -1,
                -1,
                2628,
                2629,
                2630,
                -1,
                -1,
                -1,
                2634,
                2635,
                2636,
                -1,
                -1,
                2639,
                -1,
                2641,
                2642,
                -1,
                -1,
                2645,
                -1,
                -1,
                2648,
                2649,
                2650,
                -1,
                -1,
                -1,
                2654,
                2655,
                -1,
                -1,
                -1,
                2659,
                2660,
                2661,
                2662,
                2663,
                2664,
                2665,
                2666,
                2667,
                -1,
                2669,
                -1,
                2671,
                -1,
                2673,
                2674,
                -1,
                -1,
                -1,
                2678,
                -1,
                2680,
                -1,
                2682,
                -1,
                -1,
                2685,
                2686,
                -1,
                2688,
                2689,
                -1,
                2691,
                2692,
                -1,
                -1,
                -1,
                2696,
                -1,
                2698,
                2699,
                -1,
                -1,
                -1,
                2703,
                2704,
                -1,
                2706,
                2707,
                -1,
                2709,
                -1,
                -1,
                2712,
                2713,
                -1,
                -1,
                -1,
                2717,
                -1,
                -1,
                2720,
                2721,
                2722,
                -1,
                -1,
                2725,
                2726,
                -1,
                -1,
                -1,
                2730,
                -1,
                -1,
                2733,
                2734,
                2735,
                2736,
                2737,
                2738,
                2739,
                -1,
                2741,
                -1,
                -1,
                -1,
                -1,
                2746,
                -1,
                -1,
                -1,
                2750,
                -1,
                2752,
                -1,
                -1,
                2755,
                -1,
                -1,
                2758,
                -1,
                2760,
                -1,
                2762,
                2763,
                -1,
                2765,
                2766,
                -1,
                -1,
                -1,
                2770,
                -1,
                -1,
                2773,
                2774,
                2775,
                2776,
                2777,
                -1,
                2779,
                -1,
                2781,
                -1,
                -1,
                2784,
                -1,
                -1,
                2787,
                -1,
                -1,
                -1,
                2791,
                -1,
                -1,
                2794,
                -1,
                2796,
                -1,
                2798,
                2799,
                2800,
                2801,
                -1,
                2803,
                -1,
                -1,
                -1,
                2807,
                -1,
                -1,
                2810,
                -1,
                -1,
                2813,
                2814,
                2815,
                2816,
                2817,
                2818,
                -1,
                2820,
                -1,
                2822,
                -1,
                -1,
                2825,
                2826,
                -1,
                2828,
                -1,
                -1,
                2831,
                2832,
                -1,
                2834,
                2835,
                2836,
                2837,
                -1,
                -1,
                -1,
                -1,
                -1,
                2843,
                -1,
                2845,
                -1,
                -1,
                2848,
                -1,
                -1,
                2851,
                -1,
                2853,
                2854,
                -1,
                2856,
                2857,
                -1,
                -1,
                2860,
                -1,
                2862,
                -1,
                -1,
                2865,
                -1,
                -1,
                2868,
                -1,
                -1,
                2871,
                2872,
                2873,
                2874,
                -1,
                -1,
                2877,
                2878,
                2879,
                2880,
                2881,
                -1,
                2883,
                -1,
                -1,
                -1,
                2887,
                2888,
                -1,
                -1,
                -1,
                2892,
                -1,
                -1,
                2895,
                2896,
                -1,
                -1,
                -1,
                2900,
                2901,
                -1,
                -1,
                2904,
                2905,
                -1,
                2907,
                2908,
                2909,
                -1,
                -1,
                -1,
                -1,
                2914,
                -1,
                -1,
                -1,
                2918,
                2919,
                2920,
                2921,
                2922,
                2923,
                2924,
                -1,
                2926,
                -1,
                -1,
                2929,
                -1,
                -1,
                2932,
                -1,
                -1,
                2935,
                -1,
                2937,
                2938,
                -1,
                -1,
                -1,
                2942,
                2943,
                2944,
                2945,
                -1,
                2947,
                -1,
                -1,
                -1,
                2951,
                -1,
                2953,
                -1,
                2955,
                2956,
                -1,
                -1,
                -1,
                2960,
                2961,
                2962,
                2963,
                -1,
                2965,
                -1,
                2967,
                -1,
                2969,
                2970,
                2971,
                2972,
                2973,
                -1,
                2975,
                -1,
                -1,
                2978,
                2979,
                -1,
                -1,
                2982,
                -1,
                -1,
                -1,
                2986,
                -1,
                -1,
                2989,
                -1,
                -1,
                2992,
                2993,
                2994,
                2995,
                -1,
                2997,
                -1,
                2999,
                3000,
                -1,
                3002,
                -1,
                3004,
                -1,
                -1,
                3007,
                -1,
                -1,
                3010,
                -1,
                -1,
                3013,
                -1,
                -1,
                3016,
                -1,
                -1,
                3019,
                3020,
                3021,
                3022,
                3023,
                -1,
                3025,
                -1,
                -1,
                3028,
                -1,
                -1,
                3031,
                3032,
                3033,
                -1,
                -1,
                3036,
                3037,
                -1,
                -1,
                -1,
                3041,
                -1,
                3043,
                -1,
                3045,
                -1,
                3047,
                -1,
                3049,
                -1,
                -1,
                3052,
                -1,
                3054,
                -1,
                -1,
                3057,
                -1,
                3059,
                -1,
                -1,
                3062,
                -1,
                3064,
                -1,
                3066,
                3067,
                3068,
                -1,
                -1,
                3071,
                3072,
                -1,
                -1,
                -1,
                3076,
                -1,
                3078,
                -1,
                3080,
                3081,
                -1,
                3083,
                3084,
                3085,
                3086,
                -1,
                -1,
                -1,
                3090,
                -1,
                3092,
                -1,
                -1,
                -1,
                -1,
                3097,
                3098,
                3099,
                -1,
                3101,
                3102,
                3103,
                -1,
                3105,
                3106,
                -1,
                -1,
                -1,
                3110,
                3111,
                -1,
                -1,
                3114,
                3115,
                -1,
                -1,
                -1,
                3119,
                -1,
                -1,
                3122,
                3123,
                3124,
                3125,
                -1,
                -1,
                -1,
                3129,
                -1,
                -1,
                3132,
                -1,
                -1,
                3135,
                -1,
                -1,
                3138,
                3139,
                3140,
                3141,
                -1,
                3143,
                3144,
                -1,
                3146,
                3147,
                3148,
                3149,
                3150,
                -1,
                -1,
                3153,
                3154,
                3155,
                -1,
                -1,
                -1,
                3159,
                -1,
                3161,
                -1,
                -1,
                3164,
                -1,
                3166,
                3167,
                3168,
                -1,
                -1,
                -1,
                -1,
                3173,
                -1,
                -1,
                3176,
                3177,
                -1,
                3179,
                -1,
                -1,
                3182,
                -1,
                -1,
                3185,
                3186,
                3187,
                3188,
                -1,
                -1,
                -1,
                3192,
                -1,
                -1,
                3195,
                3196,
                3197,
                3198,
                3199,
                -1,
                -1,
                -1,
                3203,
                -1,
                3205,
                -1,
                3207,
                -1,
                3209,
                -1,
                3211,
                -1,
                3213,
                -1,
                -1,
                -1,
                3217,
                3218,
                3219,
                3220,
                3221,
                -1,
                -1,
                -1,
                3225,
                -1,
                3227,
                3228,
                -1,
                -1,
                3231,
                -1,
                3233,
                -1,
                -1,
                -1,
                3237,
                3238,
                -1,
                3240,
                3241,
                -1,
                -1,
                3244,
                3245,
                3246,
                -1,
                3248,
                -1,
                -1,
                -1,
                -1,
                -1,
                3254,
                3255,
                3256,
                3257,
                3258,
                3259,
                -1,
                3261,
                3262,
                -1,
                -1,
                -1,
                -1,
                -1,
                3268,
                3269,
                -1,
                -1,
                3272,
                -1,
                -1,
                3275,
                3276,
                3277,
                -1,
                -1,
                -1,
                3281,
                -1,
                -1,
                3284,
                3285,
                3286,
                3287,
                -1,
                -1,
                3290,
                -1,
                -1,
                3293,
                3294,
                -1,
                -1,
                3297,
                -1,
                -1,
                3300,
                3301,
                -1,
                3303,
                3304,
                3305,
                -1,
                3307,
                3308,
                -1,
                3310,
                3311,
                -1,
                3313,
                -1,
                -1,
                -1,
                3317,
                3318,
                -1,
                -1,
                3321,
                -1,
                -1,
                3324,
                -1,
                -1,
                3327,
                -1,
                -1,
                3330,
                3331,
                3332,
                -1,
                -1,
                3335,
                3336,
                3337,
                -1,
                -1,
                -1,
                3341,
                3342,
                3343,
                3344,
                3345,
                3346,
                -1,
                -1,
                -1,
                3350,
                -1,
                -1,
                3353,
                -1,
                -1,
                3356,
                3357,
                3358,
                3359,
                -1,
                -1,
                3362,
                -1,
                -1,
                -1,
                -1,
                3367,
                -1,
                3369,
                -1,
                3371,
                3372,
                -1,
                -1,
                -1,
                -1,
                3377,
                3378,
                3379,
                3380,
                -1,
                3382,
                -1,
                3384,
                -1,
                3386,
                3387,
                3388,
                3389,
                3390,
                -1,
                3392,
                3393,
                -1,
                -1,
                -1,
                -1,
                -1,
                3399,
                3400,
                3401,
                -1,
                -1,
                -1,
                3405,
                3406,
                -1,
                3408,
                -1,
                3410,
                -1,
                -1,
                3413,
                3414,
                -1,
                3416,
                -1,
                -1,
                -1,
                3420,
                -1,
                -1,
                3423,
                3424,
                3425,
                3426,
                -1,
                3428,
                -1,
                3430,
                3431,
                -1,
                -1,
                3434,
                -1,
                3436,
                -1,
                -1,
                3439,
                -1,
                -1,
                3442,
                3443,
                -1,
                3445,
                -1,
                3447,
                -1,
                -1,
                3450,
                -1,
                3452,
                -1,
                3454,
                -1,
                -1,
                3457,
                3458,
                -1,
                -1,
                -1,
                3462,
                -1,
                3464,
                3465,
                -1,
                -1,
                3468,
                -1,
                -1,
                3471,
                3472,
                -1,
                3474,
                3475,
                3476,
                -1,
                3478,
                3479,
                3480,
                3481,
                -1,
                3483,
                -1,
                -1,
                3486,
                -1,
                3488,
                -1,
                3490,
                -1,
                3492,
                -1,
                -1,
                3495,
                -1,
                3497,
                3498,
                3499,
                -1,
                -1,
                3502,
                -1,
                3504,
                -1,
                -1,
                3507,
                -1,
                -1,
                -1,
                3511,
                3512,
                -1,
                3514,
                3515,
                3516,
                3517,
                3518,
                3519,
                -1,
                -1,
                -1,
                3523,
                3524,
                -1,
                -1,
                3527,
                -1,
                -1,
                -1,
                3531,
                -1,
                3533,
                -1,
                -1,
                3536,
                3537,
                3538,
                3539,
                3540,
                -1,
                -1,
                3543,
                -1,
                -1,
                -1,
                3547,
                3548,
                -1,
                -1,
                3551,
                3552,
                -1,
                -1,
                3555,
                -1,
                -1,
                3558,
                -1,
                3560,
                3561,
                3562,
                -1,
                -1,
                -1,
                3566,
                -1,
                3568,
                -1,
                -1,
                -1,
                3572,
                -1,
                3574,
                3575,
                -1,
                -1,
                -1,
                3579,
                3580,
                -1,
                3582,
                -1,
                3584,
                3585,
                -1,
                3587,
                3588,
                3589,
                -1,
                -1,
                3592,
                -1,
                -1,
                3595,
                3596,
                -1,
                3598,
                3599,
                3600,
                -1,
                -1,
                -1,
                3604,
                -1,
                -1,
                -1,
                3608,
                -1,
                -1,
                3611,
                -1,
                3613,
                3614,
                -1,
                3616,
                3617,
                -1,
                3619,
                3620,
                3621,
                -1,
                3623,
                -1,
                3625,
                -1,
                -1,
                3628,
                3629,
                3630,
                -1,
                -1,
                3633,
                -1,
                -1,
                3636,
                -1,
                3638,
                -1,
                -1,
                -1,
                -1,
                3643,
                -1,
                -1,
                3646,
                3647,
                3648,
                3649,
                3650,
                -1,
                -1,
                -1,
                3654,
                3655,
                -1,
                -1,
                -1,
                3659,
                3660,
                3661,
                -1,
                3663,
                -1,
                3665,
                -1,
                -1,
                3668,
                3669,
                3670,
                -1,
                -1,
                -1,
                3674,
                -1,
                3676,
                -1,
                -1,
                3679,
                -1,
                -1,
                3682,
                3683,
                3684,
                3685,
                3686,
                -1,
                3688,
                -1,
                -1,
                3691,
                -1,
                -1,
                3694,
                3695,
                -1,
                3697,
                -1,
                3699,
                -1,
                -1,
                3702,
                3703,
                3704,
                -1,
                -1,
                -1,
                -1,
                3709,
                -1,
                -1,
                3712,
                3713,
                -1,
                3715,
                3716,
                3717,
                3718,
                -1,
                -1,
                3721,
                -1,
                3723,
                -1,
                -1,
                -1,
                3727,
                -1,
                3729,
                -1,
                3731,
                3732,
                3733,
                -1,
                3735,
                3736,
                -1,
                -1,
                -1,
                -1,
                3741,
                3742,
                -1,
                3744,
                -1,
                -1,
                3747,
                -1,
                -1,
                3750,
                3751,
                3752,
                -1,
                -1,
                -1,
                3756,
                3757,
                -1,
                3759,
                -1,
                3761,
                -1,
                3763,
                3764,
                3765,
                -1,
                -1,
                3768,
                3769,
                -1,
                -1,
                -1,
                3773,
                -1,
                -1,
                3776,
                -1,
                3778,
                -1,
                3780,
                3781,
                -1,
                3783,
                -1,
                3785,
                -1,
                -1,
                -1,
                3789,
                3790,
                3791,
                3792,
                3793,
                3794,
                3795,
                3796,
                3797,
                3798,
                3799,
                3800,
                3801,
                3802,
                -1,
                -1,
                -1,
                -1,
                3807,
                3808,
                -1,
                -1,
                3811,
                -1,
                3813,
                3814,
                -1,
                -1,
                -1,
                3818,
                -1,
                3820,
                3821,
                -1,
                -1,
                3824,
                -1,
                3826,
                -1,
                -1,
                3829,
                3830,
                3831,
                3832,
                3833,
                -1,
                3835,
                3836,
                3837,
                -1,
                -1,
                -1,
                -1,
                -1,
                -1,
                3844,
                -1,
                3846,
                3847,
                3848,
                3849,
                -1,
                3851,
                -1,
                -1,
                3854,
                -1,
                -1,
                -1,
                3858,
                -1,
                -1,
                -1,
                3862,
                3863,
                3864,
                -1,
                -1,
                3867,
                -1,
                -1,
                3870,
                3871,
                -1,
                3873,
                -1,
                -1,
                3876,
                -1,
                3878,
                3879,
                3880,
                3881,
                -1,
                -1,
                -1,
                -1,
                3886,
                -1,
                3888,
                -1,
                -1,
                3891,
                3892,
                -1,
                -1,
                -1,
                3896,
                -1,
                -1,
                3899,
                3900,
                3901,
                3902,
                3903,
                3904,
                -1,
                -1,
                3907,
                -1,
                -1,
                3910,
                3911,
                3912,
                3913,
                3914,
                -1,
                -1,
                -1,
                3918,
                -1,
                -1,
                3921,
                -1,
                -1,
                3924,
                -1,
                -1,
                3927,
                -1,
                3929,
                -1,
                -1,
                3932,
                3933,
                3934,
                -1,
                3936,
                3937,
                3938,
                3939,
                -1,
                -1,
                3942,
                3943,
                3944,
                3945,
                -1,
                -1,
                3948,
                -1,
                -1,
                3951,
                -1,
                3953,
                -1,
                -1,
                3956,
                -1,
                -1,
                -1,
                3960,
                -1,
                3962,
                -1,
                -1,
                3965,
                3966,
                -1,
                -1,
                3969,
                -1,
                -1,
                3972,
                -1,
                -1,
                -1,
                3976,
                3977,
                3978,
                3979,
                3980,
                -1,
                -1,
                -1,
                3984,
                -1,
                -1,
                3987,
                3988,
                3989,
                3990,
                -1,
                3992,
                3993,
                -1,
                -1,
                -1,
                -1,
                3998,
                3999,
                -1,
                -1,
                -1,
                4003,
                -1,
                -1,
                4006,
                4007,
                4008,
                4009,
                4010,
                4011,
                -1,
                4013,
                4014,
                4015,
                4016,
                -1,
                4018,
                -1,
                -1,
                4021,
                4022,
                -1,
                -1,
                -1,
                -1,
                4027,
                -1,
                4029,
                -1,
                4031,
                -1,
                4033,
                -1,
                -1,
                4036,
                4037,
                4038,
                4039,
                -1,
                -1,
                -1,
                4043,
                4044,
                -1,
                4046,
                -1,
                4048,
                -1,
                4050,
                -1,
                -1,
                4053,
                4054,
                -1,
                -1,
                -1,
                4058,
                4059,
                -1,
                4061,
                4062,
                4063,
                -1,
                4065,
                -1,
                -1,
                -1,
                4069,
                -1,
                4071,
                -1,
                4073,
                -1,
                -1,
                4076,
                -1,
                -1,
                4079,
                -1,
                -1,
                4082,
                -1,
                -1,
                4085,
                -1,
                4087,
                4088,
                4089,
                -1,
                4091,
                4092,
                4093,
                4094,
                -1,
                4096,
                -1,
                -1,
                -1,
                -1,
                4101,
                -1,
                4103,
                4104,
                -1,
                4106,
                4107,
                -1,
                -1,
                4110,
                -1,
                -1,
                4113,
                4114,
                -1,
                -1,
                4117,
                4118,
                -1,
                -1,
                4121,
                -1,
                -1,
                4124,
                -1,
                4126,
                4127,
                -1,
                -1,
                4130,
                4131,
                -1,
                -1,
                4134,
                -1,
                4136,
                -1,
                -1,
                4139,
                -1,
                4141,
                4142,
                4143,
                4144,
                -1,
                4146,
                -1,
                4148,
                4149,
                -1,
                -1,
                4152,
                -1,
                -1,
                -1,
                4156,
                4157,
                -1,
                4159,
                -1,
                -1,
                -1,
                4163,
                4164,
                4165,
                4166,
                4167,
                4168,
                -1,
                -1,
                4171,
                -1,
                -1,
                4174,
                -1,
                -1,
                -1,
                -1,
                4179,
                4180,
                4181,
                -1,
                4183,
                4184,
                -1,
                -1,
                -1,
                4188,
                -1,
                -1,
                -1,
                -1,
                4193,
                4194,
                4195,
                -1,
                -1,
                4198,
                -1,
                4200,
                -1,
                -1,
                4203,
                -1,
                4205,
                4206,
                4207,
                4208,
                -1,
                4210,
                -1,
                4212,
                -1,
                -1,
                4215,
                -1,
                -1,
                4218,
                -1,
                -1,
                4221,
                4222,
                -1,
                4224,
                -1,
                -1,
                -1,
                4228,
                4229,
                4230,
                4231,
                4232,
                4233,
                -1,
                -1,
                -1,
                -1,
                4238,
                -1,
                -1,
                4241,
                4242,
                4243,
                -1,
                4245,
                4246,
                -1,
                4248,
                4249,
                4250,
                -1,
                -1,
                4253,
                4254,
                -1,
                -1,
                -1,
                -1,
                4259,
                -1,
                -1,
                4262,
                -1,
                -1,
                4265,
                -1,
                -1,
                4268,
                4269,
                4270,
                -1,
                -1,
                4273,
                -1,
                -1,
                4276,
                4277,
                4278,
                -1,
                4280,
                -1,
                4282,
                4283,
                -1,
                4285,
                4286,
                4287,
                4288,
                -1,
                4290,
                -1,
                4292,
                4293,
                -1,
                -1,
                4296,
                -1,
                -1,
                4299,
                -1,
                4301,
                -1,
                4303,
                -1,
                -1,
                -1,
                4307,
                4308,
                4309,
                4310,
                4311,
                4312,
                -1,
                -1,
                -1,
                -1,
                4317,
                4318,
                -1,
                -1,
                -1,
                4322,
                -1,
                -1,
                4325,
                4326,
                4327,
                -1,
                4329,
                -1,
                -1,
                -1,
                -1,
                4334,
                4335,
                -1,
                -1,
                4338,
                -1,
                4340,
                -1,
                4342,
                -1,
                -1,
                -1,
                -1,
                4347,
                4348,
                4349,
                4350,
                4351,
                4352,
                4353,
                4354,
                4355,
                4356,
                4357,
                -1,
                -1,
                -1,
                -1,
                -1,
                -1,
                4364,
                4365,
                -1,
                -1,
                -1,
                -1,
                4370,
                -1,
                -1,
                4373,
                4374,
                4375,
                -1,
                -1,
                -1,
                4379,
                -1,
                4381,
                -1,
                -1,
                -1,
                4385,
                -1,
                4387,
                4388,
                -1,
                4390,
                -1,
                4392,
                -1,
                -1,
                4395,
                -1,
                -1
            ],
            "children_right": [
                106,
                105,
                16,
                5,
                -1,
                7,
                -1,
                15,
                12,
                11,
                -1,
                -1,
                14,
                -1,
                -1,
                -1,
                70,
                27,
                26,
                21,
                -1,
                23,
                -1,
                25,
                -1,
                -1,
                -1,
                67,
                30,
                -1,
                64,
                43,
                42,
                39,
                38,
                37,
                -1,
                -1,
                -1,
                41,
                -1,
                -1,
                -1,
                45,
                -1,
                61,
                48,
                -1,
                58,
                57,
                56,
                55,
                54,
                -1,
                -1,
                -1,
                -1,
                -1,
                60,
                -1,
                -1,
                63,
                -1,
                -1,
                66,
                -1,
                -1,
                69,
                -1,
                -1,
                104,
                89,
                84,
                75,
                -1,
                83,
                82,
                79,
                -1,
                81,
                -1,
                -1,
                -1,
                -1,
                88,
                87,
                -1,
                -1,
                -1,
                97,
                94,
                93,
                -1,
                -1,
                96,
                -1,
                -1,
                103,
                100,
                -1,
                102,
                -1,
                -1,
                -1,
                -1,
                -1,
                1934,
                181,
                150,
                143,
                116,
                113,
                -1,
                115,
                -1,
                -1,
                130,
                129,
                120,
                -1,
                126,
                123,
                -1,
                125,
                -1,
                -1,
                128,
                -1,
                -1,
                -1,
                134,
                133,
                -1,
                -1,
                142,
                137,
                -1,
                139,
                -1,
                141,
                -1,
                -1,
                -1,
                145,
                -1,
                149,
                148,
                -1,
                -1,
                -1,
                176,
                175,
                174,
